25
-12
5
-46
-7
-8
14
-12
11
8
-25
-26
-12
-33
-5
-24
-19
19
-38
3
6
-21
-9
1
-9
-1
-15
-35
-17
-8
6
12
13
24
-31
-3
-32
-31
-7
12
1
26
-37
15
-1
-34
-20
21
-18
-14
28
11
-45
-13
50
16
-42
41
23
-35
-27
-35
14
39
26
30
13
-12
22
-2
-4
11
14
31
-20
15
-20
-2
-20
-2
4
13
14
-22
-9
20
-31
-21
-32
33
0
-3
-20
8
-43
-9
-1
9
-7
-2
3
14
-8
-40
-29
-9
10
19
-32
-14
-44
-30
-36
35
2
-19
-21
-7
-62
18
35
31
-8
-7
6
6
-18
34
-7
1
-6
-16
-10
11
-48
14
-19
14
46
15
14
18
-21
14
-25
-14
16
-29
-17
-13
13
-10
-27
9
-16
-1
-4
-17
14
3
-19
15
-34
7
-11
-5
2
18
-8
17
-11
-33
2
-22
-14
20
-6
34
-30
-9
6
-22
3
28
-32
13
-20
54
-6
-8
27
46
11
32
3
31
-7
-19
47
1
-9
34
-10
79
9
-12
49
35
-19
18
-36
66
21
1
5
49
-36
-5
-14
-9
-31
6
3
-62
-22
-34
-6
-3
-24
-1
-23
5
-12
-23
14
-21
15
-11
-32
3
-29
-13
-9
-6
10
-4
-2
-35
-39
0
-5
9
-43
-23
-32
45
-31
23
1
-31
2
-12
-35
40
6
-11
-2
27
-33
-19
-15
4
-11
-13
7
-7
-26
-34
-30
42
-12
3
-1
26
-31
-5
-15
-32
-9
20
-1
-9
37
10
9
-35
4
-34
-12
-6
-9
-11
-10
9
-28
-41
5
-14
19
-9
-20
13
-26
33
-26
-10
17
-7
-18
-24
-1
-58
-16
-10
-13
-14
-25
48
11
-45
10
11
-18
-23
-12
19
-8
-11
-13
31
-25
-2
-27
61
-29
-55
7
11
9
-50
-23
27
0
-19
24
13
44
-16
-2
48
3
-13
-4
21
-26
-19
2
-56
-1
-1
1
19
-7
-20
-17
-11
10
-11
8
12
12
-22
-20
-5
-30
10
-7
-6
-12
-18
3
-37
-9
21
-1
-24
22
-33
-15
-28
11
12
-8
-28
18
-26
-23
-18
15
11
-13
-11
-2
9
-11
-21
34
53
14
-12
-3
-2
-3
1
38
61
17
-15
15
-12
-12
-6
56
18
-43
10
18
2
6
-34
38
21
-20
-14
8
-38
12
30
-2
43
-7
49
-10
-39
-1
-2
4
2
-52
17
-33
-17
15
42
-24
60
-28
-4
-31
-46
-6
44
-4
40
-47
7
-12
-10
15
-20
13
29
1
42
-25
9
3
47
-36
54
0
3
-8
5
1
-2
-47
21
-14
26
-29
-17
13
-9
15
38
-24
-28
10
-28
23
-9
0
14
-26
0
23
-17
-4
35
-27
0
-10
-1
-1
19
21
-12
-15
57
-56
10
-9
-61
-23
-9
15
40
25
-6
28
11
12
-16
43
1
-15
-23
0
14
-7
-19
-19
26
-36
47
-26
-26
-28
-18
13
-10
-4
33
22
8
-24
-11
-16
-33
-9
26
22
45
29
27
22
17
-38
-21
-13
-2
36
-26
4
55
24
-6
9
-20
13
-5
7
65
23
7
19
10
-17
-28
10
-20
26
8
3
-9
4
-21
-15
37
-14
-12
19
13
-34
3
36
23
-10
-4
25
-6
4
-8
-14
-1
44
-2
1
2
30
-10
-13
1
6
21
14
-15
7
1
31
1
-24
11
11
1
28
-12
-39
-36
38
20
7
-11
-7
23
1
-1
8
-50
37
-24
-32
49
-49
26
25
-54
37
11
-31
-33
11
-25
17
-22
24
-5
-16
-18
-39
9
25
-51
-23
-22
-36
36
1
18
3
-76
3
-8
-23
-26
-8
28
28
50
9
-12
15
51
4
8
-5
2
30
2
-52
-42
-2
1
22
-14
36
-5
-28
2
-22
-25
-34
-25
1
-11
-35
34
-32
-4
13
-22
-26
-11
-13
-22
-22
6
10
-5
-22
7
-15
52
-22
-44
-44
-9
-53
-26
-36
46
46
-7
-22
-12
-28
-13
5
-56
-8
4
-25
-15
11
-8
16
-44
-45
-35
-7
-27
-22
-49
9
-73
57
25
16
-27
-16
19
-11
61
38
-20
-14
23
20
-19
-20
-7
-26
21
-17
-45
17
-16
-19
-5
-43
8
1
-19
28
-43
-17
27
-22
36
-9
-13
44
9
-26
-65
-20
4
-24
9
58
28
13
9
-17
-28
-27
2
65
-4
-17
36
-34
19
-17
32
13
-12
-17
-30
34
6
-26
-15
-21
23
-7
38
8
9
-23
-9
15
-2
-3
21
10
25
-15
39
-38
-33
8
10
26
-5
-12
-28
46
-1
12
-19
32
-9
-29
-43
-22
-44
1
6
20
26
4
-20
2
-21
-13
-29
-13
32
-45
35
24
35
15
-2
13
-1
-19
3
26
-10
-23
31
1
10
-24
-1
5
-13
8
30
8
1
29
-2
53
51
-3
40
32
-4
-16
-1
17
27
-29
17
-21
-20
-15
-32
-31
0
49
-19
-19
7
-13
0
-31
-25
-33
-12
-31
13
6
8
2
-8
-14
1
-31
-37
-4
-5
2
-10
16
-9
-18
-4
-10
14
-40
-12
-5
-7
-36
12
5
30
-20
9
-2
3
-38
-42
12
20
-30
-8
25
9
-30
9
-11
25
-34
-4
-22
-9
-36
15
-13
5
-8
28
-14
-9
-45
-39
-25
41
-41
18
29
2
5
-9
-53
-13
8
35
-24
-31
-25
-2
19
-54
24
12
-13
0
-22
27
13
-20
-36
43
6
16
-13
-11
-10
-6
36
13
-3
-17
5
-8
-19
-28
20
11
-28
-32
26
-20
-24
-20
-12
-2
-11
-25
4
-34
43
-21
33
-17
-6
7
27
-40
-23
-39
8
11
-20
-52
3
-15
-10
-70
-14
20
-51
-51
15
33
38
0
-59
17
-12
-73
-9
0
18
-28
14
-40
-24
8
19
8
14
-34
46
-43
-26
-3
33
-7
15
-10
-45
-10
-19
16
17
0
12
17
-15
-26
-48
-36
-2
19
0
22
6
-39
-49
1
51
27
40
13
63
-8
7
66
-12
6
28
-3
68
12
-23
-26
-11
-4
23
-32
5
10
-26
27
-14
-22
5
13
-7
-30
0
-19
-4
-15
20
-5
18
-10
-2
-34
-12
-9
13
9
25
13
-27
-34
-7
-23
11
11
3
-5
-4
-23
-5
4
20
-22
10
-2
8
7
-13
15
8
-14
1
-1
-9
17
-24
-1
22
2
-1
4
1
-31
-11
16
37
-23
16
20
13
-11
-15
20
25
-23
2
4
1
32
-14
-9
10
-13
-5
51
-4
42
23
29
1
7
-10
18
0
81
-37
49
3
7
28
-12
-21
66
37
-20
-7
-22
-6
61
-18
-38
7
-12
0
-6
22
-21
-12
35
-14
6
4
-10
14
18
-32
27
-9
31
-13
-30
1
-4
-7
-8
0
-9
-6
5
30
0
-16
-42
-46
-54
-12
-4
26
42
-25
-7
65
-16
24
-26
-13
-20
43
-16
-14
20
-20
-35
5
46
31
-49
21
-3
-24
-28
-6
-5
38
-7
-22
-4
27
23
-40
20
36
-24
-18
-16
-1
42
-46
13
33
-35
25
-25
-14
18
-8
13
38
7
51
-26
-15
-9
6
-46
1
-24
-18
-35
-50
59
7
-3
40
-39
24
-41
7
35
30
25
48
1
21
-12
-3
13
0
-22
-16
9
32
-8
8
-12
-2
9
-9
9
49
-1
14
-27
15
-21
-11
-1
38
0
-10
4
12
0
-17
-30
27
3
27
22
-15
4
9
26
51
37
17
39
10
-8
-15
28
47
-4
-18
3
13
13
4
1
-11
17
-11
9
26
-18
5
20
31
56
28
-3
53
-21
-33
16
-42
-14
7
-35
32
4
4
-1
-1
-14
-9
19
-8
33
0
20
10
2
-45
43
46
31
30
-33
9
-24
6
-26
30
11
-12
16
-50
5
3
11
-60
27
7
-41
-23
13
-31
-6
0
33
0
-5
-17
-27
-20
14
-24
56
5
4
26
-4
-12
-43
14
23
21
-43
34
-10
-15
58
10
-14
1
-1
8
30
-5
-38
33
-11
25
-42
20
17
-4
-11
29
34
-5
31
23
56
-20
1
20
-23
-11
44
-64
38
3
12
-11
17
-11
21
-20
-10
23
-35
-16
31
6
23
-25
26
16
19
-26
42
10
-43
6
-31
-37
-15
-36
12
-26
-64
34
-7
-31
-36
-2
16
1
-2
13
-14
-9
-29
-5
31
3
-61
-14
-20
-9
18
-27
-1
28
-22
8
-4
6
24
-32
10
24
-53
22
-16
-4
21
-17
23
9
-11
-6
-19
11
28
25
36
5
23
-14
-18
32
28
21
0
-2
46
-11
12
31
53
8
-7
36
10
-11
-25
-5
-49
33
26
-8
43
-25
7
-4
-38
16
-7
-16
22
10
-9
8
12
31
-7
10
24
25
13
16
-27
0
48
18
55
28
0
34
1
23
8
-5
69
-26
13
23
-8
0
4
-5
1
6
-30
-12
-50
57
29
-4
-17
-7
26
-10
13
34
49
-29
-54
23
14
24
-13
25
19
3
-50
-3
-15
13
19
37
51
0
46
-5
-1
36
10
1
51
-19
-32
-18
-3
35
33
34
-27
-10
35
16
2
59
-25
-13
4
11
-24
1
9
39
-40
-18
-23
-6
-11
22
6
17
10
-10
-1
1
10
2
21
15
-4
-1
14
-20
-12
6
-14
55
-41
-6
-12
-23
-16
10
-10
17
30
-15
-8
9
-13
-28
2
13
-20
16
35
-20
8
0
-24
23
9
-1
20
26
26
-21
-11
18
38
-29
30
31
36
8
6
5
11
3
-34
-4
4
13
7
15
-43
-33
-29
46
18
13
12
19
31
37
0
5
34
51
31
-11
6
-28
-44
-2
-19
5
40
-39
31
6
33
-9
-29
9
54
-41
3
17
-2
8
-13
77
45
-11
-9
28
24
0
2
35
43
-30
16
53
-36
-2
12
18
25
-26
4
8
2
5
-1
21
71
7
13
-35
-16
-22
12
31
7
0
17
-5
17
12
6
34
5
33
3
-34
34
-7
-15
-4
22
0
48
-14
30
-59
-24
-13
-58
-16
16
11
-2
43
25
4
-3
-14
2
-19
-5
22
12
-50
-42
85
-13
-22
4
-28
18
-49
-24
10
-34
-50
6
27
-9
6
63
16
53
-32
-62
19
20
-32
-13
5
-14
-50
18
45
49
-23
2
6
-17
-34
5
-8
17
-12
-2
3
-12
14
44
-5
4
24
-21
4
6
-37
6
44
11
25
-18
-14
-7
6
1
30
3
3
-27
5
-23
-30
15
13
25
20
-10
4
18
37
-22
36
-25
-10
7
-6
17
4
-25
27
12
-3
35
22
-7
-31
-21
42
38
-34
0
-19
29
-12
27
11
82
-23
23
18
-29
-10
27
-2
52
-23
20
4
34
-23
28
-4
-14
-10
1
5
-60
44
18
-6
-3
-54
-10
-9
-42
-33
-64
-37
-33
6
30
9
-21
-31
-5
-13
-4
20
44
-25
-5
24
7
-27
15
-11
3
-18
-34
9
23
-47
-76
-23
-17
19
4
-15
8
-10
21
65
0
-69
-43
-27
-18
12
2
34
26
-29
2
-44
-20
3
-41
-22
-6
-8
58
-49
13
13
-66
56
-16
3
-11
28
-35
40
-43
30
-43
-7
13
12
-30
-53
44
-52
-56
20
58
23
-39
-33
-23
-16
-55
-8
8
18
-1
29
76
-32
-32
-10
-21
16
-22
-3
-17
-17
4
-7
-43
-13
-67
-32
-46
-40
25
-19
39
-27
-32
-19
21
-45
21
-29
28
-14
-30
-12
25
-17
-8
-26
-12
-22
-25
-8
-2
-47
26
8
63
-29
-20
-32
27
-47
11
-3
39
-26
-24
-27
8
-35
-24
16
-6
-32
1
-17
-3
-33
30
1
71
-13
3
7
-4
-45
9
42
1
-28
-26
14
40
-28
-40
48
-6
-16
-12
42
51
-1
-18
22
-14
3
-8
13
2
35
-18
-16
-22
8
29
31
8
73
17
-43
-38
54
-18
23
6
15
-7
59
-17
6
8
10
-29
43
8
44
-30
36
-35
-7
-22
-1
-6
-19
-17
1
-3
-9
-28
26
13
-19
0
28
26
-15
11
33
-18
21
-15
10
2
0
12
19
-27
11
-19
-11
-13
22
-18
-29
-18
-6
2
-35
35
1
-3
-20
-11
18
-46
-25
3
-27
-17
10
-33
27
-37
-11
-17
-21
-5
-38
-25
-3
-56
-39
-6
63
-14
4
-35
19
-63
-19
2
23
-14
8
-11
-1
-11
-29
0
-4
-12
-7
-43
10
-52
30
5
-7
10
-22
-33
-47
-28
15
-3
-5
-17
15
32
-45
-16
19
22
1
-14
-14
-34
34
26
-7
-32
-12
-32
-22
-29
-5
4
-12
-34
-29
-71
4
-6
-17
-4
-7
-12
-7
-3
-10
-25
35
-11
-9
-28
-15
-14
-16
-10
5
4
1
-8
-25
5
11
5
-11
18
36
0
6
-1
27
-23
1
-27
-9
-16
1
-3
23
-16
14
-15
8
-17
-13
42
5
3
-13
-18
2
-2
-16
73
-13
9
-9
21
-44
14
31
44
-1
-10
6
10
20
52
21
-58
-25
2
14
2
-36
48
1
34
21
2
-16
22
-29
-18
35
7
35
1
-5
-5
5
-1
8
35
-2
-13
-14
-28
8
20
-26
34
-6
-16
-6
24
-33
7
17
-49
1
-28
-2
2
1
-4
24
-52
-33
1
0
-38
24
20
14
8
-23
18
-8
-19
45
22
11
42
-17
-6
-12
-28
-1
-18
3
15
-25
-7
-10
2
-2
-13
-1
-18
15
29
-4
-33
4
22
-8
33
-3
8
-26
-36
-18
36
-15
2
-36
-20
-19
-23
-22
7
-9
-58
7
21
5
-8
3
12
-12
-50
-26
18
-9
-38
9
-5
-33
25
-10
21
2
-1
17
7
-14
13
4
34
-4
25
30
16
1
-2
8
18
-3
1
51
35
-13
-4
8
-15
-24
0
19
18
-8
-9
-6
18
14
50
19
-1
3
1
13
4
33
-11
46
6
1
-5
19
2
14
-13
43
-5
-1
-5
-10
32
16
49
-5
-18
-6
14
-3
4
11
30
-30
-31
0
-9
2
7
50
22
-10
-26
15
27
4
5
1
-5
12
2
-7
3
30
9
-1
4
2
15
15
1
-15
25
-20
14
-20
-8
-1
-6
22
4
-41
17
-13
-30
41
3
11
-7
-5
-16
-18
-18
18
10
-22
4
34
-7
-40
-24
7
-21
2
29
40
4
-15
16
45
40
23
-20
-18
-19
51
18
15
14
-12
-13
0
-35
-24
25
-28
-25
2
-1
-34
-23
-20
38
-5
-15
44
-3
4
-28
-35
-15
-36
16
-48
18
18
-11
-47
-6
14
9
8
10
-15
22
22
3
-23
26
39
-17
1
12
-21
21
-52
-22
-37
-16
-22
46
-37
-2
5
14
32
26
-21
-4
-10
-1
-33
34
42
-23
-41
55
-11
-14
-37
-2
-54
6
-24
6
-14
1
-31
-27
12
-11
2
30
5
2
11
-39
38
2
-9
48
28
13
7
-3
12
-11
-5
13
22
7
-9
-35
-4
26
12
-1
54
-9
-15
-41
1
9
-6
10
28
6
-18
11
5
-12
4
17
10
-5
-26
-42
-10
-6
-3
-10
-13
-5
-15
-46
14
-19
-15
3
-26
-18
-25
31
31
-27
-3
5
-25
-28
-3
11
2
-16
8
-2
17
-32
13
30
-8
-7
18
37
12
10
20
8
-16
0
15
-18
-11
6
14
1
13
30
-4
-23
24
-11
-4
-31
-23
-7
-5
-36
4
22
14
14
-28
-9
17
-31
-19
-26
26
-47
64
40
-9
10
-32
-5
23
-22
63
17
-22
41
-16
47
12
27
5
10
4
20
-37
8
68
17
1
-8
6
5
-9
-13
4
2
28
-42
20
46
26
15
12
-18
-48
-27
6
-31
-9
-9
14
9
7
-19
14
18
33
-23
-15
69
-25
-44
6
32
24
-26
1
78
-19
-22
-6
-9
13
17
-10
23
-8
-32
-3
3
-26
-13
-51
48
10
-52
10
33
-13
-27
-13
46
-22
-40
-9
0
-20
-15
-4
-50
40
46
36
6
47
15
-9
-13
8
1
29
-6
-18
-30
2
-5
-33
-1
-36
-11
-5
-23
2
-42
9
58
14
67
42
13
-3
47
10
1
26
-16
-18
-4
-8
-18
-28
-9
0
-5
-43
-34
3
-8
0
40
37
48
26
-9
-25
37
7
-19
30
-31
25
-23
-22
-10
-15
-16
-11
22
-23
-6
3
10
5
-18
-17
-12
-5
-22
12
-23
6
-9
-27
16
50
13
13
6
8
-23
-26
-6
39
19
3
27
-22
-32
-49
6
-3
-17
16
-29
13
-7
-45
-2
36
27
-5
-8
-26
-7
-15
16
-10
17
-14
33
-5
-35
-13
-21
-5
-34
-11
-4
22
-12
-84
41
-10
23
-7
-15
0
-13
-33
-6
29
12
-27
9
-5
16
-26
35
37
-10
-46
23
-3
31
-27
-6
20
-23
-4
-15
-24
11
26
25
45
-21
-13
-18
-8
-23
13
60
14
-36
-46
-9
3
8
-50
65
-51
23
-44
2
-6
-6
18
-25
32
-18
-8
44
12
-29
71
-35
42
35
-10
25
-26
-9
12
-30
-7
-29
-52
-20
-22
35
8
27
-44
-36
-6
-23
8
-7
26
13
19
13
8
3
-1
-8
-3
20
-25
-14
-8
2
-44
6
-14
-4
-42
-10
-23
-56
18
-17
33
40
-9
6
19
52
-6
-16
-11
26
7
-13
23
45
-43
-4
-15
-6
-9
-12
-13
-40
53
-36
44
25
-3
6
-7
34
15
-40
-8
37
-11
-19
8
-18
-7
-7
4
-8
-23
4
-6
-46
4
-30
-22
-9
-45
-16
11
28
43
2
-1
-31
7
5
-4
-20
58
13
-10
-14
33
-20
-12
-32
-23
-16
-23
-38
24
6
-35
-13
3
8
9
-47
6
-4
-27
-49
29
15
-16
-18
13
-18
-12
28
34
-9
-22
-10
-17
-15
-33
-19
21
-3
21
5
15
-6
-36
14
6
-20
9
21
-17
-6
-25
11
-19
-24
-10
-17
43
-23
-16
-2
22
18
-11
-24
-31
-12
-15
-50
9
12
15
-43
2
19
-29
-28
-30
4
-22
-4
19
11
6
61
-28
-37
27
10
-49
13
19
-27
-3
9
-9
33
-35
39
9
72
-1
0
9
-23
16
28
37
58
-7
-43
-5
-11
-46
-13
2
38
-4
-43
21
4
-22
-25
-6
78
33
2
-48
7
47
-5
2
-24
-16
1
5
-53
20
-39
4
14
-30
33
0
19
22
26
36
-28
-48
-10
0
-98
-33
3
45
-30
-36
12
-13
-21
-30
-38
51
-42
-19
20
17
43
-29
-61
-13
-10
-40
18
-31
-16
33
-35
39
61
30
32
-35
63
-47
-71
11
30
47
71
-48
23
-68
-38
-38
42
-12
-18
10
-35
12
-31
-39
-44
-47
15
-27
24
-4
-2
-15
-6
-30
17
6
48
20
23
-3
4
3
-30
15
-17
-24
-53
-23
-33
-42
9
-11
9
-20
-40
-20
9
-14
24
18
23
37
12
-22
-2
44
-2
10
-21
7
-25
-41
26
-20
-17
26
2
13
-8
0
46
-7
-24
30
39
-34
-2
30
21
-29
-5
34
-14
-20
12
-41
-4
15
-5
28
-17
-6
-18
-29
4
-18
7
18
-9
-9
-32
7
-3
-6
-1
58
-25
10
16
0
63
8
-4
23
-25
-9
-4
-17
54
1
-1
37
-14
-23
-9
-7
20
-26
14
64
-2
-13
-26
18
51
10
-16
16
-28
-12
-22
-15
66
7
-4
42
-4
-8
-2
-34
25
63
54
4
-25
53
-25
-16
28
12
29
-17
-2
-2
24
-53
-61
-27
-10
13
18
-30
33
-8
-68
5
21
26
-13
67
-2
-69
27
-34
18
-32
-23
37
-31
-58
70
-38
5
10
38
0
-38
8
-33
-1
24
-18
-26
2
-30
-37
11
-17
-30
-23
-20
-44
-27
-44
-23
18
-2
-17
-33
-59
-19
-27
59
2
-32
1
-21
13
-4
-38
-46
22
-18
22
2
50
13
-11
11
0
10
20
-13
15
35
6
59
-33
-53
-8
-19
-64
-32
-34
15
-19
-39
6
10
19
-10
-16
29
21
-15
-20
-10
44
26
-13
39
-40
-31
-8
-36
-43
-18
3
-47
15
-18
16
-1
1
-24
13
12
21
18
-8
4
-21
-16
10
-40
14
-24
14
16
6
-26
7
-12
-5
-25
2
-5
-5
-31
-6
-14
-8
-5
-1
-11
15
-8
-31
-26
31
1
-11
17
10
-8
3
43
15
-3
-18
10
-2
-17
-5
0
17
9
-13
-5
5
-13
8
-28
16
3
-16
25
-52
-24
6
45
14
-12
-28
44
-33
-20
-18
43
11
-5
-24
16
-13
-2
-1
-48
0
0
0
0
0
0
-1
0
0
0
0
0
0
0
-1
0
0
0
0
0
0
0
-1
0
0
0
0
0
0
0
0
0
0
0
0
0
0
0
-1
0
0
0
0
0
0
0
-1
0
0
0
0
0
0
0
0
0
0
0
0
0
0
0
-1
0
0
0
0
0
0
0
-1
0
11
-18
23
-19
-1
1
6
26
-35
23
37
16
31
15
14
39
-8
-17
6
13
-6
10
20
23
12
12
1
-20
39
-2
1
7
-19
38
7
40
48
4
-21
12
20
-10
0
-4
50
6
-9
9
11
41
-11
-25
29
-7
-22
-4
0
42
-7
9
44
12
-42
-4
24
-13
-15
-4
22
7
-36
-12
47
-13
5
18
24
-21
49
6
32
13
22
14
-29
-14
-19
-18
-15
29
25
-19
-11
-4
11
30
20
0
35
23
-7
-21
44
1
24
-30
-26
-42
-17
16
5
-45
18
0
37
-43
-31
7
13
-35
-52
-58
7
3
0
-38
-28
17
-3
-47
39
-45
-27
15
23
-19
-47
10
2
-38
25
41
-29
23
0
0
0
0
0
0
0
-1
0
-1
0
0
0
-1
0
-1
0
-1
0
0
0
-1
0
-1
0
0
0
0
0
0
0
-1
0
0
0
1
0
0
0
-1
0
-1
0
1
0
0
0
-1
0
0
0
0
0
0
0
-1
0
0
0
1
0
0
0
-1
0
-1
0
1
0
0
0
-1
-10
5
-22
29
-7
-1
34
-39
0
5
20
19
-1
20
30
-13
1
32
0
27
4
6
4
29
-6
-8
-6
10
3
15
13
-48
6
4
22
2
16
5
12
-23
17
19
9
5
0
-3
10
31
-8
6
-9
8
-5
-5
13
-33
2
-5
11
2
8
26
6
-23
4
2
-10
2
-6
5
15
2
11
19
-15
-13
-18
-7
-4
-11
2
40
-4
24
36
36
-2
-9
12
40
-11
-3
57
-3
-27
-21
19
17
12
15
-43
7
35
-19
16
-15
1
17
-6
-3
-15
-23
36
7
-38
-25
17
-1
-22
-54
-2
-9
11
21
-45
-46
14
41
-35
12
11
-37
34
-13
15
-30
26
3
-11
9
86
-25
-32
70
-7
4
19
-2
-5
8
8
-17
-17
23
27
-7
8
34
16
-13
-5
-26
-25
14
17
18
44
-1
6
18
-22
-5
15
10
-41
-19
-6
36
5
13
17
24
-26
-10
7
-16
16
-6
32
30
13
-10
-26
18
-24
-15
-47
-17
-47
-32
-34
46
-13
32
-21
14
-54
-21
-10
-6
-10
14
-20
3
-23
-15
-11
-35
14
-29
-1
3
-9
22
-64
-58
40
2
-4
34
-27
-26
-17
-62
43
-24
-52
32
0
-46
5
-19
35
-17
30
48
12
-22
-1
-39
-17
37
-6
5
20
30
3
0
-9
47
-62
20
-35
-12
27
11
-7
-24
67
4
28
28
-4
23
-20
31
-13
-43
59
21
3
26
-27
0
-8
-2
-8
-59
5
6
-4
-12
40
-9
24
5
68
41
5
-2
63
-6
-12
-7
37
12
-8
-28
7
-11
-7
-26
17
1
-5
-14
-3
7
11
13
68
42
1
-11
20
-9
-8
-6
12
10
-3
-13
-8
-8
-28
-36
-1
-7
46
-24
-17
-8
29
9
77
39
4
-29
27
-24
8
4
22
12
5
-23
2
-4
17
-16
-1
-2
12
-1
-2
-6
14
3
0
22
36
-8
6
8
8
13
-18
28
25
-2
4
43
-2
64
-14
9
-4
-6
-5
-8
17
-36
-1
8
41
-6
-4
34
21
45
-2
11
15
3
2
38
15
19
-38
-24
-13
-1
-27
-33
-21
-62
-13
-32
13
0
-20
-25
6
-34
-21
-7
18
25
-17
-18
9
29
6
35
-63
-2
31
57
21
-11
-4
11
-49
-39
0
65
62
-8
-33
-16
6
-4
-41
52
13
-43
53
40
-32
-13
-11
-31
-10
-30
23
-20
-30
10
-1
-19
13
53
-8
-48
28
36
-39
22
19
-9
-26
34
-27
-31
14
-15
-19
-22
-11
42
-36
-11
-9
-15
-16
19
-22
-63
39
40
-59
-12
-11
-35
8
10
0
-27
-10
20
-16
-29
24
-19
4
2
18
10
1
42
10
3
6
-10
-17
18
-12
-28
-19
4
-1
-4
22
-7
-18
-28
-18
5
-3
4
9
10
6
-24
-21
5
0
-10
-10
-16
6
-23
7
8
-11
6
8
21
3
5
27
5
-10
42
-10
3
15
-18
25
-6
-13
21
-8
-15
20
-44
-39
-12
-31
27
-54
-54
-36
-22
-27
4
-11
-13
-39
-45
-50
37
-48
-6
37
33
-43
0
-79
-21
-7
-22
-21
58
-19
-35
-5
-11
6
23
22
36
-33
-28
-16
0
-32
41
-15
5
41
-32
-46
-7
13
-14
17
1
-25
25
16
37
41
72
28
29
63
57
-18
40
74
53
0
11
12
13
5
-12
8
8
-48
7
40
7
30
29
9
0
-21
11
46
-5
-15
21
52
-15
-30
9
31
6
-4
10
51
11
-72
-25
9
-49
-10
10
16
-2
-64
-28
-27
-34
-25
-5
-11
-10
-18
-6
19
-23
-27
2
1
22
-25
17
36
-28
-41
10
34
-13
-35
14
-30
-3
-57
0
-25
1
-8
61
35
25
-47
1
25
-18
9
4
15
-10
19
4
8
0
33
3
10
15
-5
-20
-9
-2
6
19
-15
16
47
-18
-37
-25
14
17
-21
42
-11
-22
-12
-37
13
-3
-3
5
-18
-25
-54
-22
10
-16
-45
-19
16
-22
32
-22
33
-12
47
67
-7
-9
2
-28
23
-4
2
50
-20
-19
-50
-32
4
15
-6
8
-38
-10
-13
-17
-13
-18
14
-34
-22
-28
-3
-66
2
20
0
-48
-26
-8
2
-38
17
24
-3
-52
-25
-15
1
-4
-3
-10
6
-50
19
49
-21
-17
-12
26
-30
-60
-6
-35
-41
4
-1
0
0
-49
-40
-18
-7
-5
-21
34
21
-11
11
42
-26
3
-8
22
-9
-14
5
-12
-24
27
-8
11
10
16
-4
61
15
16
-4
12
-22
42
-24
-34
-8
-3
30
-22
-21
2
-26
7
-19
10
37
-41
-24
-24
-33
13
-41
-21
-1
9
4
22
-48
7
-32
-49
-12
-15
10
9
-51
53
-3
-57
-2
-28
2
-23
-26
-31
-15
-51
-23
-29
-28
-10
-35
57
-25
-36
-26
-18
-41
-17
-41
-32
-11
-22
10
-63
-26
39
8
23
-36
24
8
-21
-5
27
6
-52
-31
9
19
-15
-30
42
30
-24
-9
18
22
-26
-47
42
0
7
7
23
-36
-40
8
11
22
-12
17
-44
10
-26
2
-11
26
48
-8
-39
24
-12
-8
4
19
66
-7
24
-50
-26
55
21
35
-34
29
-32
-20
-16
35
58
27
-45
-6
-16
14
-26
30
14
29
-28
46
-1
-5
11
3
16
18
13
-16
-38
-18
14
5
6
17
13
-7
-35
-3
7
13
12
7
-30
-14
16
-33
7
3
43
18
-3
-12
-12
-11
-65
18
-28
0
-20
-27
-22
0
7
-24
13
15
-12
-22
-28
28
-49
-45
13
43
-16
-5
-27
10
-56
-61
32
51
-8
-12
-10
11
-96
4
15
67
-17
16
-6
-17
9
-17
-33
9
27
-46
2
13
-6
-13
-19
-6
4
-40
-13
14
29
-8
29
-16
20
27
-14
10
52
-61
-2
36
2
-7
-5
23
-24
-23
18
8
15
-61
-43
12
19
-54
44
17
21
1
-24
-19
18
11
8
19
-18
-63
-38
-47
11
-38
15
-7
-4
-75
-32
-34
-5
-26
8
24
26
42
-13
7
-4
9
-11
-10
-67
17
-13
34
19
1
17
-7
-46
-39
-22
50
8
-36
39
-7
15
16
-34
-4
-9
17
-11
31
0
-51
-20
-33
18
-19
-17
3
-44
-73
-26
-11
-29
-44
27
3
-35
12
12
25
-44
6
6
54
18
-7
-23
-18
-2
-16
-7
69
20
-63
35
-7
60
-51
1
18
-6
21
-9
20
-9
-11
45
-2
-44
19
-22
48
-48
-13
-14
-3
-38
-8
-21
22
-11
-25
-3
3
46
8
27
9
-6
18
27
5
16
14
11
18
6
-32
15
-16
-12
-9
32
-31
-26
28
-15
4
24
35
2
36
-37
28
15
0
52
-2
38
-17
-55
28
-5
-55
16
-64
51
-48
-48
28
54
-31
16
-18
9
-57
-41
-30
-23
-8
-17
3
-14
-9
-17
-6
-40
3
36
-12
9
11
-8
-7
24
-8
-41
33
-5
26
12
-18
-29
16
23
22
5
35
7
27
-21
13
16
40
-12
4
-7
-10
13
43
-16
5
19
21
5
0
-15
2
-16
-58
3
32
15
15
7
-4
-24
4
14
27
-21
-22
7
-10
41
-14
-2
-19
-28
0
0
5
-59
7
18
-1
0
-8
2
28
-27
18
11
4
-27
29
-12
33
-35
-33
12
-26
-29
-9
-16
14
-17
-65
10
-9
-52
20
-12
7
-61
-37
19
11
-38
1
8
7
55
-4
10
-32
28
34
2
-1
23
-51
6
-34
3
-14
19
-3
-13
-38
22
20
-58
-30
-37
4
67
11
-5
34
14
36
16
-9
-37
-13
-1
-33
-30
-19
16
28
-27
-16
20
-17
-2
-31
27
-7
18
-9
5
40
3
-18
51
27
53
15
25
6
28
8
-4
10
-5
-2
4
25
1
-23
0
26
31
-51
-5
34
23
-20
-20
31
61
9
0
34
-13
-23
-44
8
39
5
22
-12
7
-10
-30
17
16
-26
-7
7
-3
25
19
28
-12
-32
-10
-10
-43
-44
-1
12
-2
-62
-22
-39
0
-1
-1
-14
31
-20
8
-1
-13
32
27
31
6
-23
26
-8
-7
9
29
29
28
31
-9
-17
-1
60
17
-7
-13
22
9
-68
-9
29
9
-13
-32
17
3
-34
-24
25
19
-1
-10
33
-29
-31
6
1
34
23
-25
15
10
-23
-31
3
36
-33
-22
-3
-38
13
-28
-11
-7
24
20
19
-18
25
-46
16
11
3
28
-14
-32
-52
7
-18
39
-38
-39
-1
-27
7
-33
23
-4
-1
22
26
-22
-52
-19
12
-9
-10
-45
-41
-16
29
-6
-25
-8
-32
49
-44
-48
-36
-53
13
21
13
0
-23
-54
-48
-1
-31
-33
3
32
-16
1
-16
59
9
-28
2
-54
7
-6
-3
24
-14
27
9
32
-3
-2
23
35
6
34
-15
-61
-12
12
-2
5
37
26
27
32
-20
16
17
35
28
-19
19
-44
6
24
21
38
10
-15
-6
74
8
12
7
-16
-15
3
31
78
21
26
4
-60
-6
-9
12
24
-4
21
-14
-21
32
-4
15
-25
7
-18
7
-14
25
-28
-7
21
-3
-2
-6
3
10
-36
0
-47
-13
-18
10
-26
-10
-15
-9
-10
5
44
2
-2
29
16
-3
-4
-19
73
-11
-31
24
9
-10
-5
-24
55
-11
-16
33
10
5
59
0
8
-15
12
22
-14
-23
-21
5
9
-26
12
24
40
-19
-61
38
30
-19
14
21
-20
-8
-4
32
7
13
-52
-2
36
4
-57
43
4
-4
12
6
15
-28
40
4
-15
12
-19
14
0
-8
-36
-26
-7
31
-10
26
22
-9
-1
-45
-11
-8
1
-16
-20
-14
-5
1
2
16
4
-2
-6
-33
1
2
-56
-11
49
-14
30
23
-22
11
-48
17
22
-77
14
6
59
5
-11
19
-8
-36
7
-9
11
20
-39
50
-24
0
13
-31
-13
-15
20
-21
34
-24
11
-11
9
5
-5
-41
18
-25
6
13
-12
14
-66
63
-52
-3
16
-7
19
-21
-2
49
-21
-14
-9
5
19
0
-1
-26
12
-3
-19
-3
-21
22
-42
38
-54
33
13
-39
1
-13
-7
46
-20
29
9
-13
29
13
-9
46
-24
20
-3
20
14
48
-35
-16
-51
14
-11
-1
-3
59
7
3
-5
33
-31
-29
-7
8
19
-28
-21
-31
-28
-58
-19
71
-17
5
-25
18
-22
2
-13
55
19
-8
-39
26
-9
-37
3
13
12
-41
-38
-26
-14
-38
-19
31
-28
-35
-14
54
1
-35
-6
76
11
-2
-16
2
-4
-21
-11
4
14
-15
13
-37
-30
-4
-13
-25
18
-8
-5
-4
2
28
17
-7
39
-26
51
7
23
1
23
-17
14
12
-15
-21
40
16
12
10
31
1
23
8
-16
-11
24
24
10
-33
-1
-20
12
-14
-13
-7
-7
-1
31
-1
8
8
-2
12
-31
30
-4
-28
-1
43
-31
-28
-47
-15
35
-30
16
60
-29
-30
-11
15
15
-32
57
23
-14
63
-26
-18
4
9
3
-6
32
24
3
9
-4
12
11
-4
-23
15
29
-2
-16
5
0
2
-15
12
-4
-10
15
-3
3
27
64
30
-2
6
8
-7
6
11
-31
15
2
8
-7
-14
1
-15
-44
2
-26
-24
7
1
34
3
-13
-8
-20
-2
15
23
7
32
-18
25
11
9
22
-5
13
16
-28
7
-3
-22
3
-43
6
0
81
7
-25
-3
17
-17
-13
-23
-14
-3
-69
1
33
-20
-32
-52
-10
-37
4
-26
28
-34
15
7
-35
13
-33
-3
22
-13
-18
-4
48
-17
-55
-10
22
1
-41
-48
-3
-14
-14
-20
-11
-13
23
15
12
19
-49
-3
36
-13
-10
10
-7
-16
-52
-16
7
-10
-48
-28
21
12
42
-3
-60
14
6
-49
-40
-9
39
10
-76
32
18
-14
-4
5
41
3
-54
14
7
-25
47
37
7
-21
-27
-46
-1
5
-46
22
2
2
7
-43
-14
-23
-15
-1
11
28
-27
-27
23
33
-9
65
-38
3
1
-20
-15
4
-12
-7
-72
33
9
26
-17
-26
13
-3
-41
43
7
45
-21
16
4
46
13
22
-11
33
-37
16
18
-62
11
24
2
-21
15
5
15
-2
-19
21
39
-40
-9
52
-21
-18
-4
-1
-51
-44
8
0
16
11
-14
8
-16
-7
12
7
57
19
-31
5
10
4
14
29
29
0
-10
42
-17
-6
-12
10
29
1
10
5
18
-5
-4
-1
58
19
3
-1
40
3
4
-1
63
30
51
22
-7
-5
-20
-7
-4
1
29
-19
43
7
17
9
-3
2
28
16
16
20
-5
15
18
56
13
39
-2
-19
-11
-42
1
34
32
-23
44
16
23
10
2
31
29
1
-2
4
22
-23
8
15
-23
31
-5
-37
-40
11
27
-16
9
16
34
-29
-21
1
-17
17
5
6
21
-15
10
6
-1
49
-14
-16
-15
-1
20
19
-13
10
-3
-3
0
24
24
-4
-26
26
-12
-5
2
47
26
-3
-19
28
-17
16
4
-15
7
21
14
-5
-7
4
-4
-25
42
-8
-3
-42
-27
29
32
-7
-4
-26
25
46
12
44
-8
42
13
22
-23
36
13
0
-18
2
18
20
4
-21
5
18
1
-22
-4
5
21
-3
7
-25
-20
-8
20
17
34
-2
-10
-16
-24
-5
-39
-18
-44
34
28
-12
-56
-20
27
-6
35
-5
15
0
-36
-15
-11
-27
81
0
-29
-25
12
-10
19
0
-3
9
19
-35
-9
16
-18
26
-16
24
-18
11
27
-48
16
-5
58
13
2
-31
47
-11
-28
-26
71
-2
-22
-7
9
-56
-3
-19
-15
-7
-1
-2
-23
2
0
0
21
-32
15
-17
-38
-10
-23
6
44
-31
-1
-1
-16
-27
13
-4
0
-20
-14
-29
-33
-5
2
11
-3
-8
18
-28
0
17
20
7
-52
18
-2
-24
-6
10
-14
-2
8
-13
-37
-27
-17
-17
2
-9
-24
8
-14
-15
9
-35
3
-16
14
5
-4
-1
-3
6
-8
-6
2
11
13
-23
-33
13
30
1
16
16
27
-19
-20
23
42
-4
-36
29
1
8
-13
36
-2
17
-46
-16
2
-24
-1
-9
17
5
-4
-33
26
-3
-15
-17
32
20
14
-25
-6
13
-21
-4
56
4
40
50
-20
3
18
-12
2
-5
32
0
-32
15
53
3
18
-13
-45
-9
-37
32
19
-10
-13
18
-45
-14
-3
-13
-16
-8
-10
-45
-16
2
-16
-38
-6
-11
-5
6
6
-7
-2
20
-5
4
-16
9
43
20
6
9
-5
5
19
-2
-2
17
-12
-18
-14
13
-5
-13
-7
-9
-5
22
-12
3
-29
-22
-14
8
-1
14
-26
-17
-7
-38
-18
-12
8
48
-20
-14
2
20
3
16
6
-1
-5
23
35
36
-16
42
36
45
29
21
10
9
-35
9
-12
-2
23
39
-48
-30
-2
-29
-15
19
-13
56
-48
25
17
36
25
0
2
3
-12
-34
-31
-20
-37
7
-40
50
-54
-15
-4
5
-33
11
11
20
-49
-8
22
-4
18
30
7
12
-12
-13
-3
-20
-36
-27
-41
74
-1
26
-3
20
-35
-5
10
60
0
-38
52
-4
-12
-6
-20
-5
-23
-22
-1
-9
0
23
-23
-5
-11
-38
6
-7
6
28
-27
10
8
-25
24
-6
6
-41
6
-14
5
31
9
-17
24
-15
-6
-19
29
5
-10
-26
2
2
-19
-17
29
-14
7
17
-12
-7
18
-14
60
15
-13
10
16
34
23
-22
49
2
19
-7
31
63
1
-33
8
-20
22
-33
-9
-41
-36
-11
35
1
9
-26
-27
-9
7
-10
31
-16
-3
10
-14
-11
-18
8
-30
0
-5
-15
-13
-51
-2
3
-29
-4
7
-18
-31
-25
-6
-5
-19
-9
-6
-2
-23
35
-4
-4
-24
10
-12
-15
-27
18
-24
14
19
28
-4
-32
-29
10
13
11
23
-5
-10
-17
15
4
11
26
21
6
-4
41
14
-6
17
44
-30
13
9
-18
16
-6
7
-9
-14
-16
-33
-22
-2
15
9
-9
25
-21
-7
5
-17
-9
-11
32
-27
50
-23
-17
-31
46
-15
-14
-24
-34
-40
11
-4
-33
24
-3
-5
-39
-4
13
19
-5
-26
-9
-15
24
-16
31
15
32
-34
11
32
-33
-21
16
24
17
42
48
26
-16
6
-11
-6
-22
-23
-1
-25
-4
-6
-6
-5
13
-17
-9
6
-12
1
13
-3
-37
15
1
8
-18
14
-24
-8
-32
-18
-25
10
-28
16
-24
-24
-8
-10
-22
0
6
15
7
-25
47
6
3
-2
24
23
1
-18
10
6
17
17
30
-11
0
1
11
18
6
13
21
-11
2
22
51
-10
6
-13
23
3
44
-16
-18
-4
11
24
44
62
-4
31
-36
8
-15
5
26
21
-4
22
-7
-9
-24
-25
83
36
-10
-11
11
-25
6
-29
-12
51
7
-9
45
3
32
-44
-3
16
40
13
-8
-32
-2
-3
25
-65
-8
34
5
41
30
25
-9
-32
-17
12
29
-11
21
-2
2
43
8
38
50
14
-15
39
-11
-18
-24
10
38
-13
-34
20
10
-34
-14
13
38
35
1
4
11
-2
-7
1
-15
5
5
21
21
42
-24
-24
40
-37
1
9
36
-55
-18
22
-19
-1
39
37
58
-61
59
9
-37
-9
26
16
-38
32
-17
-11
-1
-23
33
-52
62
19
-2
8
59
-24
24
-13
16
68
-13
-9
91
4
-48
-1
-37
24
-13
-12
11
2
18
-16
40
24
-47
20
-4
6
21
1
24
-37
-25
-5
-32
-13
27
37
13
-33
17
14
30
23
-12
27
10
-29
2
2
7
23
-4
33
17
-14
-12
24
4
-7
-25
18
20
49
11
-5
-37
22
7
45
-33
-50
-14
27
-32
0
-12
31
9
-56
0
13
0
8
-27
-9
-40
-35
-2
-20
62
-4
-12
4
13
-4
-30
-31
-12
-27
5
6
2
-1
-33
-37
14
-4
-11
-72
3
12
21
-13
31
-4
-26
56
-7
-22
3
-34
-28
43
-31
-25
-26
3
-44
-20
53
11
-7
-16
23
-3
-37
-10
6
-36
17
-1
-9
-29
18
9
-7
-37
22
54
17
-5
39
2
100
67
36
15
33
-10
-53
-49
-8
-25
-19
-66
20
-17
-16
-13
13
-14
1
-42
4
-2
26
-19
-12
11
28
-20
-14
13
-72
-52
-20
-34
-16
0
-5
-51
42
37
30
-24
-24
-59
-5
-4
75
41
-49
9
7
66
-32
19
-63
-30
-31
-25
-31
21
-1
-32
41
16
65
-17
43
-36
37
5
72
1
-6
31
78
32
55
20
-13
-18
14
-2
-10
-13
18
0
-9
0
-39
-48
27
-42
11
21
18
1
-5
-9
20
-31
17
11
-3
24
17
-7
7
-29
14
15
-9
21
-24
-26
7
-51
32
-22
10
5
17
-10
-10
-18
33
-45
13
-12
-37
-35
18
4
15
37
-50
20
-48
-48
-13
-60
33
4
-62
-27
-64
-40
-42
-34
-17
-20
-40
-10
-19
6
-7
-12
-19
6
-4
-5
-31
-20
0
5
-3
-6
-35
-18
-22
-21
-23
-9
-20
-22
-28
4
-16
10
-28
32
-26
-33
11
18
-56
25
-7
32
42
-37
-8
16
-3
21
-27
48
-26
-30
-29
36
21
13
-24
27
13
-25
-6
26
36
-14
-27
14
0
4
-4
18
55
7
-25
-12
-65
61
5
-16
-19
18
-1
-5
14
4
5
3
2
3
2
1
0
10
24
-12
-24
-8
-9
17
3
3
22
-18
-9
11
-7
2
-19
14
-9
5
8
-2
-8
-2
-31
8
2
6
7
-32
-16
5
-21
14
19
-3
-13
22
12
-29
-34
13
0
16
-14
10
11
-10
-29
13
9
18
6
-18
-16
-10
-34
-2
20
7
-23
48
19
-26
10
32
19
15
17
1
29
-2
12
56
34
0
-18
-24
40
-13
-19
36
40
-24
-2
21
-3
-10
17
29
-15
-12
-38
14
11
-25
7
42
15
-17
-43
5
-19
-31
30
34
-43
11
-22
-19
7
-14
-7
-47
23
-10
-23
-12
-4
-33
36
6
-24
-47
-13
-3
-2
-28
26
-46
-77
8
22
31
-36
-41
-27
1
-7
-42
2
-5
-8
-39
-20
-16
-29
-15
-9
-41
7
-65
-14
33
8
-34
-39
-44
-7
-30
-16
-22
56
4
-61
-61
26
-63
-11
-10
-2
-23
-44
-58
28
0
22
-11
64
-18
61
-8
-13
-58
9
2
26
-3
-9
34
35
-4
27
-26
50
-49
26
-46
7
-18
-3
-36
-6
-28
-21
-10
7
12
-30
3
1
-22
-6
2
19
12
-15
12
8
-14
14
7
34
15
4
26
9
-9
-15
-8
19
41
9
-15
4
-16
-13
24
15
16
17
-4
-3
-24
12
20
30
-2
16
9
-5
-3
-31
9
3
46
-15
-2
-10
-1
6
41
-11
51
-4
8
2
-18
28
46
-7
34
5
11
15
17
-34
55
-21
64
-29
-3
-1
28
-5
-27
1
-37
-13
-10
21
27
8
11
1
-55
-11
2
31
16
-12
35
19
5
-16
9
7
-15
30
30
16
-3
-26
-6
15
-6
0
48
-5
-11
-24
-7
-3
22
28
-16
34
-54
21
23
-35
-20
-63
-30
38
-20
1
17
-20
-15
-67
14
13
-14
-35
6
27
-16
37
9
-29
10
-29
-8
-1
-1
-33
46
-11
33
-24
-31
20
6
-14
20
-1
21
30
15
36
36
-32
4
-6
4
10
3
21
15
4
9
-55
-8
21
-17
15
46
13
7
-20
10
11
1
5
-37
-41
-50
-26
1
-32
31
-7
13
-30
25
-76
37
5
-2
1
4
-39
11
-49
17
-37
52
-7
-3
-7
16
8
-16
-4
-20
11
-13
-30
40
4
-3
14
28
-13
-22
-13
47
4
16
-18
3
6
-2
-6
25
14
-18
37
3
26
-18
14
35
2
4
3
32
1
28
24
54
13
2
-36
11
-28
-13
-18
-31
10
-4
-8
15
-23
1
13
-49
0
-16
-31
15
4
20
30
16
30
3
-40
17
-26
-11
-14
-3
-13
-2
1
3
46
-2
-34
-12
24
-6
-9
-26
39
1
-54
52
29
43
17
-43
-21
5
-3
19
3
2
-61
-27
-2
-18
-47
6
7
22
-14
-3
12
-12
16
24
14
-4
29
5
-44
-38
-58
17
-43
-32
-52
49
13
-18
5
-19
-23
27
-4
-33
-53
33
56
27
15
21
1
-57
-26
16
-25
-31
12
-35
21
-3
37
14
5
34
1
-30
29
3
-5
26
-11
30
-19
-3
5
3
-3
-38
22
-16
12
6
13
-32
-18
-19
-2
44
-28
-26
2
-19
13
-4
74
34
27
-25
28
-30
-45
-24
-40
-46
-57
-8
13
-39
-57
-41
13
51
-49
10
29
10
-25
-11
-39
53
-10
-44
-6
17
3
12
3
-32
-1
-6
-27
-4
10
-1
-22
-4
0
33
-17
-9
-3
6
-21
-18
-14
-17
18
-25
24
-9
-18
10
2
5
-18
-6
31
0
44
20
39
3
-4
-9
22
32
24
-18
18
-15
1
-5
-20
-3
-20
-26
-17
-18
30
13
-10
-16
-21
-34
-5
18
36
20
-5
28
-10
-17
1
-18
10
6
29
34
-44
41
5
53
-20
9
3
-39
-2
74
33
-37
-8
-3
-11
30
6
-20
7
-16
-16
19
-9
-4
-63
-49
-28
48
14
22
44
13
-9
29
5
34
7
-5
-31
-46
9
44
-20
-54
-30
-23
9
-19
-58
40
-19
0
-6
14
21
22
12
16
-20
-15
-15
0
25
-26
43
27
-42
-52
-32
-23
-1
-31
-51
34
31
-11
-3
-7
15
-7
-6
-33
71
-26
-30
48
21
9
8
11
27
0
-29
43
20
-18
4
52
-13
-8
-41
25
-12
-14
-30
-21
45
-29
10
-31
-17
-5
13
-14
6
-18
-12
31
8
-12
8
2
-41
21
4
-10
-13
-13
-22
3
0
6
22
-21
17
-14
15
15
4
-7
-25
-10
45
36
15
17
11
-23
-2
-78
-5
-27
1
0
-18
-11
10
-41
-13
14
-43
20
9
40
-5
-23
34
8
8
-39
3
-20
69
-29
-3
29
33
-43
-14
-48
48
-61
10
2
16
-8
-11
29
51
55
47
43
-5
-4
15
-32
39
9
-7
10
62
-23
-21
-17
32
69
21
23
30
7
28
26
58
35
-39
51
-16
-42
19
16
53
-42
-5
1
-10
-9
-20
32
-5
-5
13
-1
37
65
-17
10
19
50
-18
8
37
-10
51
-41
-30
35
-32
12
94
-44
-33
-23
38
53
34
-27
109
11
2
33
13
25
-35
8
-50
-25
-22
23
-49
-5
-29
6
39
-14
-61
24
-50
18
-19
36
-36
-11
-23
39
-32
20
-28
-5
-25
-6
-3
-27
-16
-1
-25
22
10
-24
1
-3
-14
-6
11
28
-14
-7
11
26
-14
5
-19
20
-35
43
-5
-31
-21
20
-11
-9
-20
-9
-6
25
-12
10
8
-15
-18
-18
11
13
5
-13
35
23
39
27
4
4
-2
11
-20
12
-29
-6
2
-46
4
7
-25
-7
21
9
-7
-9
-16
-4
-1
-10
48
10
-4
5
-13
6
-53
22
-21
-28
7
-16
7
-6
-28
-30
-29
81
-5
-7
-31
-14
-52
-2
34
-17
-5
-85
-2
-5
-46
-31
-4
23
-22
-58
19
15
16
-25
-2
-53
27
44
-12
4
66
19
-2
-5
2
48
53
-15
71
-47
-17
-32
-10
44
24
-10
64
-3
16
-30
25
3
6
2
-43
10
-3
-9
-24
-32
-15
12
65
17
22
22
14
25
-45
11
30
8
5
31
36
-3
-24
-13
-20
2
17
-2
-2
-58
-35
33
57
-32
63
11
18
-47
-3
24
55
-46
-2
17
73
7
10
-23
-56
63
-84
2
-36
-7
-12
38
-97
1
-82
-31
-53
-16
2
68
-34
-10
-17
-7
-40
22
9
2
-3
-8
29
-8
-7
-51
-40
49
-33
-23
-16
-28
-15
-36
21
47
-13
-5
-11
-21
-6
-13
-2
-38
-9
-7
0
-6
-14
-15
-17
-14
14
-15
2
-11
2
-11
7
-34
-2
-1
22
-16
8
15
15
11
-28
-6
9
-1
-28
10
-49
-12
-23
-8
51
-16
-21
6
-28
-30
16
6
38
-39
25
16
-12
6
29
-12
-9
0
-8
10
49
-22
25
-17
-3
39
-8
-15
41
-30
47
20
17
-3
11
5
71
5
11
-11
11
6
2
25
1
41
21
-23
-29
-36
-7
-24
29
-52
-6
-17
-21
-28
8
-20
-29
50
8
-20
29
47
-12
-5
16
-4
-27
-24
-33
-37
8
-32
-8
-16
-14
-21
-39
-40
12
-34
11
-35
15
29
-15
3
-17
28
-36
28
-27
29
3
-12
-9
17
-39
-2
-31
17
-6
-22
-7
-1
-18
41
32
20
-35
-3
-17
30
-23
-31
-21
-14
-37
-30
-2
-20
-1
38
-26
-10
-10
-22
-7
-6
0
40
-10
20
-23
3
-27
-12
14
-61
7
-9
-61
19
-29
-7
7
-32
-1
-3
29
14
-20
-25
-53
-17
-28
-45
-55
-2
-16
53
-42
-23
-12
-62
2
1
-10
-6
-30
-25
-32
-16
-17
-21
12
38
-21
4
-14
-33
-53
-38
-17
35
-18
-17
2
-31
-56
26
5
24
-8
-19
-1
-1
28
18
16
35
9
9
15
-33
20
30
-7
66
4
-3
-28
-27
48
-20
4
-23
24
-7
-26
11
-2
27
11
12
28
10
11
19
27
-3
4
33
-6
-10
-31
22
14
63
26
1
-7
-16
-2
-14
30
-23
32
3
-3
-26
-29
-4
23
0
-4
-76
-11
5
24
-3
20
13
13
-29
-2
-14
-27
-5
6
-22
5
35
1
-2
25
15
-14
-8
0
32
-28
-26
-6
-21
0
-24
-10
-17
-24
10
-46
-14
-20
-37
-16
48
14
31
-19
57
21
39
-9
-73
28
54
13
49
-50
5
-23
16
-1
29
-20
29
-52
-41
0
-49
-3
18
1
-8
-28
-4
43
-35
40
20
-18
0
-33
-12
14
-54
17
18
-7
-9
6
-41
7
47
20
2
26
-17
-32
-13
19
-71
-11
15
8
-4
4
8
8
29
6
-2
0
-8
45
-2
-1
-4
33
-19
-11
-14
1
27
6
39
13
34
14
-5
16
41
-12
20
-5
16
14
-7
-2
16
9
-13
-2
22
6
9
57
-7
7
6
26
31
-1
0
37
3
-12
-2
-7
5
3
-16
17
-1
12
-9
-10
4
-8
22
44
0
-18
-4
-24
12
-29
4
-2
-1
-9
-7
-26
-3
-34
-4
21
-9
2
6
-30
-16
-8
-8
4
13
-11
26
9
14
21
12
-11
21
18
5
15
-14
28
-3
-27
9
-2
-16
-29
-40
-23
5
-24
-10
-18
37
58
4
-22
6
-27
27
-13
3
-7
7
-14
0
6
-18
-14
-26
-19
-36
73
12
44
3
37
39
29
4
64
-5
-25
10
42
22
-23
20
50
-42
-29
55
18
-48
-11
68
22
25
29
-9
15
-15
-16
-23
14
-8
3
43
24
-27
-20
19
-17
-4
9
8
-16
-9
2
28
4
26
13
-10
18
-8
31
-2
24
-3
-2
-1
36
-31
-28
46
68
-7
-37
21
-26
-33
5
40
-2
21
26
-45
44
-5
33
30
-10
-17
-13
-9
44
-2
-15
49
65
-29
-43
2
-35
-18
-31
15
19
9
31
1
7
7
-21
-16
24
17
-26
30
7
2
-3
-21
20
5
19
16
-6
22
-20
-23
0
-11
54
13
27
10
2
18
5
-2
4
-21
18
-11
13
8
17
8
-15
-7
13
28
9
-13
-9
-23
-44
9
-13
2
-8
-14
-29
-21
-5
-20
-17
30
-6
-13
11
-11
-23
-18
2
18
-11
-9
-18
0
32
14
6
-5
-15
-2
-28
-15
49
-6
-8
17
-11
-8
-45
-27
-26
45
-26
32
-19
4
2
-19
-26
26
-7
-69
18
-11
-29
-4
8
-1
-12
-24
19
2
-29
-29
-40
-7
-2
-5
17
11
44
50
-30
-10
69
-1
-9
21
14
51
13
47
60
14
-18
2
22
43
-71
0
16
68
-39
21
30
-14
20
13
-13
20
-15
17
36
60
32
46
-15
-66
-26
-1
-14
-16
-48
49
-10
49
-11
-1
21
-20
1
12
21
50
-14
5
-17
38
8
37
14
-3
-15
5
-40
-32
5
18
-9
65
-22
6
11
8
33
-27
22
16
17
0
26
33
46
-8
-1
-16
-12
-2
-2
-32
-11
62
-3
74
-33
4
56
20
53
11
37
-13
13
-15
29
-16
8
-20
21
-9
4
28
15
-24
-43
-7
-8
-13
-10
18
11
11
66
8
13
-21
-17
-33
11
-9
-2
-6
17
-2
6
-15
-2
-14
-35
-3
-8
0
-16
-7
22
-11
46
-11
7
12
14
-39
-23
-22
10
-9
11
-8
-16
10
3
-19
-45
-5
-2
-13
-7
-49
-22
-14
-36
-26
-33
-5
19
-23
-33
-2
34
1
2
-15
-32
21
-13
21
-14
-35
-28
2
-49
-16
-19
5
2
14
-57
-27
45
19
10
13
18
-1
-46
-1
-13
21
-27
14
-1
-35
-26
6
-15
-23
-24
0
2
-32
-28
-3
40
-38
35
11
31
1
-34
4
-7
21
8
0
1
3
-28
8
18
-47
14
-9
-20
23
13
-36
-33
68
-22
-29
-4
10
-17
0
15
54
-17
1
-22
10
22
18
14
21
32
-3
18
9
-6
1
-17
-21
29
-9
8
36
-4
-53
-4
-31
14
-6
34
10
22
21
25
-35
-7
-46
-43
23
45
-33
-14
3
34
-75
-36
46
5
-63
-68
-40
-29
-52
0
-18
40
-26
15
-42
7
24
-28
8
20
30
-8
-8
4
12
-43
-16
23
23
-8
3
-60
-51
-25
-20
3
-5
-10
8
34
24
49
-8
10
29
-19
-24
-12
4
29
32
17
19
-20
-7
-43
-42
33
-28
10
-10
-11
2
26
12
-34
28
9
38
-3
-28
2
24
15
13
2
-59
6
-16
-16
-21
-28
33
-21
58
1
0
-40
3
-29
-9
-31
-57
-30
13
-29
10
-1
4
-28
-37
0
-15
-7
54
1
-10
-18
-42
24
7
-18
-26
-40
1
-24
6
8
18
-10
-9
-9
-18
-3
-26
-8
-11
-12
22
-2
-10
2
6
10
-5
-35
-6
20
-50
-10
-28
22
-20
52
-19
40
23
9
63
25
-32
36
1
19
19
-18
-53
12
-29
-16
-8
-27
2
-1
-54
-20
8
5
-39
-46
-34
9
26
-13
-9
32
-8
12
12
25
40
-37
-1
54
61
-1
16
44
-35
-22
8
-41
-11
-30
-6
-6
53
-35
-24
-5
-15
50
-18
19
-21
-21
-33
0
65
-64
34
45
-53
-37
25
-26
-8
-55
44
-36
50
-43
-7
7
-6
-15
20
-3
8
-23
-31
31
57
67
10
-6
24
-10
62
-2
25
34
13
-11
71
26
18
48
20
-22
-28
24
-40
-11
50
-4
55
32
-38
-77
48
9
54
-37
32
23
-35
-40
-8
-1
37
16
5
-10
-15
-7
-47
41
37
-47
23
6
-10
-86
24
35
-43
-39
29
-44
-16
-29
-1
45
-6
-47
-14
48
9
38
-31
46
-67
-15
-13
-40
-27
44
-9
13
-23
11
3
37
-6
36
-12
-8
16
45
7
43
15
6
-26
-10
55
-37
-14
-37
-55
18
-45
4
-5
8
4
8
-4
6
0
6
-25
-8
8
1
36
-20
34
11
-7
-34
-15
18
-41
-6
-43
-3
34
-20
-20
-7
5
-24
-4
9
22
0
-6
17
-7
-36
11
-36
5
-17
-24
11
11
-5
-16
-12
18
-22
-25
-13
-21
26
-37
-33
23
-2
-20
-18
-30
-1
1
-24
43
-11
-28
27
16
-7
32
1
-32
-30
-15
-7
-4
4
-1
-5
32
-31
-16
-19
-5
-1
4
-19
29
-5
-13
59
0
6
8
6
-68
-9
-7
47
-6
28
4
4
-60
-6
-6
-11
11
6
-3
3
4
88
6
-54
-24
27
-22
-24
89
4
3
36
-40
31
-83
-12
2
-39
-17
56
-45
1
39
-32
7
67
13
-32
10
64
52
46
14
-15
-48
28
-9
49
-17
41
-25
-17
-36
-9
34
6
60
-28
-47
-61
-1
-3
-35
-4
-16
31
4
-59
-47
12
-45
-29
-62
35
-32
-15
-16
-46
-32
-57
11
-31
-53
-1
-1
14
-38
5
-68
-14
-13
21
-4
-12
-16
-3
16
-19
4
31
6
-7
53
29
15
-3
24
-25
-22
-29
-31
-12
-38
-37
-21
16
-13
42
-11
14
16
-44
-5
9
12
39
59
12
-24
-1
14
-29
-22
-32
-44
-35
14
-39
-1
-4
-16
-39
-1
-12
-6
-49
11
-35
-24
-11
-1
16
4
4
9
-9
-5
-15
-11
-12
21
-14
-5
-13
-20
-29
-46
-22
21
-16
-12
-13
-17
-55
-38
-3
44
-7
2
6
0
-34
-16
-1
-12
21
-20
-8
15
-25
-38
-15
-6
12
-26
-27
-5
-25
-39
-22
4
-7
-3
5
-9
40
-14
11
8
-4
-30
1
22
-17
-24
5
-73
-4
-45
-17
12
-41
-18
-3
-17
-6
-18
0
0
0
0
0
0
-1
1
0
0
0
0
0
-1
-1
1
-1
0
0
0
0
0
-1
1
0
0
0
0
0
0
-1
1
0
0
0
0
0
0
-1
1
0
0
0
0
0
0
0
1
0
0
0
0
0
0
-1
1
0
0
0
0
0
0
-1
1
0
0
0
0
0
0
0
1
4
21
2
13
-29
-5
-22
3
20
35
31
20
-12
-4
-23
4
15
22
10
-3
11
5
-23
-9
14
-3
-9
16
-11
-2
-11
34
9
5
19
24
5
-5
11
25
14
0
-10
12
27
5
9
26
49
-5
-9
13
13
11
-1
70
30
-2
9
28
28
-13
11
60
32
-8
-22
-5
44
-7
9
62
-4
2
-24
-7
32
7
36
-7
-15
28
-11
-9
10
19
-30
-34
-39
14
46
1
-4
10
19
0
-2
-5
16
-13
-5
9
14
-6
5
5
18
7
13
8
13
9
-43
-15
-12
7
3
28
-48
-31
-32
-35
-16
-6
25
-47
8
-15
-25
25
-45
-48
16
-16
-43
-57
-34
14
60
-23
-34
38
-57
-40
0
0
-1
-1
0
2
0
0
0
0
-1
-1
0
2
0
0
0
0
-1
-1
0
1
0
0
0
0
-1
0
0
2
0
0
0
0
-1
-1
0
2
0
0
0
0
-1
-1
0
1
0
0
0
0
-1
-1
0
2
0
0
0
0
-1
0
0
2
0
0
0
0
-1
-1
0
2
0
0
-1
2
-13
-22
14
21
-3
6
27
-9
14
1
21
14
-6
-2
35
9
35
26
27
26
1
6
16
8
-28
5
10
14
-3
23
5
-3
4
20
10
10
-22
15
5
25
-9
-20
17
-5
-10
24
-5
20
-48
-16
26
29
-7
17
8
16
-33
12
25
44
-18
16
-5
22
-28
-7
19
21
-7
25
-50
-13
56
4
18
-59
-8
8
-33
29
50
-9
27
-25
25
2
38
15
7
-49
39
-23
34
1
-10
-5
39
9
21
-7
-21
-7
61
-1
-26
-24
21
-36
-12
-3
-7
9
-28
-42
52
-9
6
26
-51
-26
-55
-61
-32
-63
-22
1
-34
5
-16
8
19
13
22
40
65
4
1
-13
68
43
28
38
-12
0
-24
12
7
-9
-6
25
46
12
-9
18
21
-11
26
13
41
13
-23
-12
-1
9
17
-25
24
-3
-22
7
20
-16
-1
44
50
-1
-13
0
38
-22
19
48
38
-13
-19
-6
36
2
39
19
-18
-24
-28
-21
29
-40
-9
21
23
-14
-13
5
41
-40
14
14
-2
-19
-20
-10
41
-30
25
1
-15
-6
-12
-2
5
-9
-48
-35
5
-7
-83
7
-21
-21
-19
-21
34
-54
-73
40
1
-46
18
-27
-45
6
38
14
-13
25
-22
20
51
-14
-30
28
-16
1
-20
39
-18
-56
-24
-14
24
-64
29
-58
-15
36
56
-21
-41
38
-16
67
18
20
94
-18
-31
-9
-26
-50
-18
-37
-7
8
32
-58
23
-57
17
-6
25
2
23
-7
3
-16
13
15
31
50
26
10
15
9
-8
-9
-2
-9
14
-13
-11
25
-3
11
1
4
6
22
32
-26
-1
12
20
28
17
0
-28
-35
-7
-9
-27
1
4
1
2
32
-14
3
-9
8
-19
48
2
-27
-18
11
-15
18
22
36
-24
-25
-24
-17
-35
5
-1
36
4
44
-2
1
-14
21
-2
7
-8
16
8
2
4
16
-1
5
-9
7
-10
-6
1
21
6
8
-2
15
-10
14
-13
-9
8
7
-17
21
-11
16
26
-7
5
23
-25
21
5
15
28
30
17
7
-12
39
-24
-16
-58
-41
6
4
-13
-12
-1
-3
-38
9
-1
12
-30
-12
14
9
-19
1
12
18
-17
9
3
21
4
41
11
-38
36
-1
-2
43
-31
7
-3
2
3
19
-3
-34
-91
-12
-26
42
-37
-36
40
17
60
10
27
19
15
-13
58
0
-38
37
34
29
-20
-14
-64
-51
-60
-7
-44
-10
-56
-38
21
-6
84
-47
33
42
46
30
-56
-63
69
-16
0
-8
44
-21
-16
-58
24
-24
-28
-21
-69
-54
-7
10
25
-2
11
-7
-8
20
6
26
27
-6
-7
-55
0
10
-2
-1
-13
-35
-9
-3
-18
4
6
-5
29
4
2
-43
11
26
-6
13
2
-23
-12
-20
14
12
-41
-6
-65
-38
-27
32
-12
13
10
5
-23
-2
-1
-47
17
-1
-10
36
11
-24
4
-21
5
-15
-6
6
-38
-23
-8
35
-22
9
19
-16
21
-42
20
-21
3
23
-30
-18
35
14
-9
-48
-48
29
-39
-31
26
-25
22
-41
-40
-33
15
-12
-20
-4
-7
-38
-18
-45
-9
-24
9
27
-18
-21
-11
-39
-22
-23
-18
-2
21
-9
-31
-29
5
-11
-14
8
7
-10
-8
-9
24
27
52
86
-25
29
2
-8
-4
19
26
44
26
22
20
-31
26
8
60
-13
-41
4
27
19
46
-13
25
-8
-24
-6
47
-1
15
-2
43
18
2
5
9
20
-17
2
-16
8
-19
4
35
-10
-23
-15
-27
-2
-8
-22
29
17
-27
-10
7
18
-25
11
9
-51
52
-54
-36
-18
0
-54
36
37
17
-68
-34
-13
35
-57
-34
63
-1
-23
24
0
13
-41
-74
56
-24
-2
-11
0
-24
-52
42
-33
-17
8
-31
28
20
-5
15
20
58
-25
-11
22
26
8
20
-18
4
-21
-26
21
-14
-25
4
-38
-5
-20
-1
4
-11
-27
-10
-35
12
-39
-17
-19
1
-24
-33
-37
-30
-1
35
6
-9
33
-22
13
19
-55
-38
-6
23
-12
-13
-9
13
-71
-4
21
11
-23
-13
-47
15
-13
-30
-9
4
28
-19
-8
-41
-11
13
19
-19
7
-42
-14
-60
22
-49
-48
-40
-15
-39
-12
27
-26
35
25
-21
-14
2
-4
-27
-47
-34
20
0
19
-19
0
23
-2
3
-45
-21
57
1
-12
9
31
-13
33
-7
-18
-10
-18
-9
23
26
41
-10
21
13
-20
62
2
-16
34
9
18
22
-31
22
-19
0
49
11
-3
-30
14
-40
9
20
29
-15
-28
-33
6
-32
3
-17
-35
5
-71
-4
5
13
13
10
17
3
18
-47
-40
-44
-32
34
-6
-27
-9
-35
-38
28
-5
18
-33
-18
14
-29
-12
-9
-48
-5
-22
-3
23
-29
-52
-9
-27
-51
-21
-15
9
-9
-36
34
-10
-49
37
-10
51
-24
15
21
-25
-39
-1
-13
-45
18
-3
9
-17
-23
43
14
-16
-1
-17
-35
-25
34
17
39
38
-10
-21
9
12
2
10
19
-35
6
44
-13
-4
-9
-1
12
-43
6
24
-3
-36
30
-35
-24
-12
-26
20
43
65
-30
30
43
57
78
22
-6
10
-67
11
24
30
-2
33
-9
42
-14
17
-7
69
-19
5
-2
-3
47
-28
-13
-16
15
5
13
15
-12
-10
-17
-3
42
-30
-3
10
27
-9
-38
-7
-1
24
6
0
50
2
-12
33
-16
1
5
11
4
-35
-14
5
-31
22
-23
15
-31
8
-45
25
6
-14
-16
7
-11
-4
-15
42
-8
20
-11
17
-22
-5
-25
42
13
16
16
55
35
-13
-30
54
21
1
-76
18
16
-64
-18
1
-30
51
-14
-32
4
-6
-24
-1
-4
19
1
17
31
-3
34
12
-41
-43
-37
-5
-15
5
-10
19
18
65
29
-13
58
8
-12
33
6
-40
27
23
-19
-9
-35
2
-31
-46
-15
0
38
-13
5
2
-24
-20
28
1
-34
-7
-39
-11
-20
-12
46
19
-6
6
-12
3
22
-4
20
-5
14
22
18
-10
59
-46
-8
-25
-10
13
-11
-8
-21
34
-32
14
55
13
-4
-6
-24
36
-7
-1
-33
-4
11
14
10
33
15
0
17
-20
-5
25
8
19
-12
39
22
-1
-4
-41
-37
-15
13
13
-32
7
11
11
14
17
-2
-10
12
1
-12
0
-40
28
-20
22
33
-38
-3
-38
-43
3
8
-19
-27
6
-50
-60
10
12
-68
-18
-28
-26
-24
40
5
24
-41
4
-35
3
-5
-4
6
11
-4
58
-5
-37
12
47
5
55
0
14
-58
-23
-2
-67
6
62
35
0
40
-23
16
-53
33
53
1
-9
-11
25
69
9
68
29
15
7
7
15
83
54
29
41
34
-11
53
-11
58
43
85
32
-41
13
-77
-25
-22
-17
-27
14
-44
4
23
-53
4
22
0
2
-61
27
-34
-30
2
-44
-17
16
29
4
24
-29
0
-5
4
0
36
-17
14
12
-7
48
-25
3
62
-1
-59
26
39
2
23
27
-14
11
31
18
-12
47
16
29
45
5
57
8
39
-52
14
42
-36
7
48
5
6
-54
10
31
-16
5
35
36
-19
43
-30
3
-21
-16
42
1
-25
0
-8
2
11
33
-16
24
-18
-9
-12
1
23
26
25
-34
25
-27
6
20
-7
-10
-34
11
8
-43
31
27
-10
19
53
-17
-3
43
13
23
30
23
-14
30
47
22
14
24
46
-22
46
37
39
-6
20
3
-15
-43
35
29
-18
-31
13
11
-46
-3
-8
-10
17
16
17
25
-31
-28
-39
5
28
16
-72
-3
-11
-4
28
-1
29
-3
-1
47
-24
26
7
7
-10
12
1
-31
-2
-18
-39
-21
4
23
0
17
-17
14
-18
-5
26
11
-11
-44
13
42
20
-11
-51
-8
-21
-4
-26
50
-10
-31
-32
8
6
-49
-27
48
-20
-20
14
-27
45
-74
-15
12
-7
16
-41
39
-31
14
18
11
-54
-24
-17
6
-35
-8
3
8
-17
5
-10
4
31
-66
35
26
3
6
-24
23
-1
25
-7
5
-20
-10
1
2
47
47
20
9
-41
23
5
-1
12
17
32
20
-7
8
-4
47
28
59
18
10
-3
24
-12
21
54
73
25
0
-14
-2
-6
-8
19
50
-40
25
-6
-21
37
-18
-25
43
21
8
61
-5
-30
-14
28
12
10
-23
36
3
-30
29
26
-56
-11
36
-74
-13
7
-55
-50
-47
-42
19
4
-30
-24
-10
-40
-44
1
-30
35
-16
-31
-15
-32
-26
-46
-54
-60
-25
-33
-46
-74
27
-37
-31
-7
15
-49
-36
7
-9
-3
-7
21
-30
-51
-44
-2
-33
36
31
21
22
5
-21
18
8
-24
-15
-56
30
-1
86
3
-21
34
-33
49
-41
29
-31
27
-8
27
13
-13
20
7
-33
8
-25
-10
-21
4
58
29
68
0
-34
-13
-7
47
-14
10
-43
-1
-19
-23
7
-54
8
-15
-38
-1
13
-62
-3
-9
28
-49
-34
29
4
12
-21
-41
20
-39
33
-15
16
-22
2
3
29
-7
-50
11
28
-28
-25
-24
-36
-20
-32
-12
19
-34
-33
12
4
-28
-17
-29
1
2
26
-36
-14
9
-22
18
28
-10
30
-33
-3
1
4
19
23
4
7
6
-21
4
-15
10
12
14
3
-59
-11
-7
9
-9
9
-9
7
-27
-21
10
-9
-1
-4
4
15
-27
38
16
20
17
-19
-24
14
10
-62
-4
48
5
17
80
-1
13
26
61
55
-22
-1
75
-26
37
45
41
49
-24
-7
-58
16
35
42
-6
3
14
4
-15
4
19
28
-23
27
-3
18
24
-25
-17
-9
3
-9
2
-23
-4
27
-56
-19
-54
35
-58
-26
14
-26
-38
44
-54
-71
-44
-20
-34
-12
-1
-10
-10
-45
-22
-30
1
13
13
-31
13
-11
-24
12
23
19
6
11
-4
-5
-11
29
-1
4
11
2
3
-19
13
18
-28
-18
-5
-23
-5
-29
-23
-29
-4
3
-9
-3
-3
1
-10
-11
2
-15
-14
-2
0
0
18
-8
-30
-10
-14
-28
-8
0
-25
8
7
9
11
-6
-15
17
-10
-25
15
-2
6
5
-13
30
21
2
10
-5
-14
-8
31
-8
42
-70
27
-5
33
1
16
-22
-16
-7
-13
-38
-5
-22
37
-41
19
63
7
4
-3
13
-4
-1
63
-37
7
-6
7
17
17
-22
15
-34
-17
-41
-16
-34
24
-26
-9
46
3
-11
-15
41
-27
6
3
28
-18
-25
-9
10
-18
1
-37
12
-37
-43
-18
-46
-9
-25
22
35
-21
1
16
5
-28
22
-15
-1
-25
29
-1
33
-37
23
28
-6
-23
28
16
-26
24
20
-11
-23
15
21
-17
22
0
30
39
12
16
-10
-30
59
-25
38
-12
11
7
12
-26
14
32
20
1
12
9
-5
22
-29
14
-29
-2
35
-18
-29
51
-28
-20
-7
-31
15
27
23
74
-3
44
10
-19
-5
13
69
53
20
-16
-9
-6
-4
-9
16
16
12
-21
29
-7
-10
-5
-11
36
4
-28
24
-12
-1
14
52
-5
-3
-3
4
-10
32
1
30
-24
10
-3
5
-14
3
-13
6
3
32
-19
19
-18
-3
26
28
-25
4
-5
-13
6
11
32
23
-16
-8
20
-16
-16
7
3
4
-23
-5
13
-21
1
10
-24
11
-24
-30
12
10
3
9
-10
17
41
-8
19
-25
-9
-17
8
10
-37
-30
14
-18
-34
-35
34
30
16
21
-8
-52
-9
-2
-8
6
-41
-33
-2
53
-23
-24
-5
-26
-19
-57
-5
26
-18
-34
29
6
6
34
-15
-32
4
-24
-33
-22
8
-24
-16
38
-1
-39
-14
-26
-20
-39
-1
-23
-14
-35
-50
-9
-38
-16
8
0
32
2
12
-17
2
9
10
51
17
-5
9
10
-4
38
15
-17
4
6
-53
9
-70
-23
-4
-2
-49
21
35
15
-44
41
13
21
-32
-8
6
-11
-51
48
0
-5
-21
-2
35
-22
-15
-23
38
-39
-5
29
93
-50
1
-30
67
49
-22
4
30
-12
-22
-21
54
-6
-1
19
-42
-1
38
8
-34
-10
27
41
15
-6
15
-59
-13
-29
-55
3
-17
-6
-38
-50
-8
25
-32
7
-31
4
35
-21
-24
22
-58
-15
-33
-29
1
-10
-36
-27
-39
-2
7
-13
-22
9
-19
5
-24
-13
40
8
46
-22
-19
7
-3
-7
11
6
64
-5
-24
18
39
-36
30
-17
23
31
14
23
45
15
5
11
22
6
23
-11
27
-36
10
-4
13
0
6
24
52
30
15
-34
15
20
2
-5
19
2
1
-1
-16
-1
58
-24
12
-10
18
2
34
37
11
20
0
-26
6
-1
2
24
-4
14
49
-31
-14
-35
28
-50
13
-64
31
-30
0
1
40
-8
21
-13
22
-50
-17
-23
32
31
21
37
33
-7
0
-12
-22
-14
-37
10
42
-24
-22
0
-10
-5
-6
3
31
-12
16
7
13
26
16
8
-3
6
10
6
-40
20
-16
15
18
-1
6
1
-15
15
-2
0
14
-10
7
8
-6
-9
14
-23
-13
-15
15
1
88
-12
10
-8
31
43
18
0
27
20
-2
32
16
-1
33
-17
0
6
23
-14
-5
-13
2
43
-65
-10
-3
-7
34
-16
-10
-22
-52
-18
-57
18
-1
3
-50
7
-14
38
-46
57
30
1
-42
-4
2
2
-24
-36
47
-10
-6
19
-50
-26
-36
-34
24
9
17
0
14
-30
10
10
-24
-6
34
-8
60
30
27
-66
-17
-16
56
-24
66
-30
25
-3
-13
-34
19
-10
-1
-10
8
4
-6
-36
-9
24
-14
-9
7
16
7
-19
7
-10
19
13
-22
22
20
-7
12
-13
-33
36
-3
31
-9
-13
21
-5
50
-6
-27
62
9
-48
21
4
5
-16
-7
60
16
-39
28
-24
-51
33
-7
29
6
-14
-33
-33
66
-30
-29
11
-8
-35
-38
-20
42
-16
-12
-15
0
-31
-7
-12
-21
9
1
-19
6
-10
-12
-14
-17
-18
-11
21
29
20
-9
5
-16
28
-6
13
22
4
-4
20
-29
21
-2
-8
13
10
16
32
-11
-8
28
43
6
-8
26
-6
-49
15
14
59
11
-15
12
-19
-7
18
11
41
16
-22
72
-18
27
0
37
5
-8
7
77
-22
-2
13
63
42
-6
-28
-24
-32
-8
-15
-11
48
-23
-15
