3
-11
-17
11
22
-23
18
5
3
-12
10
-6
19
-10
24
-8
16
-1
6
1
14
4
39
20
10
6
2
-39
5
-8
-16
33
1
-7
2
-39
10
2
0
38
15
-22
-3
-44
-4
16
5
42
9
21
4
29
-22
-17
8
0
-12
-35
-20
-30
-32
-6
28
-14
-16
-49
8
-27
-23
-6
15
-32
10
27
-6
4
11
32
29
21
4
8
-8
-8
12
-26
31
8
23
-17
-5
10
-3
-9
0
-1
-15
-22
-21
19
3
-15
2
-28
11
10
-1
-12
13
19
54
3
41
-33
7
-17
13
0
33
-34
-19
-13
-11
2
-19
-10
-12
35
-13
-23
10
5
8
0
-14
-15
11
-2
12
2
9
29
10
-28
17
-26
5
2
-8
24
8
12
6
10
9
10
-7
-35
-28
-17
-6
-10
-6
3
-3
-23
20
-34
1
-7
-17
2
-7
-4
-16
-7
2
-39
-16
3
-1
5
-27
-20
-4
-31
-8
-25
2
17
-4
-17
5
-39
-36
-12
-3
24
13
26
6
-29
-40
3
3
-3
29
24
2
-17
-18
-34
10
-6
31
-12
-20
-3
-10
-12
5
-26
-9
23
-3
2
12
-34
0
-28
-16
-11
9
0
-4
21
38
-2
-16
24
-7
4
-14
-14
-16
11
13
1
-2
13
17
1
0
6
8
-6
3
11
17
7
18
14
-45
-1
27
19
-21
-32
-15
9
-1
0
19
-6
1
-15
24
-13
33
-2
-1
-3
25
-8
21
-19
-3
9
6
-1
5
-63
17
-5
-6
-26
-6
10
-8
-52
27
-12
31
-16
-16
10
10
-3
-3
-23
-27
-36
3
-7
-18
1
15
-11
0
23
13
-7
-25
-2
14
-24
-21
-16
4
-1
-3
24
6
1
5
-15
-10
-3
-37
-6
11
-25
-33
-13
20
-9
-36
-23
1
-23
-44
0
19
1
-8
-1
4
-5
-1
25
20
4
29
-35
-14
10
-18
11
6
-7
6
-23
11
5
21
-24
1
-22
19
-12
13
13
-9
9
8
4
-17
-27
0
1
-35
14
2
2
-2
-12
-10
-4
-37
31
-1
0
6
-52
1
-4
-16
30
5
-13
-2
-4
2
-18
15
2
7
0
20
-28
3
-9
24
10
4
-6
31
-25
-1
9
13
26
-19
23
-11
11
-16
3
6
-29
-10
12
-7
-18
-10
-9
-17
-23
-7
23
0
0
14
24
-5
20
-27
9
2
-18
-26
-13
26
-5
-22
-30
8
6
16
-11
4
3
-8
9
11
-7
2
7
-25
11
0
8
4
-18
4
-15
-4
-4
-13
9
2
-12
12
-30
-17
16
-14
16
17
-10
13
-34
-15
-13
-29
-15
-18
24
-49
-10
6
-6
-2
9
-9
25
-24
-28
-12
-26
6
23
-24
12
-14
2
-20
-5
-29
2
-3
-5
-29
-10
14
-30
2
14
2
-10
-17
12
-15
-33
6
4
10
-43
13
9
-2
-6
9
-28
-2
-34
31
42
11
-16
16
-21
26
-11
21
37
11
-14
14
32
-1
-25
26
-12
-14
-14
6
-13
-20
27
-29
-40
-5
14
-15
8
-10
41
17
-14
20
29
-7
5
-31
-4
-29
12
-35
-41
3
-22
-10
-7
-19
39
0
3
11
5
-33
-2
20
-6
-23
60
-7
0
11
-46
-9
-21
16
6
-7
4
-10
5
-6
-21
21
-2
14
12
-10
29
12
17
-12
-16
-3
1
5
-1
-18
30
-31
-22
0
6
23
19
-5
-22
-36
10
-7
4
6
31
-7
-13
26
9
-10
5
7
15
7
1
11
9
9
16
5
-8
-4
-24
-21
-5
-8
3
-9
-3
12
-28
-7
15
-11
4
-20
-15
19
-1
8
-7
-4
13
-2
0
0
-13
26
8
-21
-7
27
10
19
-27
-23
-3
-7
-18
3
13
25
-4
-28
-35
-9
1
-19
23
23
-47
-48
-13
-6
-38
-12
42
31
-24
-18
2
-11
7
-7
-19
8
-19
-20
-16
-14
19
25
22
7
-42
-40
-17
-10
-6
-20
10
-14
-35
-53
-3
-1
21
-15
-38
-16
-27
-8
-11
12
13
25
12
-22
-8
-42
-10
-13
-4
27
-42
-28
-5
25
-11
1
6
7
-34
-14
-8
-1
11
-5
-16
-1
-14
4
-1
-2
-13
26
-22
7
-20
10
1
-8
-15
-11
-7
-3
-31
1
-4
39
13
6
21
-9
-11
-32
37
-25
-12
27
4
-1
-37
-13
3
-13
-28
0
-9
-21
20
-7
13
-28
-18
-1
-1
-4
-26
-34
6
54
16
20
-13
3
22
-4
-15
30
-28
-4
-18
-19
19
-5
-2
48
-14
-12
10
-7
-24
4
9
0
-5
-2
4
-2
-10
1
3
-20
-2
-2
-4
-6
-6
-8
37
13
21
0
6
-11
33
-15
-1
25
-48
11
-27
-1
-8
-11
-31
-1
2
0
-3
1
-22
-15
-5
-41
-17
-8
-5
-13
-1
-39
2
-4
-16
-1
-1
-3
-34
-19
-33
30
-39
19
6
-3
-25
-39
-25
-13
-32
17
9
4
-2
-24
27
11
-23
0
-13
-7
-13
-32
20
-9
-42
-7
-19
-18
12
-23
-12
-23
10
-3
10
36
11
-7
34
8
-13
-6
8
15
16
-13
-41
-30
16
3
-11
1
18
-2
16
-10
-13
4
26
29
39
-4
23
36
-7
-18
44
26
0
-11
-22
-23
20
-6
28
13
26
-20
-35
-27
-7
9
6
10
45
-5
23
14
34
5
15
-18
39
-16
22
20
-1
3
1
-11
49
-3
15
58
25
1
4
-4
11
-17
26
-15
2
-22
-20
-24
-12
-16
18
-13
26
-9
-2
-9
-2
-12
30
-31
13
9
-5
-10
9
-26
-17
12
-12
-4
16
-11
-22
-14
3
-8
-7
-13
34
7
-35
21
5
-14
9
-10
-6
17
35
-9
7
51
-2
-15
-8
-8
-2
-12
-2
23
2
4
-4
8
22
-7
-31
-18
20
-1
14
10
4
-32
-8
24
-12
-20
15
23
-1
-3
-31
25
-12
-10
-13
1
6
23
-43
0
12
16
15
27
29
-20
-19
-31
-10
15
40
3
17
-19
-51
-6
-10
26
-4
-32
-20
26
-22
-7
4
-5
25
9
-35
10
15
4
15
1
33
20
-7
2
1
-28
-5
-23
1
11
-11
-6
-5
-14
8
7
46
2
15
28
4
13
23
21
34
10
-10
-6
4
14
-5
-6
14
-6
-1
17
-9
5
-15
7
18
-5
8
50
22
-51
34
13
3
15
-11
-17
-14
-25
-29
3
-14
13
25
-3
-19
-3
-15
-1
3
2
-10
-4
13
55
0
7
-14
-30
2
17
23
16
25
-9
-5
-10
-26
5
5
40
29
-15
-22
24
-16
-21
13
-1
-18
-14
-13
-15
-47
9
-3
-20
14
-19
2
-17
-20
4
-18
-21
16
-5
-7
-25
-45
17
-11
-48
-27
-5
-28
-7
-5
-3
1
-23
-13
-20
-30
16
20
-31
0
-17
-19
-12
-22
3
-2
21
-28
-30
1
-9
5
-9
-13
13
-15
-14
39
-4
-17
1
2
12
-30
-26
-5
9
8
20
8
36
29
13
-19
4
19
12
-13
27
-25
-9
-20
-2
45
18
-5
17
-2
-2
-10
9
1
3
18
2
13
-7
-19
-9
46
-17
-2
-8
-25
0
-11
-10
46
-40
-13
9
3
22
31
26
17
11
28
10
-27
-9
29
11
35
-9
-2
3
-41
33
-27
8
15
-7
31
10
1
20
-13
-13
-36
-12
-32
37
17
-25
21
-5
-3
-2
2
10
27
-33
10
2
14
-1
3
2
5
-25
-37
-19
3
11
-9
24
16
22
16
5
-3
-6
-18
21
-28
11
-19
2
-6
-6
-14
12
-20
-26
-25
0
-22
0
25
-2
12
-5
0
-7
-24
-17
-7
4
-11
-20
-16
10
30
-13
14
30
-1
4
-12
-19
1
17
18
-36
-1
-7
0
3
-8
-14
-24
-26
9
-22
-5
25
1
-18
3
11
21
19
3
-12
-23
22
-13
-8
18
2
-1
-11
-14
15
-20
-6
-12
-29
-12
21
-13
-1
-4
-8
-12
8
-21
0
14
-9
-8
-27
-4
9
9
-11
-2
-12
7
-23
-7
-35
-2
-10
-26
38
3
-9
-30
-1
10
-7
32
45
-12
1
1
47
4
-26
20
21
-9
-14
18
-7
1
-28
14
26
8
-14
12
9
-35
-6
14
-4
-26
15
40
-23
17
-3
9
7
-10
10
5
-15
6
0
13
-5
37
-8
-7
22
-24
12
14
-3
-7
-9
-7
-3
4
1
-7
-13
37
-2
-15
-3
-12
8
-26
19
-43
-4
1
34
3
4
9
3
41
14
9
6
-4
-9
8
9
38
8
4
-50
21
-6
-12
26
33
-4
3
-30
19
0
-25
35
35
-8
4
3
-5
-6
-34
3
12
2
8
-18
-15
-5
-20
-18
-4
21
-3
-42
12
2
12
6
-3
4
-7
-2
9
-5
5
-9
17
30
-7
-29
20
-12
0
4
-1
5
1
-26
-8
16
-9
9
-39
-21
4
-16
14
8
-4
-15
-8
-16
-12
-26
4
-1
-11
-10
-1
-1
11
-12
17
9
-9
-1
-41
-25
4
0
-6
1
-30
9
-23
-9
0
17
13
-2
-18
10
17
-14
14
36
11
-6
30
12
-16
0
-28
0
18
-8
-10
-19
-11
-3
19
-41
14
-21
-15
3
-6
8
-12
-23
-15
-19
4
5
-27
8
8
46
17
-17
-17
-12
-35
20
-17
5
-36
-32
-39
-17
-23
7
-33
-28
-30
-21
10
11
3
-14
-24
-2
-10
-9
22
15
-37
-5
15
28
-17
6
1
-1
0
-7
-22
20
-22
11
5
18
-21
-7
-21
-10
43
-7
-18
10
11
-4
3
-11
-16
-21
24
-12
-5
-2
-17
4
14
-19
-24
17
-5
-27
13
34
3
-25
-21
21
-21
-29
8
19
-18
-13
-4
-7
-25
-26
-7
-25
7
-11
-9
27
-8
16
35
33
-17
-19
-12
5
6
-4
3
44
-13
-18
-8
-58
-34
-21
24
-22
20
17
6
-1
4
24
28
20
-10
15
1
20
-20
36
-17
-13
-31
27
-7
23
-25
26
-27
-31
-33
4
3
5
-4
32
-17
20
25
17
1
7
-31
17
-21
-1
-28
8
18
24
-5
16
-18
-6
-16
-16
-13
-10
19
4
34
7
17
-4
10
-10
12
-9
17
-7
-13
-1
-9
4
3
-1
23
26
-11
6
-11
26
-6
6
-8
-30
33
-5
-5
26
-19
22
-10
-24
37
4
-11
29
3
2
6
-13
12
10
-18
-11
1
-6
-36
64
6
-3
-19
2
-32
28
-2
34
0
-6
-14
-14
38
-1
8
7
-20
-5
-26
25
10
-3
-17
28
6
8
8
18
-2
4
9
11
13
22
32
-24
30
57
23
-11
2
13
-9
29
30
5
37
22
9
-4
-2
4
-24
25
15
1
6
-15
-8
1
-11
-7
1
4
31
13
29
37
6
-17
19
43
-5
-8
17
-3
-24
-25
-2
-14
-8
-17
27
-2
-18
-31
-6
10
5
36
16
8
-26
3
31
0
23
-3
11
7
-35
-32
10
25
12
-2
16
-19
-31
-3
9
-39
20
29
21
14
4
8
23
-19
13
31
19
-5
-14
34
58
-16
12
17
10
6
16
-12
58
18
51
22
1
0
-3
11
6
48
14
38
7
-14
-18
13
23
56
-4
14
4
-33
-43
-4
18
5
30
9
2
22
-10
3
-13
21
-5
31
-7
2
3
8
11
30
-3
18
-3
-26
-51
-2
5
-8
0
23
15
10
-12
16
-17
-7
-4
14
-23
-12
-20
-7
-22
-33
-47
2
-19
25
-10
-23
-3
-36
22
6
7
11
-20
0
17
-14
-4
-4
1
-3
2
-29
9
-18
-38
9
-15
3
-8
-22
-30
3
-4
9
28
-19
-27
-19
24
-10
35
12
-5
-29
-8
-13
28
-12
5
3
-23
3
9
-4
-5
-44
11
12
0
3
-23
8
43
-29
31
2
23
-16
-5
-9
39
-3
28
11
-2
-3
4
5
-26
-29
3
-1
5
15
-16
21
32
-49
43
3
11
15
-16
8
-17
-12
-38
-2
32
7
-43
-2
-17
-24
-22
17
-7
12
-8
8
-27
38
-36
20
-24
-3
7
6
7
33
-34
17
29
2
-23
5
32
-5
-1
14
4
11
-5
-12
17
9
9
-1
7
-1
-4
23
6
29
24
6
27
-15
22
14
-9
21
9
4
14
5
27
4
1
-5
-22
-13
-1
-19
-11
7
-17
26
0
-6
-6
-21
5
-4
5
40
-10
6
4
-11
56
-27
3
39
-28
-22
0
-28
14
1
5
45
-10
-17
-19
-5
-10
22
31
4
1
-5
23
10
8
10
-1
4
-14
-10
7
-11
-35
5
-6
-1
-3
-4
-6
21
-32
10
-13
-31
23
6
15
-30
20
6
-2
37
-18
-5
3
-43
0
19
-5
-21
-22
4
-3
-3
29
12
-17
15
1
2
6
-30
25
-8
1
2
-10
-3
15
-35
-28
-2
1
-11
-17
12
0
-5
34
5
5
3
18
-13
-16
34
51
-21
-4
-35
34
1
-29
3
-37
-9
-15
18
-2
20
-15
9
12
-1
9
-46
-3
-7
-11
-3
20
10
-17
17
49
7
-6
7
17
-17
-24
-45
42
12
3
-2
24
-15
-24
-28
21
-3
-4
-38
-4
35
17
8
10
15
7
-23
3
-8
-10
-1
3
23
-3
-33
4
-1
0
-7
-22
-6
-21
40
-43
15
-15
-6
15
15
-9
15
5
-14
4
16
0
-6
-6
9
-3
-9
9
18
14
-6
-1
31
-34
-18
3
5
-12
12
3
7
-2
-12
-13
2
14
-4
0
-4
-5
13
-13
-4
17
2
10
-14
-12
15
-19
29
21
32
18
-35
-19
-20
-27
23
11
26
4
-10
-20
1
-10
-12
10
-13
-16
-18
-8
3
-16
14
18
3
7
10
-1
-6
4
6
28
-4
18
9
32
0
14
-30
41
-7
-17
-1
2
12
28
-10
3
11
15
25
1
3
-1
-21
3
2
20
21
-1
-6
-22
-1
-15
-11
-30
2
4
10
-17
8
4
-10
11
22
9
18
-23
-5
17
10
8
12
5
21
12
5
18
-18
8
3
20
15
-11
33
14
-32
-21
11
-12
11
0
-7
19
-27
-2
-6
-8
9
1
-25
23
-7
8
-23
-25
-17
1
22
39
-10
0
0
-41
-19
-8
-20
18
-8
12
-6
-21
-20
-1
-23
31
7
16
-19
-22
-7
17
9
-21
0
4
7
-10
-2
3
3
-35
6
21
-1
-3
0
-11
11
-26
-15
12
37
12
-11
0
34
-22
-2
30
-10
-1
7
29
10
-29
6
-3
-19
-7
22
23
-22
-16
-23
1
-14
-23
6
-26
6
18
-15
-21
-18
-20
-5
6
-11
25
0
-19
-24
-22
0
-2
-7
-20
-1
-29
-11
-40
-10
-5
41
15
0
-17
-26
-31
-23
31
-21
8
10
-10
-29
-7
-2
9
-1
6
-6
-7
-21
-9
-36
17
-16
-3
6
-6
-25
-24
-6
22
-29
12
13
13
-9
-33
24
25
21
2
8
-16
-16
-21
-35
16
-36
1
3
-14
-22
-22
-31
14
12
1
-3
-11
22
-2
3
-11
11
-11
7
1
-24
-14
-28
-12
16
-6
-6
-5
-16
16
-25
-13
41
-1
0
2
16
32
-18
-12
37
-14
-6
14
7
23
-5
-1
2
3
-12
31
-2
-18
14
8
15
12
-11
7
-30
35
24
-7
0
2
3
-5
-8
10
-28
-20
-27
6
6
8
3
-8
1
5
6
15
3
-19
-16
54
-3
0
3
-7
-3
-15
-31
18
11
4
-31
21
-2
5
-5
35
4
-6
53
10
-2
-14
-4
-39
-10
7
-4
11
-1
-16
-13
-19
-14
9
-14
-11
1
4
-4
2
-16
-5
28
6
7
-17
-5
-32
-20
-13
-4
-7
9
-26
5
-45
-8
-25
-6
-1
18
-19
16
5
-6
-9
27
-25
30
-36
24
-12
14
-3
-4
12
-4
-13
22
33
-10
-27
16
-5
10
-15
15
55
-7
-23
-17
-11
28
1
36
40
0
-1
37
-8
-3
-2
-7
-1
-4
41
20
37
8
26
-19
-7
17
8
13
-14
8
16
20
18
1
0
0
-23
-9
13
4
-38
9
3
-16
28
7
11
-8
0
-8
7
20
-13
16
-11
-8
-12
1
28
0
31
2
18
-20
-21
18
33
11
-24
8
31
-9
-25
-17
29
20
15
9
-32
-22
-12
-35
-4
61
14
-25
0
-5
-22
-20
-11
-10
-37
-8
-7
-16
-3
4
-40
2
-11
-2
3
-24
-7
9
-45
-35
-2
-8
-14
4
10
-13
16
1
-35
28
22
-11
1
15
23
-2
-12
3
2
-26
-22
-11
20
6
-4
-17
11
-10
-29
-9
-12
25
-9
12
19
-19
12
2
-8
26
-21
5
18
-34
0
-14
33
-5
-25
-5
-42
-13
6
27
20
-49
-3
-5
-43
0
-32
28
-9
-25
9
-4
-33
-20
-19
21
-14
-21
-39
1
-10
-8
-11
9
54
40
-31
2
27
4
7
3
28
5
6
-19
-22
10
5
-7
0
37
-34
-11
39
-3
-17
-9
4
-14
-19
-23
9
15
9
-11
8
5
-48
-26
-1
24
22
-1
4
-16
-24
0
23
7
5
-15
-24
38
1
0
14
-12
-18
-15
5
-17
4
-8
-4
11
35
-2
3
-43
12
6
-14
-33
25
-9
-13
32
-16
-1
-2
-13
-45
-31
-5
3
-16
4
4
-32
-4
-11
-17
14
-11
4
-1
-23
22
-3
-34
10
-25
6
13
-18
17
4
-24
38
-10
7
8
-32
47
18
-25
-3
-10
3
12
-16
-13
-4
22
-15
-20
5
15
-17
-8
-4
0
39
20
18
39
-17
28
10
-9
37
-23
10
-6
15
-27
-7
28
37
2
1
1
-23
-27
4
9
-6
14
12
8
-17
11
-15
-15
-31
20
17
10
16
24
-28
5
-17
-4
17
4
12
0
-9
-7
-18
-9
4
1
-7
13
6
-19
-22
9
-2
6
3
-17
-13
-6
40
8
8
18
19
-17
6
-11
-40
12
-12
22
13
-46
-14
-27
-23
2
19
40
-16
-28
15
45
10
28
8
38
4
-20
-4
10
16
29
-6
60
-10
-44
-17
-2
-8
-7
3
1
18
-29
-10
2
28
3
-1
-2
7
9
11
0
11
7
-8
11
8
-27
-10
-17
9
-12
11
-18
8
26
-4
32
-12
-35
4
-22
11
29
-4
0
-10
0
0
3
-6
16
14
-1
-28
-30
-2
3
18
35
7
0
-28
20
-10
-13
3
31
12
-10
18
-13
9
7
-8
-8
27
-7
-16
-31
1
-12
0
14
18
11
-23
2
10
11
17
-7
9
-5
13
-11
12
15
-8
14
-14
-38
2
2
36
17
18
58
-20
-36
13
7
2
14
-9
3
-19
-4
15
6
-8
5
4
5
-5
34
12
6
-6
9
-10
57
-17
-4
-14
17
-4
3
-49
38
-10
24
23
20
-3
5
-22
-20
-6
52
30
28
-6
-48
-12
18
-2
-6
13
18
-12
-55
-24
3
-3
-1
-10
17
-15
-20
-10
-21
6
7
23
-9
-22
-14
-18
-12
3
49
45
-15
-26
-16
-30
-7
-12
0
3
-6
-21
15
-45
-4
-18
-13
-14
-13
-9
-6
-24
36
-12
30
26
-22
-24
15
-32
35
-6
13
26
3
-25
-13
-30
13
-2
22
4
-20
-36
9
8
24
-8
-8
-4
-3
-41
-18
-10
57
-16
-38
18
-13
-33
-24
-11
18
-18
-16
14
-56
-11
-4
15
11
7
-2
0
25
-17
14
2
-4
-4
-22
-3
41
-17
5
-20
-61
8
-29
-25
-3
-4
-8
9
23
11
-7
14
7
7
22
-7
-44
18
-12
-12
-16
-16
27
-25
-51
25
-3
-25
-16
-5
7
-20
20
30
10
-45
-9
-8
2
-29
12
18
27
16
-12
-16
-2
-39
-25
7
14
-6
-22
-9
7
-1
19
6
2
-6
21
-3
-21
-9
35
23
16
2
-2
-1
-14
-25
25
5
-7
-4
-8
-8
5
12
8
14
26
-38
33
-2
-22
-4
-6
13
-3
-17
10
-14
-10
-28
34
6
-11
25
-21
-20
-7
5
-31
11
16
4
-9
-9
-1
0
28
3
-9
-15
-13
-14
7
-6
4
-11
-17
-21
9
7
25
7
-6
11
4
1
19
-12
6
-6
4
-3
22
4
36
-19
-8
8
24
2
4
0
-4
10
5
0
5
-28
28
27
3
-4
-5
25
11
-17
4
-32
11
3
-20
-8
31
2
2
-26
-12
20
7
-14
-48
-16
29
-13
-7
-8
13
-6
27
0
16
2
-12
7
-5
-11
26
-8
-6
-32
-18
2
46
-10
17
13
6
-19
-6
4
-13
-15
24
-3
20
4
8
3
4
-21
20
-3
-1
-8
2
4
-26
-10
-13
3
-8
-40
-51
5
-8
-20
-2
1
3
-14
3
6
-27
-49
21
-9
5
10
16
1
-23
9
0
-17
19
-3
-46
-9
-16
11
16
1
14
-16
-6
-8
-27
-37
25
9
-4
-4
29
8
33
-29
20
3
12
17
-5
-7
-18
-10
-14
-5
-13
-24
-10
-13
25
-1
22
16
27
-10
-30
-8
23
-16
24
0
-43
-18
-32
-9
24
-3
6
3
20
-4
-54
-22
15
0
22
-2
24
26
-30
1
16
10
7
-2
-37
17
-53
-1
43
10
-21
-3
-52
12
-35
-11
40
-4
-3
-3
31
-5
15
1
37
-10
8
-18
15
12
-18
-5
1
-10
21
-19
-12
42
-16
8
30
-25
20
-33
16
26
23
-18
1
-7
-22
14
10
6
-41
-19
7
6
-7
-9
26
-3
-41
-13
27
8
-1
-1
-30
19
6
-10
4
0
-14
0
-5
26
-35
-3
-2
35
-11
3
15
7
-31
6
-3
8
-33
15
3
-21
33
12
8
-2
-10
-19
22
-28
-1
5
-2
-6
-21
-32
-5
-4
-9
5
25
8
21
-33
0
7
-5
15
8
-9
-14
-4
30
-14
8
21
-16
7
5
-10
14
22
-4
7
8
11
20
-5
9
30
22
14
5
6
-8
7
16
-4
1
25
-5
-4
-22
-38
25
-20
37
9
9
-28
5
-5
1
12
21
21
-26
18
-39
27
5
-22
9
26
7
-13
20
-11
7
43
-14
8
7
-13
23
10
-6
13
13
-15
-6
18
21
-14
29
-2
-32
11
-8
29
13
-14
9
-1
4
4
-17
9
-12
11
1
33
-23
-6
5
0
-28
-12
26
62
4
12
7
4
-54
-4
18
38
6
3
0
-13
-26
-20
9
48
-13
-3
-11
-9
36
24
36
-52
20
7
-23
10
25
3
13
-16
39
-1
-19
1
50
-5
1
52
44
-18
-7
27
1
10
30
-33
-3
-21
-27
22
0
5
19
-22
14
-23
-4
1
23
3
5
7
17
-9
-2
35
2
-12
5
-34
-11
-12
4
33
-21
-19
10
-14
-7
-14
13
11
-13
-21
-3
6
-14
10
0
-37
17
10
7
7
-23
10
-19
-3
-1
-13
-28
-5
-21
6
-5
31
15
-6
7
1
8
25
-18
-28
9
2
15
28
28
7
-29
-12
-5
8
-11
7
9
-17
23
32
-1
19
-41
-33
-30
11
-30
-13
-3
2
36
-6
-21
-24
-20
15
21
16
-20
10
-18
-21
-21
20
33
31
-10
-2
1
25
15
6
10
-8
6
-15
-21
22
-13
-11
7
16
-37
-8
-5
3
-14
20
21
3
4
0
-9
29
16
2
8
-21
-3
-20
16
19
31
-17
17
-20
-36
17
2
5
39
5
-4
-22
-13
16
11
-2
-23
-20
17
-21
-33
-16
9
19
-2
-26
-22
-18
30
5
17
0
-6
4
-17
-14
53
11
-8
6
-16
17
1
17
19
22
-11
-7
11
12
3
13
4
8
-15
-3
1
14
-17
10
-20
-1
-22
3
-16
16
3
9
11
-16
-17
1
-21
30
-3
15
11
-24
-32
27
-12
28
-22
43
-9
1
-38
6
3
32
13
29
-9
-35
-4
23
-7
43
1
26
17
-23
5
34
-14
43
16
39
20
-11
-52
10
15
-4
33
6
-21
0
-9
6
-6
-7
3
-10
-1
19
5
-8
-2
8
-16
21
5
12
11
14
8
-1
2
15
-24
27
-18
7
-14
1
-10
-6
-11
19
-20
-5
-8
25
-9
4
-8
31
-7
18
-12
52
36
-21
-23
-17
-18
3
-24
47
7
-33
-1
1
-5
-11
-19
29
37
-6
0
53
18
-20
-18
8
5
15
-8
-25
-1
-4
-10
14
-38
-1
9
-2
-5
9
-8
0
-21
-35
22
11
7
-5
-23
-13
7
-13
-11
-49
-3
-7
-19
-35
3
0
8
-11
10
1
-17
-8
-26
-5
18
-6
5
-7
12
-22
-2
8
-10
-40
-10
-19
-17
-19
10
5
17
-3
2
-8
2
1
14
23
3
-10
28
-12
6
6
21
-18
10
-20
-7
-15
1
20
-2
-8
-23
22
-7
-16
-3
20
27
-14
-9
26
9
4
5
15
-11
-20
19
43
12
-8
-28
19
23
-29
-15
-18
10
-11
-4
32
-15
5
18
26
13
14
26
-40
-70
-16
10
22
-23
-14
-6
-32
-3
8
20
51
-17
-19
39
-27
-31
4
64
19
25
14
9
1
-15
0
22
35
28
14
-3
0
-8
7
-3
2
15
14
-18
-2
15
3
-15
12
-18
4
-2
-16
9
6
6
0
52
-17
8
-14
-4
-3
-14
-2
26
-10
3
6
-2
4
14
8
1
11
21
5
28
-17
-10
-2
3
2
-9
8
11
-22
-4
11
21
7
-17
1
-17
-9
11
25
17
6
-3
1
17
4
14
-4
41
5
-26
20
15
-13
16
-29
19
-1
-10
18
-7
17
-34
-19
-7
-6
-18
16
19
2
-17
27
-5
-11
1
-10
6
-9
-27
-3
-15
-6
-11
5
9
19
9
-25
24
-18
11
8
11
12
-38
-12
10
11
-29
22
5
2
-5
26
-2
2
-38
-5
-5
10
-40
-15
10
-30
8
-12
-28
-16
-31
-26
-8
-8
3
18
-10
10
-10
-7
14
-1
-12
6
-1
8
-6
-7
-29
-10
3
-5
-31
18
-22
-31
2
-11
-24
-10
-16
18
1
-17
-5
-2
-34
-13
6
-2
19
-33
-26
18
10
2
8
19
-28
-8
-17
38
15
-25
13
17
-15
-25
28
9
23
-18
18
18
7
-32
19
-4
6
1
22
18
10
33
10
0
23
25
45
4
2
19
-25
12
4
5
-37
-5
-1
3
-32
-16
29
-14
25
-6
-5
-3
9
-24
-12
24
13
-2
-8
-27
-3
-3
-35
8
-9
6
7
-30
-2
-24
2
2
-22
-14
2
-45
16
-20
-20
7
-21
10
0
-8
-16
-5
-6
-3
-19
-10
-9
5
-17
4
29
1
-16
10
-7
-20
10
-26
-9
9
23
1
26
43
-6
-16
26
-14
4
-3
-5
-35
0
7
17
-23
42
-18
36
15
-3
-22
-28
16
20
10
41
15
14
-4
19
-20
-14
-12
3
-16
6
3
15
10
31
1
26
43
2
1
-17
16
7
5
39
24
-11
17
-2
-20
6
-19
18
20
-15
-21
1
35
12
5
-6
-18
-3
-19
-2
10
-7
8
-1
-35
-8
-15
-10
7
-4
-11
-2
9
-5
-14
10
38
32
-10
18
-27
-4
-11
9
13
30
-5
9
16
-27
-8
6
5
20
-27
21
17
-27
-11
-1
4
11
12
16
-9
6
-11
5
-8
4
-4
20
-10
-22
-7
-6
2
28
4
15
-39
1
-17
7
-1
-15
-14
-2
0
-15
6
-10
0
13
-25
9
-35
-5
8
7
-26
-15
-22
-8
-12
-5
-14
-2
1
-12
-11
-5
-1
29
10
-3
2
-10
-21
-13
-34
-4
16
14
-7
-6
-6
-27
-26
-11
0
14
-7
-29
-3
-40
-35
-22
-2
-9
-10
-19
13
-13
-23
20
-2
-24
-3
39
13
17
23
7
6
-14
-4
14
-2
-24
-9
47
-8
2
21
-3
-11
32
-10
-11
4
-17
44
12
-5
-11
14
-17
6
-23
-7
28
22
-28
-5
-7
8
-14
33
17
-3
-4
-9
30
13
2
28
22
23
8
-3
-1
25
-9
8
36
9
-35
1
14
15
2
14
5
10
13
2
-30
12
16
-3
21
28
24
-14
-23
-11
-36
-3
7
7
-4
-32
3
-8
-12
0
-7
26
7
-26
-12
-13
-14
14
22
7
-11
4
-33
-14
-25
7
3
-8
-11
-6
34
-15
-40
13
18
2
-3
19
-15
0
-9
8
20
13
11
34
-14
-22
-11
-3
7
-9
3
-41
25
-21
-24
-15
-9
18
12
-5
12
9
-6
-24
-16
25
-14
-34
-16
-4
-12
-8
-43
25
-24
11
7
-3
-20
-24
-37
-5
-20
-2
-3
-1
6
-23
-15
4
-13
-15
-22
-2
9
5
30
17
-16
-34
-6
16
-3
-4
-14
-11
9
32
-18
14
-4
14
-16
-19
18
30
-28
-25
8
29
15
-7
-13
-8
4
-10
-5
53
-27
-26
-18
28
-27
-3
-17
21
-17
-23
-21
-11
-8
22
13
-30
32
8
-6
-28
4
-3
24
3
6
32
-25
28
-4
3
7
-9
-33
-13
2
41
-26
24
-13
-2
25
-1
-23
-16
14
-3
10
10
14
-10
-14
43
7
12
-3
-22
-33
-21
-1
46
16
25
-15
-24
-1
-3
29
-14
-8
7
14
6
-17
-12
37
-3
16
15
8
-16
-34
-10
11
-26
22
-4
-9
13
-11
-22
16
-10
-6
2
-10
12
-9
-13
23
-16
13
11
-5
7
-35
31
15
43
12
2
-5
5
-7
-23
0
25
3
-4
-3
21
2
6
9
0
21
-2
7
19
-19
-4
7
31
27
0
9
33
31
12
9
-28
27
-3
11
29
-14
6
8
-21
-6
6
1
-14
20
27
7
13
33
-13
12
6
-11
29
14
13
-8
1
-8
0
-20
11
-44
-24
-11
0
-2
-2
-22
22
4
5
-22
-20
38
-21
3
13
10
16
-28
-15
-13
-16
-38
23
-10
-13
22
-1
21
-6
-16
17
-16
7
17
-9
18
-29
-15
-2
37
-6
34
4
33
-33
16
-1
-3
9
7
6
26
-14
36
16
-7
33
2
14
-11
26
-8
2
10
15
-30
6
15
22
-9
9
3
18
5
6
-18
-2
-3
21
-7
-8
-3
-4
-4
28
-16
7
13
-5
4
-7
18
-7
19
9
14
7
14
1
23
-13
5
5
9
-16
38
-4
-18
-24
-18
9
34
4
21
17
-19
-35
-6
0
22
-27
18
11
-1
-30
-8
17
12
-42
39
-23
8
-9
-29
21
-39
-27
-24
-19
8
-4
-11
6
25
-12
5
-4
21
-13
-20
-3
23
-24
15
-6
27
3
14
13
-30
-27
11
6
20
-5
-14
-1
-12
-17
0
6
60
19
-27
-5
-38
2
9
-3
-14
-35
-33
-28
11
7
10
-8
-22
-30
-44
-2
-14
-10
-18
-3
-29
-10
-18
8
2
-29
-15
-3
-2
16
4
8
8
44
-8
-9
2
16
29
9
7
-9
3
9
0
7
17
-3
8
-14
-14
2
-9
11
-36
20
-15
19
11
-11
13
-5
-29
4
-14
43
-14
16
-4
5
-14
7
-4
1
-35
2
-21
4
-37
29
-13
-35
15
0
-11
15
-6
-19
-19
23
-8
48
9
15
-15
-16
-14
45
-16
-16
3
4
-19
-4
24
-10
-13
0
-2
16
28
-8
-1
-8
-14
8
-11
2
14
0
0
-11
-19
-3
15
8
15
-2
-6
-4
-2
-15
15
-4
-25
-10
7
-15
-13
5
5
-20
2
-6
4
33
0
7
1
11
5
20
6
6
1
-20
-2
26
20
-26
7
-26
-11
-15
-6
30
-27
-26
1
8
-3
5
-2
6
-14
3
-22
-30
-26
-9
0
19
32
-4
-15
-12
12
-23
-21
37
12
4
6
37
9
-4
16
-6
11
1
-12
18
7
-12
14
28
22
-15
-15
9
-5
-13
-11
27
-11
-6
-2
-21
-11
19
11
1
-13
-10
-13
-13
35
2
36
7
12
1
-21
-22
-15
-10
26
7
14
-31
-8
43
-10
10
36
34
-4
6
-1
8
-23
-4
8
5
4
5
48
7
-14
-5
-4
-24
30
-4
-11
-20
11
-2
-5
21
-23
9
-5
-41
6
-16
-21
0
-4
14
11
-5
20
-8
3
-23
-20
3
1
-17
-16
-3
8
8
-14
5
-5
-1
34
11
4
-4
-3
-9
0
15
-5
-3
-17
7
13
-18
-18
25
-40
-14
-10
5
9
-2
-7
-30
7
-18
-41
11
22
-3
-19
-48
-24
-9
4
-1
-13
-11
-34
-42
-20
-15
19
-1
-14
-19
15
33
-17
-31
-31
12
-15
-12
22
-19
-30
-12
-24
-12
-24
-29
-41
-31
5
-10
24
13
-27
12
-1
3
-11
-21
-10
37
-10
-13
23
-9
-48
-2
-30
39
-2
-9
-44
-16
5
11
58
-9
8
7
-22
-10
-5
3
24
-7
8
-5
46
-8
30
4
-19
7
-20
-1
27
-7
53
9
61
-13
50
-22
-19
16
4
7
18
-16
77
-45
16
-8
1
3
-14
-15
42
-10
6
20
3
7
22
-17
-7
-20
12
-45
16
1
-6
-8
10
-9
6
-28
15
7
5
-5
3
6
18
21
-19
22
-2
-14
21
18
-8
-15
-15
20
-4
-13
2
-18
-21
17
21
17
8
-10
1
-9
-1
42
44
13
-7
19
-4
-7
-15
27
-10
13
-13
32
-12
-31
-11
-6
43
25
8
21
2
-26
3
45
22
30
1
-5
-39
5
2
-23
-36
36
16
18
-26
22
9
-8
4
22
27
-5
7
6
3
3
32
-10
-16
2
3
24
-5
-41
5
-10
-35
35
-18
7
-11
-18
-6
-1
-33
37
-3
13
-6
-27
0
-1
10
-2
-22
10
-5
-9
4
2
-15
9
19
26
-29
-14
-11
-11
-20
33
8
-1
-29
-37
-12
11
-11
-13
-19
7
-13
41
-28
-7
-9
-5
-19
-8
-10
-25
3
-32
-18
-2
22
-18
-17
-4
5
-5
22
-7
-34
-36
-4
21
-2
-14
-3
-41
-5
-39
-1
2
9
-13
-6
-28
8
-33
-10
51
25
0
-1
-21
-44
6
-1
-23
-1
-5
-6
-21
7
-13
-10
40
-8
2
3
-15
9
5
-37
14
6
0
-29
-31
-11
-10
11
-39
-8
4
-15
-32
17
10
-23
-29
-25
11
13
-7
-17
-2
-11
-22
-7
-32
30
15
-2
31
15
0
0
-8
6
3
17
0
16
-5
-9
-1
-3
-1
13
8
12
-20
14
-22
-7
12
-8
19
6
-1
-31
-3
3
-5
15
13
-8
-12
-22
-10
-25
-19
-22
10
45
-4
-2
-13
-13
11
-17
-4
-25
-42
4
-1
0
-22
-17
5
2
-33
-8
-8
-19
-44
-26
7
43
-24
14
15
11
-24
0
-10
37
-23
25
10
-18
-9
15
-14
27
4
-19
7
-3
-16
43
-17
-29
20
21
3
5
-3
-3
1
27
-27
7
-10
4
-5
-2
-13
8
-21
-5
1
-7
-30
6
-32
-26
-14
-10
-1
-8
22
-15
-1
-15
7
-3
-9
37
13
-41
-8
-11
-10
-2
-5
48
21
-25
-6
-51
-12
-10
-8
23
-1
-16
-12
-20
3
-3
-8
25
19
-13
1
12
-9
3
-7
25
17
10
-4
-16
10
16
0
24
-3
-11
-20
-21
-26
-21
-3
-1
41
10
-5
0
-31
-3
-20
-11
20
14
-4
-21
12
-5
5
13
46
-3
-8
-37
-9
-4
-7
19
40
7
8
-11
5
15
-21
-9
-7
38
-34
-29
28
22
-5
17
-4
-17
-26
-11
36
19
-1
-8
1
38
-9
-21
14
3
2
2
-3
26
-5
-6
40
41
-8
22
14
-15
0
-17
-13
8
1
4
12
-20
9
6
-4
9
10
15
1
-4
17
11
39
50
3
-19
-8
2
15
-25
-63
3
12
-16
24
10
-7
-4
-39
3
29
-4
17
-21
10
21
5
-2
18
-10
24
17
6
-6
-7
2
-17
-11
-15
23
20
-13
9
16
-11
-7
-35
-30
8
-20
39
19
-14
-14
13
35
-12
-2
-11
24
-31
-6
27
-9
4
-5
55
9
-32
2
0
-32
-19
-24
20
-2
-24
13
-11
-4
-9
-12
6
1
-25
17
14
-4
-4
-8
36
-5
-29
14
-13
-13
-24
-16
47
-46
-22
5
-20
8
-14
-40
68
-20
-16
2
-34
-36
-7
-15
21
-7
-16
-1
-17
-1
18
1
-8
26
-13
-17
-20
0
-5
-19
37
-2
-10
-3
-16
-28
-9
-16
-6
3
-7
-3
-6
-6
-25
-21
-15
5
8
-25
-7
-7
-16
-6
27
-10
-6
3
-3
-24
-16
-3
21
-10
-24
-10
10
-23
-6
-12
-3
5
-5
14
-14
-3
-2
22
4
33
-15
9
-15
-30
-2
22
-16
-6
-4
7
7
-26
2
11
-27
28
-2
8
22
15
6
-43
-11
-19
-17
-3
-2
-25
3
-11
30
0
0
-23
-5
-40
-2
43
22
-7
-6
39
5
24
-12
-22
-9
-23
-12
27
7
-8
-12
-18
-4
4
-3
29
2
-45
-15
-13
-11
-44
23
15
15
-10
0
3
-22
-7
9
0
4
13
-5
-4
-53
-24
-1
-6
-3
18
4
-13
-42
-18
5
18
-9
3
-26
9
-10
-13
-10
15
3
10
-29
-4
-11
-15
5
-7
6
32
-22
-4
11
-31
2
-32
-19
-9
-9
4
-24
30
7
-10
-6
-7
-11
34
-40
21
31
-12
7
8
-7
-4
-38
32
14
-33
-4
26
-36
43
13
-33
14
-44
-5
-8
-36
-9
14
8
-16
20
18
-4
-3
-29
-44
15
-2
-32
-5
-27
-32
7
8
9
-1
1
7
-5
-1
-11
-22
5
2
15
4
-17
24
-4
-20
-10
-1
7
-19
-13
-5
-12
-29
15
13
-27
-19
-17
-8
-22
-24
-7
22
8
-14
31
4
25
-13
-7
-15
-13
54
24
-15
-12
11
-14
-1
-10
36
-14
-2
-5
25
0
7
6
18
14
29
-2
-19
2
-17
7
26
-11
-1
-1
-21
22
-7
-5
44
-26
-16
3
10
1
3
-3
12
-21
17
-2
26
-10
-11
3
-21
0
6
-2
-1
6
-9
20
7
28
-4
-7
6
-8
-9
6
0
-3
10
-4
29
5
21
-8
-14
26
5
3
6
-15
28
-12
-30
16
8
14
2
-36
-6
-2
-21
20
-5
-7
21
-34
17
12
19
49
9
1
-3
-21
24
18
3
23
2
15
-28
2
-7
37
-4
-2
6
16
0
1
2
-1
18
-26
-1
8
23
-5
2
12
-2
-31
-9
19
32
-7
-27
31
-45
-28
5
16
-45
4
-21
-11
-16
-20
39
-37
35
0
-27
23
9
29
29
-44
-2
-25
3
3
17
-11
4
-16
-37
-31
1
1
12
10
14
-34
14
20
1
6
-1
-10
-14
-30
-37
-11
20
-21
2
-12
-9
-24
-36
5
27
18
22
13
33
-16
37
5
10
5
8
16
-1
-6
13
10
14
-14
-11
-1
-12
4
25
-16
10
-23
-14
-44
-9
-34
-37
-13
5
13
16
-31
8
-36
-4
-8
3
12
-6
-3
5
-31
41
7
20
-26
10
-28
7
6
3
-11
-7
-27
1
-30
-6
-7
-22
-2
-3
-23
-13
-13
-19
6
46
12
26
26
6
38
-27
47
52
-43
-2
6
-7
13
-31
35
22
-7
-5
-9
33
15
-5
26
-13
-18
22
34
8
35
-11
-7
16
51
26
17
6
-1
-4
27
-6
40
16
30
-16
-26
3
-4
-3
1
15
32
-18
18
-13
27
-8
-6
26
20
-2
41
-16
-20
-2
-18
3
36
-6
40
-15
-43
10
-29
-6
-17
4
-5
0
-28
-6
-6
11
11
-8
-2
-1
8
-5
2
-1
25
-17
20
-7
0
17
-20
-4
24
15
17
16
-7
-14
-6
-6
-2
-3
38
13
28
-25
11
-19
-13
-18
-13
-10
47
16
39
-6
-42
22
30
-2
-3
0
-3
-10
-11
31
-1
9
32
-19
-27
-22
-28
4
-14
-1
7
-9
31
18
-17
40
24
12
38
-18
-7
-2
-48
19
4
12
34
4
-34
6
-51
-3
-11
-16
17
-34
25
-15
11
-14
-13
-27
-18
9
-11
-11
10
-9
-23
-1
-8
-8
-11
-22
9
-5
-16
15
3
-36
-3
1
-9
-32
14
-5
-16
33
1
12
-5
1
-15
-16
8
8
1
-2
-9
19
33
-16
1
-30
2
3
-18
-40
-29
-29
-12
21
-7
-1
-21
-36
-26
-7
-4
16
4
-7
-27
-10
-22
-23
6
13
20
-26
36
-41
-28
-16
2
6
1
-13
4
-11
-24
-51
-1
25
15
3
-23
-12
-22
-2
-2
-10
22
-9
-4
9
-17
-29
-18
52
-27
1
-16
13
-22
-30
3
-17
-16
5
-40
-1
22
-1
-4
-15
5
-11
3
15
7
2
-18
-5
-26
-15
-21
-10
-21
-30
29
-13
-8
-3
-24
-21
28
2
20
-44
2
-1
-11
0
-39
14
-15
-16
-14
3
-19
7
-26
6
-6
45
20
17
-32
3
-3
-17
5
22
9
18
-13
3
-34
-9
15
16
33
4
3
-1
-20
5
9
-16
30
17
2
1
-35
-18
14
-14
29
6
-1
8
10
-8
14
25
17
13
19
29
-22
12
13
-26
21
18
13
2
-5
-4
2
-10
10
20
40
15
-19
17
23
1
25
16
17
7
-5
11
3
5
5
22
-9
25
-8
11
30
21
-19
-2
40
0
-1
-4
-32
-27
-14
15
3
-2
-16
16
-20
-18
8
21
20
2
-26
-14
14
-9
-7
-17
-21
8
25
11
-19
-43
-32
8
-27
-7
5
2
-19
-23
11
22
-16
0
-7
-25
-18
22
-34
-14
-9
-13
-6
-15
20
21
-10
9
-10
-4
-20
4
-11
-28
0
0
5
12
-10
24
-1
-22
-11
-12
0
-15
-37
-14
-16
-34
7
12
-1
4
-1
9
-39
-15
3
-5
0
10
18
-7
-3
33
-8
-11
16
-12
-48
-4
-10
-30
2
13
8
3
-7
12
-18
11
5
0
16
19
-40
15
2
17
-3
-12
-5
-3
-2
-1
28
27
-9
-19
17
-4
5
14
4
32
25
-11
-14
0
7
21
-5
11
32
-26
-1
-25
0
11
-13
-3
-2
-40
-4
-26
16
19
-14
5
17
-29
-19
-2
30
6
-31
11
6
-3
11
-27
-33
1
-54
-1
4
-10
4
-11
-16
9
-7
-36
51
-9
1
-9
-10
17
13
-17
45
-9
4
12
5
-19
0
29
-8
1
10
10
2
-6
17
-2
12
-7
13
-6
9
-35
-6
-2
5
-21
-6
-9
-19
-2
3
5
3
-14
-10
-10
-7
1
-4
27
34
-24
-13
3
-4
-13
-2
42
21
-15
6
28
16
2
5
5
21
-18
14
3
-10
-17
-2
-9
17
-27
0
4
2
-34
-1
-50
8
26
-3
3
-12
14
4
-17
-18
27
5
3
8
17
12
5
-2
12
16
8
4
7
-6
23
17
-2
16
-2
-13
-3
4
-17
13
-6
31
-4
-3
7
11
-35
19
39
29
-4
6
-6
8
-6
17
-34
-11
-6
-26
1
-5
-11
-61
-14
-19
-2
-33
13
0
-37
-47
4
-12
-9
-17
9
-23
-3
-14
-25
11
4
19
7
7
0
35
-27
-4
1
13
-27
-1
-11
32
-10
-11
-2
18
-40
-7
2
26
-36
-11
12
0
-5
28
-9
-25
-53
-4
6
13
22
28
-25
5
-45
-22
-12
3
11
-19
-17
0
-2
-11
1
-6
7
-15
12
-4
-43
-3
-8
8
6
-7
-22
19
-7
10
-4
11
15
-7
-16
26
-9
32
-9
-1
12
-9
-1
-2
-27
1
-18
-17
-1
-7
-8
-21
-22
-5
-21
10
21
-10
12
8
25
24
-4
7
22
1
-31
8
8
17
-12
-16
7
-2
-18
13
-21
38
-7
-6
-17
5
4
-2
-2
31
-16
0
9
2
-37
-10
6
42
-15
-16
-5
4
-23
-26
-16
45
2
6
0
14
-14
-35
31
0
11
-16
14
0
1
-5
20
0
9
-18
24
-12
-3
-10
14
0
20
-1
27
19
1
4
13
0
-3
-14
9
-39
-17
-1
7
0
11
-13
6
-36
2
-20
3
0
12
-4
15
-34
2
-32
8
0
-22
-10
15
-27
-21
7
-2
0
-4
-6
8
7
-8
-6
-3
0
8
-17
-3
5
-3
-13
-22
0
-3
11
4
-10
-3
-16
-3
0
-8
-3
-11
-19
6
-21
-10
0
-14
-10
-29
17
2
-29
-24
0
-26
8
21
30
-11
-2
-24
0
-33
14
17
15
-7
-15
8
0
-32
7
-24
-30
-10
-1
-7
0
-21
-4
6
16
-3
-35
-44
0
-27
-5
13
22
-7
-22
-5
0
-18
-3
2
-16
-22
5
23
0
-9
13
-24
13
5
-6
-2
0
-28
16
-34
34
10
-13
19
0
-7
-5
-3
4
13
-7
13
0
-15
-6
-16
-19
-4
-22
15
0
-6
-6
-18
4
-3
13
-10
0
-1
-8
-16
18
-8
-22
-1
0
-12
-18
-20
-2
-8
8
2
0
-12
-8
-2
-4
0
-11
-7
0
-14
-9
-14
4
-4
-5
23
-4
-4
-5
6
-13
16
17
17
-4
1
6
25
10
2
-22
-14
3
-13
1
-4
16
-17
-24
8
0
-7
-6
21
0
-1
4
-5
11
2
-2
6
-9
-29
-13
-28
14
-14
-15
-10
-16
-22
-21
-13
1
9
-8
5
-26
31
-4
8
-19
12
-11
23
-29
-9
9
-16
1
-7
-5
1
-20
9
11
17
17
-27
-1
25
9
11
22
-4
14
-14
26
19
8
20
-9
-12
5
-10
0
12
0
1
-26
81
14
-9
16
11
-15
31
26
59
3
-3
25
1
-3
26
-6
34
12
4
-24
0
4
25
11
25
5
41
22
-15
31
-12
2
1
13
24
41
-14
15
45
6
0
17
6
-2
-1
14
13
37
-1
-5
-13
-12
-21
-22
-41
-40
26
6
-15
-17
11
-5
-14
-1
28
18
-8
-8
-5
-24
-14
-24
6
1
18
-6
-25
-2
-22
-24
-4
0
6
-21
-21
15
-1
6
11
6
-8
-25
-10
-21
-22
-26
-26
11
-4
4
26
-1
-5
-9
-42
-6
-5
-29
12
32
-7
-28
-39
-15
-10
-29
-6
-1
-27
-40
20
0
-19
1
16
-1
2
1
-17
0
11
-25
5
3
-7
0
-6
0
-3
-8
11
11
8
0
16
0
-6
0
14
3
14
-8
1
0
17
-5
-7
9
2
-10
-16
0
-9
2
3
37
16
11
-26
0
-21
-7
-4
36
26
-5
2
0
4
-11
-11
23
25
14
-8
0
-1
2
-9
6
39
22
31
0
-20
10
-3
36
-1
-15
18
0
-23
-1
-6
-17
-15
-2
6
0
-17
21
1
-15
-14
-9
30
0
20
1
-29
-6
18
-9
50
0
7
14
20
-36
6
0
30
0
0
13
26
-37
26
13
24
0
18
11
-13
-14
4
11
59
0
-1
3
-1
-50
-13
20
42
0
3
9
10
-52
-10
-15
16
1
-19
-17
17
-15
-8
9
-17
1
9
46
7
-21
19
-7
-19
1
-4
8
23
-10
-10
6
-3
1
-3
-5
0
-33
-9
-1
-21
1
1
41
12
-30
29
26
1
1
-5
2
23
-10
8
-25
-11
1
-8
-3
5
-22
-10
-5
-21
1
8
49
5
-25
31
0
1
1
-2
10
11
-19
7
16
-5
0
-3
-14
2
11
2
17
-21
-5
-7
-15
5
-13
-6
14
-12
-5
-16
-10
-13
-7
-16
20
-7
18
-8
1
14
26
-1
-13
-27
6
-28
-9
14
17
-10
-9
-15
-24
-10
-18
-15
-13
-18
-9
97
29
-4
-14
-4
-12
-22
-14
37
22
-3
-8
-33
0
-14
14
-32
9
17
3
-24
-3
5
1
26
-1
-14
-13
-38
10
19
26
-15
3
-26
-7
-37
-13
-5
-12
-13
-2
-21
0
-12
21
12
-12
30
8
10
-8
-4
-14
40
19
-18
-1
-11
5
-35
4
16
30
-10
-2
-33
20
-11
-4
6
9
-1
-8
-13
26
18
-9
31
2
-37
-9
-28
8
-3
31
57
30
-12
12
-32
25
-19
-30
12
8
-31
-2
-7
-10
-2
36
-6
-7
-9
-15
-4
4
15
15
-6
22
27
-14
-11
4
15
24
-20
16
5
5
-10
-14
16
15
-20
-1
52
-9
5
3
-12
9
-12
37
65
3
26
8
-31
-9
-3
35
17
-22
-15
-1
0
-21
-20
-7
36
-18
16
15
14
-19
-17
0
13
12
44
-2
-14
18
-7
-6
10
0
-14
-7
17
-19
0
-52
-35
0
-13
2
10
-24
-9
-17
-3
0
-13
14
0
-36
3
-7
5
0
-35
19
-19
17
-13
-21
-17
0
-28
20
7
14
-29
-25
-40
0
-20
34
-6
-16
-20
-21
24
0
-19
14
-65
67
2
3
37
0
-27
16
-6
44
-21
19
19
0
15
11
17
17
-10
2
1
0
27
-7
-9
12
3
8
-8
0
-24
5
5
-11
11
-5
-37
0
-15
-12
9
4
3
-7
8
0
32
-6
-17
24
-2
-7
-20
0
-19
-7
-7
33
4
-5
-19
0
-39
-3
11
24
0
-17
-29
0
30
-21
-6
19
-10
2
-19
0
19
-11
-11
24
4
-22
-48
0
-18
-15
15
2
1
-30
6
-1
-13
2
-5
12
-4
10
-27
-1
2
5
-7
17
10
5
-35
0
1
15
-12
12
-1
-11
-21
0
2
4
0
-3
18
5
-11
0
-2
2
-24
17
21
17
3
0
-26
5
-9
17
14
-22
-36
-1
21
6
7
18
8
2
4
-1
11
17
10
7
14
10
47
-1
-21
21
11
-11
-5
-6
2
-17
-15
-17
-16
-27
6
10
-26
-33
-12
12
-32
-46
5
13
-12
-18
-11
-8
-18
-42
0
32
9
-5
22
-8
-15
-11
-23
-40
1
0
21
7
-35
-3
-4
-10
19
-10
8
6
-28
-2
-5
44
-7
8
1
-5
9
-23
-35
-15
-25
18
-6
2
2
-13
-39
-33
8
4
-12
12
-6
28
-17
-17
-3
-9
10
-9
-12
23
-23
0
-24
-7
21
0
7
-4
1
-9
-20
-15
-1
-31
40
19
9
8
3
-23
0
-16
2
-12
-25
31
14
7
7
-16
4
-36
9
21
17
24
-12
-10
26
-21
22
10
-40
-2
-3
-22
0
44
-10
13
-22
-12
-9
-4
9
-17
11
6
0
-1
-7
1
2
-24
-5
-12
2
-31
-11
0
4
30
-39
-18
64
-16
12
-2
-8
-25
-33
-5
41
12
21
-8
-9
-18
-20
11
3
5
10
-5
14
27
-18
13
32
-15
14
-5
29
-12
-40
-10
33
-14
8
-7
-5
-26
-32
46
-23
22
-3
-21
16
23
11
14
4
-8
4
-18
25
-9
4
34
-3
-11
-2
3
26
-12
9
54
17
0
-24
-11
2
24
1
-14
-8
0
-21
-1
14
-12
-3
-13
-18
0
-10
12
26
-20
15
-33
35
0
-4
22
1
20
-10
1
41
0
-32
6
9
-21
-17
-20
43
0
-5
1
7
14
-18
-15
34
0
-17
-5
-19
49
-6
-15
-7
0
-30
-8
-22
-6
-21
2
7
0
-2
-11
5
-4
-26
-25
-4
0
38
3
8
48
19
-1
-12
0
-17
-22
-3
24
0
-3
-29
0
-26
-3
-15
10
-11
-12
-29
0
20
20
0
31
39
-23
-29
0
-5
-16
10
-17
21
-34
-25
0
-17
-4
-3
3
13
-31
-34
0
-2
19
4
23
6
-6
-37
0
4
-6
16
-20
5
-17
-35
0
7
-13
-17
-20
10
-5
29
0
52
-13
-1
49
-7
-17
47
0
36
1
-43
26
-4
-15
42
0
14
-14
-45
10
-17
-3
-23
0
14
7
-17
11
5
27
-7
0
18
23
-7
-24
15
18
6
0
24
9
1
27
-5
18
-19
0
10
40
3
-13
22
14
-23
0
-14
44
5
-22
35
-7
-1
0
2
17
-3
-35
19
-43
-6
-17
4
-5
17
-25
-24
38
1
-28
11
-20
-18
-16
-15
-12
5
-20
-21
-2
0
27
-31
-20
-1
-17
-20
-12
-36
10
-25
-12
-4
-53
5
-8
-32
-15
-29
15
-7
-2
1
9
-26
21
1
-15
-4
4
6
-13
12
14
11
-9
12
-24
17
8
-40
8
-19
-17
4
12
6
-10
-11
-31
-3
-4
12
26
1
6
-1
16
-3
8
18
-2
2
6
5
-11
10
0
-3
-2
-10
8
-10
2
1
-20
12
8
-1
4
-16
10
1
-15
4
-22
9
30
-12
-10
-5
8
-4
-26
12
11
-33
13
15
12
10
19
15
19
7
22
0
-27
-12
16
21
-5
3
-9
15
-11
-7
-1
17
-12
-11
-10
-7
-19
3
35
5
-10
3
9
1
-13
-24
26
12
-11
13
13
-11
-17
-17
7
-11
7
2
0
1
9
3
18
-18
-7
-3
6
32
-5
-2
9
-10
-6
3
-16
11
-12
23
-1
-22
4
-7
-17
-28
-10
-11
12
-17
-18
-18
31
38
-4
-34
13
-12
-2
-19
6
31
-30
-19
17
-27
3
-27
-14
0
-5
-2
0
-3
-22
14
-11
-17
21
-16
0
2
-19
-6
-16
-3
10
22
0
3
-8
8
49
4
-9
-2
0
-21
-12
18
-61
-1
2
-21
0
2
-19
-10
-48
0
34
-11
0
10
-21
2
-19
2
-20
-14
0
-19
-13
17
-1
-1
18
5
0
-11
-24
15
-27
-10
29
-1
0
6
-18
27
-10
-9
-6
19
0
4
2
4
31
-6
-40
-15
0
24
-3
5
8
-7
-8
-4
0
11
-14
8
-14
-5
1
32
0
-21
2
12
3
-8
8
14
0
-16
3
6
9
-15
11
7
0
-24
4
-9
20
2
-3
21
-1
-3
-3
-17
15
-3
-12
17
0
-14
6
-7
19
-12
12
12
0
-21
7
-1
26
-3
9
38
0
18
-9
7
19
-3
0
27
0
19
-9
-6
23
5
-9
-13
0
7
-8
-14
-11
2
-12
-12
0
16
-14
-6
-21
-21
-15
-30
0
-1
-16
-11
-22
-9
-16
-24
0
3
4
-20
-22
-4
-27
-16
0
3
20
-13
2
-3
3
-28
0
3
7
-15
-14
3
-27
1
0
-4
7
-21
-23
9
-19
21
5
10
-11
-14
1
-17
0
20
4
26
-12
-13
7
1
2
8
-33
18
31
10
10
13
36
23
39
1
0
0
-20
-6
-11
-8
8
14
10
2
-6
-1
-3
-17
-18
7
18
3
-6
10
30
6
75
-1
-3
-7
4
-18
-17
-6
21
-1
11
10
-20
20
-17
-18
-16
14
14
-5
-32
16
26
-29
-1
5
1
-12
-25
-37
16
-23
25
-6
-4
16
-5
9
5
1
-24
-14
-3
39
-5
4
21
-37
18
-1
-6
-2
-29
-27
-23
-41
8
10
-16
17
-7
-12
3
-7
24
10
-12
12
17
-20
-10
-21
-15
-20
-7
-2
-16
-20
1
-16
4
-14
-7
26
-13
-12
-18
-26
21
-7
-12
-1
7
-15
17
-6
4
10
34
10
2
-9
-15
-4
15
-7
1
-24
27
-21
-12
-2
-4
-11
-3
-15
4
-25
8
-17
10
-3
14
7
6
-29
-7
7
-3
-19
7
-1
26
-41
-14
23
-9
-2
10
-3
10
-16
4
-5
2
7
4
-9
-26
-34
-7
27
-29
-7
5
0
14
-31
-9
2
-12
16
0
-6
-10
-26
11
-15
0
9
-7
-8
-11
-11
-8
-15
0
33
5
-19
23
-10
-31
-16
0
41
-2
4
0
-14
-8
1
0
-8
-7
-3
-6
3
-3
-35
0
3
7
-19
-12
-4
-26
-37
0
11
-15
-11
-9
-16
-1
-2
0
-7
-9
-11
-18
-4
10
-29
0
-4
-13
-17
-22
-16
-17
-22
1
-9
-27
-15
-43
-19
-6
-6
0
-18
1
-5
16
-6
18
7
0
-16
-1
-10
-19
-6
8
-27
0
-9
-6
-8
-13
1
6
-8
0
-3
-5
-15
-3
-6
6
-11
0
-37
-1
-16
-3
-11
2
-20
0
-20
4
5
-19
-2
-5
-33
0
-16
-26
-20
-21
-18
-10
0
0
-16
-22
-3
-14
-11
-19
-1
0
-34
-11
17
13
-8
0
21
0
6
-10
-9
0
-1
-15
15
0
6
12
-12
-6
16
8
-2
0
-2
-10
-25
-15
5
2
-7
0
-7
-13
4
-37
-21
-7
-6
0
-8
8
7
-40
5
-2
-12
0
-18
-1
-15
-14
0
-13
-8
0
-15
-5
-14
17
-19
-3
21
0
-9
22
-5
14
6
-12
42
0
-11
4
-17
-12
-16
-19
-23
-4
9
-19
-7
-17
-1
-36
-10
-7
4
8
-3
-22
30
-17
-17
-3
-2
-4
-7
-21
23
35
0
-12
8
-3
-7
-25
-34
-48
5
-11
14
-7
-16
-16
15
-23
6
-7
-10
-24
-23
0
5
5
-18
5
13
3
-22
1
-40
-30
-17
19
23
-5
-24
12
-15
-19
16
3
1
-15
-30
20
-11
2
-6
1
-13
-13
5
0
36
-26
7
9
8
-29
-1
-26
-6
-12
-14
3
51
-5
4
-7
12
-26
21
3
-1
-5
19
8
30
-34
10
3
0
-20
-13
18
-8
-29
1
-19
7
11
-14
4
-5
-28
21
-22
9
-5
29
27
3
1
11
-4
-4
6
-1
19
9
14
3
-17
-19
6
-10
-11
16
14
5
8
-6
2
14
11
7
7
15
15
-8
-5
4
-12
-9
10
-5
6
-5
-12
5
-24
-9
6
3
26
1
-11
5
26
-3
-7
17
8
-1
-7
-3
6
6
5
25
14
-8
-28
-6
-4
9
7
-9
16
3
-20
5
18
-6
-17
-3
17
-1
-1
-20
6
-20
-11
2
-2
4
-37
-15
-6
-3
-10
34
0
7
-4
-11
-33
-17
-8
5
0
7
-11
3
-15
-9
-10
-37
0
13
-9
27
14
4
-30
55
0
2
-4
-22
-25
-7
15
20
0
16
-16
-9
2
8
3
-7
0
2
-16
10
5
12
21
39
0
-26
-21
-8
-21
-7
41
1
0
-1
-20
-5
-26
-4
12
9
0
1
-18
11
-19
4
26
7
0
9
8
11
5
29
-15
-9
0
-4
1
26
-22
20
-32
30
0
-2
8
43
-23
17
-2
30
0
18
-2
1
-24
30
1
9
0
4
-2
0
-15
29
15
5
0
3
15
34
-22
21
45
28
0
12
2
18
-20
15
0
-6
0
4
7
12
5
25
15
-3
0
-17
36
22
0
19
53
18
0
-23
10
1
-20
-6
20
-4
0
-5
-5
14
3
1
15
27
0
4
6
-11
11
9
30
-6
0
-35
4
0
-2
-14
8
-8
0
-28
1
6
0
-11
28
0
0
-3
13
-10
0
4
34
-18
0
-4
2
9
21
-21
13
-23
0
-11
-8
4
2
-25
16
-30
0
3
13
-13
1
4
23
24
23
-10
-4
11
16
-4
-11
6
9
3
-18
29
-18
-24
29
8
3
12
-6
18
-14
2
26
-6
-20
-7
1
32
24
9
-2
3
-16
1
-21
-3
-9
-13
17
-9
-16
4
-1
0
-11
-13
6
-6
11
-31
17
26
-13
-9
-24
16
27
-11
-18
-10
-27
-7
-28
8
19
8
-1
-36
6
-12
-33
-27
-4
11
9
-9
-20
-13
-31
-17
-9
6
11
6
-9
-6
-13
-2
-26
4
-11
5
-15
-10
-20
-6
15
9
13
-6
3
-13
-7
12
1
-7
4
-4
23
19
-26
-30
-11
-11
-24
-1
-2
-3
-15
-14
4
-14
19
3
-7
5
3
-3
-3
-3
10
-1
-22
2
-8
0
-4
-14
-22
-22
-9
5
-10
10
-5
-18
-23
-12
-32
-8
-36
3
13
-1
-17
-16
16
-13
-22
-15
8
2
11
2
13
12
-36
1
14
6
32
3
-28
-1
31
-15
21
6
-6
-2
-15
2
-19
-4
21
21
37
-2
9
15
26
5
25
1
-19
-3
-29
1
-20
-17
6
-8
-32
-12
-3
-17
3
2
15
-2
15
-8
-4
22
-16
-23
0
14
-15
12
-1
-4
-41
-34
0
-7
2
-1
-27
11
-16
-43
0
5
6
3
-5
-2
-1
-27
0
-13
-7
-5
33
-6
-3
-19
0
-21
19
-9
10
-8
-13
17
0
3
21
6
8
-16
-9
0
0
-21
-14
0
-15
-12
-7
-3
0
3
-3
-9
-1
-18
-8
12
0
-16
-8
-13
-16
-34
2
2
0
-25
27
4
-2
-3
-4
-24
0
5
35
14
-19
12
-9
-36
0
-22
36
8
2
-3
3
35
0
-11
6
-11
5
-8
3
18
0
31
28
-9
7
10
7
-31
0
15
35
-16
-13
1
-8
-20
0
-20
1
-11
-45
-4
-17
-7
0
-2
12
-6
-4
16
4
-1
0
20
12
-3
-8
11
16
-43
0
4
24
-13
8
-3
-21
6
0
-1
33
-8
-19
17
-8
-3
0
-10
13
-9
-26
5
13
-5
1
4
-7
-11
-14
-16
0
11
1
-5
12
-17
-1
12
10
-29
0
-5
6
7
0
-2
33
23
1
-21
-5
-35
28
-21
37
-2
0
-8
10
-27
12
3
7
-2
0
4
-1
8
29
5
18
18
-3
-18
-7
-6
19
-4
28
30
3
-26
4
-8
6
4
13
18
-24
1
4
-25
-8
-11
-11
34
1
-20
-7
-2
12
-7
20
15
-12
-10
5
-5
14
1
18
6
-15
3
13
-8
12
-16
-9
4
-1
-5
5
-5
10
0
-2
-11
-1
10
9
-11
39
-2
-8
-4
-2
-18
27
-4
8
-9
-24
-31
-1
-11
-9
12
0
23
-12
-13
-11
-6
-7
23
-12
-2
-24
10
-7
-17
-13
-2
2
14
-20
-28
-39
6
3
-4
20
21
-7
7
-25
5
0
-4
-25
-21
-18
29
-16
-6
14
0
-1
0
-25
-5
-16
-1
-6
-7
21
12
-10
14
-17
18
-1
-13
10
-20
-17
38
12
-3
0
-6
1
-19
-13
-6
6
18
3
5
-3
-6
-24
-22
-16
3
28
24
31
27
-2
-13
-4
6
-3
14
30
14
-33
8
10
1
4
-6
12
17
-18
-4
6
-6
14
53
8
22
-35
-24
9
-14
-1
27
15
7
-37
50
-23
0
5
-2
9
-5
2
82
6
-6
7
50
-24
7
-8
38
-11
-18
12
27
-20
15
-1
-33
0
-9
-2
2
-13
5
2
-13
0
-4
-3
-9
33
3
3
0
0
5
-3
-16
51
1
4
-32
0
-14
1
1
-4
15
-5
-17
0
22
1
-4
-12
7
-6
-10
0
5
-4
-3
26
1
-19
-34
0
-17
7
25
-16
22
15
-24
0
-9
16
5
-15
9
-9
-25
0
-13
6
5
19
-2
1
-6
0
20
-4
-17
-3
-12
-8
-14
0
33
-9
-1
-1
-6
7
12
0
26
-8
5
-12
-5
43
-36
0
41
-22
9
-8
-11
-10
-5
0
27
-18
-11
0
-10
2
28
0
32
-11
0
2
0
28
-31
0
-1
1
22
6
-8
-30
-27
0
-23
1
15
2
-14
-8
9
0
-4
-4
10
34
-24
14
16
0
-32
6
9
9
-6
4
-8
1
-32
-3
-13
15
-8
11
-37
1
-24
5
-8
-28
-19
2
-1
0
-35
13
-16
35
10
1
-29
0
-17
9
-31
38
15
10
-31
1
-18
11
-23
-31
3
-36
16
0
-25
10
-9
31
8
20
-22
1
-16
11
-36
24
9
14
-8
1
-16
14
-24
48
7
-17
-12
14
-12
22
-7
8
2
18
15
20
10
1
3
3
7
19
-23
7
-10
-13
22
28
-3
10
-14
-10
-28
4
-10
-4
-15
-17
55
13
-9
-20
2
-12
-4
5
98
22
11
-35
-3
5
-11
-3
-26
-14
4
17
-4
-9
15
42
11
0
-5
13
-4
5
4
3
50
21
-1
-23
1
27
-23
24
-10
-18
-17
8
1
13
14
-21
4
-34
9
15
-12
6
-7
6
13
-24
21
22
-2
-3
-2
19
-10
-24
-17
10
20
7
-4
-2
-11
1
-1
16
-9
-8
23
-14
-2
20
-5
1
1
-12
15
-13
-1
-9
-17
-5
58
3
8
9
4
10
-7
-1
32
-30
11
3
9
-36
-6
7
40
-1
23
11
7
-2
-15
6
-19
-22
-2
-27
13
2
-28
22
3
2
-22
-13
27
9
-20
0
11
19
-6
7
30
-3
6
-5
2
-18
-19
8
7
-1
6
23
8
-12
-10
4
13
1
-14
10
-3
0
-7
7
-12
5
-3
-7
-22
-3
-21
-17
-6
9
1
12
-31
-23
-8
-9
-7
-8
-2
2
-28
8
-10
1
2
0
-12
-24
2
-4
6
-12
-18
0
-38
-32
-12
-16
-10
-1
-16
0
-23
-18
-27
-9
-15
5
-42
0
-29
-26
-5
-23
16
-21
-28
0
-39
-26
-12
0
-4
-24
16
0
-33
-14
-13
22
-3
-28
-37
0
-15
-22
5
12
4
-25
-59
0
-14
-12
-13
44
-7
-23
-4
0
-2
-2
-12
14
-16
-28
-33
0
-10
1
-7
-17
28
-33
1
0
-20
10
-14
21
20
-15
39
0
-17
31
38
30
0
-2
-9
0
0
14
3
4
15
-34
1
0
14
3
-1
3
20
-17
-6
0
-11
16
41
18
8
-3
-21
0
-15
55
-10
23
16
-20
17
0
-6
41
17
17
19
-50
18
0
-7
29
46
34
16
-23
-29
0
18
0
29
-13
7
-36
-22
0
18
-6
36
-9
-2
-17
18
0
-7
-14
20
6
0
-24
-23
0
4
9
13
-1
10
-38
-3
0
7
8
8
-2
7
-40
1
0
-6
5
24
-27
7
-44
-46
0
3
7
16
7
13
17
-40
0
8
18
17
5
6
-14
-34
0
-11
6
11
-15
14
33
18
32
-6
-2
-7
6
-9
18
-9
-6
12
3
-11
-3
-4
5
5
0
10
-6
-12
-15
-6
12
47
4
-7
-3
13
20
19
-15
7
0
7
-2
4
10
1
-16
-18
5
3
20
-20
-6
-19
-4
48
-7
6
5
8
-4
-10
-3
26
-3
-2
-1
-10
16
-20
15
4
4
-9
9
-18
3
-44
-13
-11
-21
2
5
-18
5
22
-11
6
-22
4
-8
-29
-6
-12
-4
-3
-18
10
-28
-46
4
-10
-7
-18
-6
-8
-9
7
-26
15
0
-22
-4
-18
-27
-12
-17
-28
-1
-15
-23
-13
-21
-16
-7
-11
-1
0
-1
0
-24
-24
-16
-7
32
-13
-1
-1
-19
-28
-30
-40
-17
9
-12
-12
5
-4
-5
-21
-8
-10
11
-12
12
-18
-31
32
7
-11
-21
27
-31
11
-25
24
1
-18
1
36
-29
1
-9
-12
7
18
8
20
5
-5
-9
29
18
0
-15
36
-17
14
-38
-5
27
-2
12
2
-13
3
-2
-19
4
-15
-15
-1
15
50
-6
21
6
13
-27
-10
-18
31
-36
-6
31
3
5
-30
-19
14
-38
-1
-27
16
0
-1
6
6
-20
15
0
13
0
-2
-4
10
5
14
9
-8
0
1
-23
7
14
8
27
4
0
-12
-4
-8
14
-10
22
3
0
-15
-17
-9
-14
-8
20
-22
0
7
-27
-9
11
-13
33
47
0
21
6
39
11
-1
-7
27
0
5
6
4
28
-16
-9
12
0
1
0
-24
-9
-25
8
7
0
-9
3
-8
3
-12
27
-7
0
9
2
-11
-3
-11
20
-25
0
10
19
-5
-10
7
16
-7
0
15
-8
-22
-34
1
15
-35
0
0
-6
-36
-31
-7
49
-18
0
-1
8
-25
-26
12
-3
-26
0
45
-6
-19
-30
-5
3
-10
0
11
-14
-19
-14
-20
15
5
0
9
0
-28
21
-1
-23
58
0
-2
24
-51
-16
-4
18
15
0
14
4
-3
-43
-3
11
-47
0
-2
14
-7
-11
1
16
16
-1
28
25
-27
8
13
-2
34
0
-12
8
8
-17
14
27
-22
0
-23
18
11
-22
21
22
-11
0
13
53
-9
0
19
-2
4
0
-12
32
2
-40
2
49
-15
0
-6
46
2
-28
2
24
21
-13
-10
-12
-31
8
13
6
34
-2
6
-5
2
13
16
23
22
-2
8
-2
27
13
5
13
-16
21
-8
-4
0
15
8
-14
-22
10
-6
-28
21
-13
10
-1
-7
-17
7
-2
26
-19
16
-9
-37
5
-22
-6
34
-2
-18
-24
-16
30
-15
-27
12
6
6
-10
0
11
-14
-4
28
-4
38
-18
-14
3
24
7
11
17
-21
-20
-3
-13
32
23
13
10
31
-6
-37
-3
15
-22
-19
14
-23
-17
13
-5
7
23
27
32
-7
15
-15
6
11
43
3
-6
15
23
9
3
-3
-11
-3
6
-24
-3
8
-2
4
8
-10
12
-23
-28
-23
-2
4
35
27
-7
38
-20
5
11
-13
-11
12
9
-17
-17
8
-13
1
-8
-12
-14
-5
-24
-12
9
10
4
-27
22
-4
-1
2
2
13
-9
-30
-4
-2
-32
13
15
12
-11
-24
-16
0
-19
3
8
4
-5
-31
14
-13
-29
3
-30
2
-14
-18
-7
-12
-8
12
1
0
-2
-22
11
-15
-14
21
-50
7
-1
-26
17
-8
-9
6
-30
14
3
-25
9
5
9
-7
0
2
-6
36
21
11
33
-13
0
-34
-9
20
-6
8
25
1
0
-39
-3
7
0
4
-19
-21
0
25
10
17
25
24
-34
-32
0
-1
-1
0
-15
17
-15
-24
0
-9
-1
5
-46
-5
-4
-37
0
-6
20
-7
16
-7
-15
-42
0
1
34
7
12
10
9
-19
0
-7
23
20
-17
0
8
-17
0
34
25
-23
25
22
31
-18
0
25
-6
-27
41
3
1
-4
0
9
-6
-12
-16
-3
1
1
0
8
2
-3
-17
20
-1
2
0
6
-12
2
17
-3
15
-24
0
-1
5
0
-23
-1
3
-13
0
3
12
27
15
24
20
-17
0
1
1
24
-15
-9
10
8
0
1
19
14
-14
-6
24
-11
0
-4
-13
2
-17
-16
-9
-4
0
13
-6
20
-8
-18
-22
10
0
10
-9
6
-16
-21
-5
-19
0
2
-6
-2
24
-17
-12
4
0
6
4
23
-16
-11
-2
3
0
-3
-4
17
-32
-19
-4
20
0
22
-18
8
-37
-19
10
21
0
15
1
21
-35
-12
0
-2
0
-7
0
13
-26
-21
4
-4
-12
-11
19
6
15
-12
-7
-11
11
-12
31
15
34
-16
-6
-9
29
16
-13
24
9
-16
1
5
-21
18
6
20
16
20
-7
10
3
4
18
21
36
-12
-9
8
7
3
4
33
22
0
-34
-12
-16
21
-5
-5
-2
24
24
10
4
-17
4
23
39
10
12
-1
-3
-19
-14
7
11
6
5
-8
31
-17
45
-30
13
-16
27
-7
20
5
40
-20
8
18
25
13
13
-25
19
-24
11
30
16
10
-15
-11
25
-23
34
6
-35
-6
0
-2
14
5
-2
-15
-16
-3
-11
-11
9
10
-10
1
-22
-28
-25
3
25
34
26
32
14
-2
-15
8
22
31
9
-7
4
-9
8
-6
6
35
-18
0
-7
13
-11
-5
-12
7
2
0
-7
17
0
-20
-6
-4
-15
-26
13
9
-4
-4
5
19
-3
1
5
-4
-8
6
18
12
-6
-1
21
14
3
-2
23
0
-21
-20
9
-10
-1
7
6
-9
-7
2
-7
9
-29
1
15
-5
-21
-9
12
29
-26
-17
18
-10
-14
-10
5
3
-17
-12
-6
8
-7
6
-7
6
0
1
18
6
-19
-23
21
-20
0
-30
0
-14
-9
-30
-10
12
0
-18
-4
-12
-6
-15
-22
23
0
-13
7
17
-26
-2
16
28
0
-24
-11
3
-5
-11
29
7
0
-30
-6
-4
-30
-7
-9
1
0
-20
13
19
-54
10
8
19
0
1
12
24
-16
5
13
11
0
2
6
12
-24
7
19
32
0
18
30
-9
11
48
-43
10
0
10
-21
-16
-45
5
-23
-17
0
15
-16
-6
-9
-1
6
18
0
19
43
-2
-37
48
-51
19
0
-9
-23
-11
8
-6
8
0
0
-20
-4
-4
41
-18
38
9
0
17
45
-18
-14
46
-22
2
0
-8
-17
4
-5
12
29
0
0
-2
3
-20
15
6
5
-17
0
-18
11
4
-46
-16
11
-3
0
1
19
4
-8
-9
32
-5
0
-14
31
12
-9
-3
-31
-21
0
-10
2
16
5
-4
33
-8
0
-14
11
5
-25
-4
18
-18
0
-16
24
-1
-14
5
-23
-23
0
5
3
0
-2
0
-12
-5
0
6
2
-7
-1
8
-10
-24
0
0
7
-25
25
6
-1
-19
-30
-1
9
4
34
-3
7
-13
7
-14
23
-14
-11
-24
6
-8
10
-16
2
-30
13
-18
8
-23
10
2
11
-11
3
-19
-17
-32
28
-25
19
1
12
-20
-26
-42
7
-22
-2
6
24
-4
2
-20
-5
-14
4
1
-2
-12
-7
-44
5
-20
3
20
5
-20
-29
-55
11
-29
8
3
24
-17
-19
-2
31
13
-22
1
-4
-3
-3
-4
13
10
1
16
5
3
8
-10
13
0
-11
35
-7
-1
-7
-23
26
7
-16
-14
-21
-12
14
-21
0
-1
-9
-6
-3
36
-9
-11
10
4
-2
31
-1
43
2
-10
-8
0
-5
-6
-14
-12
12
-10
-19
15
1
-5
-11
-6
-9
2
-5
6
4
-8
-4
21
-36
23
-1
-4
-5
32
2
-24
-14
41
3
10
-3
26
7
-9
-10
-30
-4
6
-15
2
-1
-13
-13
13
20
-23
-13
-30
-9
-19
-23
3
-9
-13
-32
-13
15
-15
10
-14
-27
-13
-14
27
1
-8
-35
33
27
20
-20
-8
-7
-26
-5
35
5
20
-20
-14
16
-14
-23
-7
-26
6
-3
-34
0
15
-41
-9
0
-8
-13
-7
19
3
9
-23
0
2
-18
7
2
4
13
-33
0
-5
6
13
21
11
6
31
0
7
-25
-10
45
-13
-6
-2
0
-3
-18
-6
-6
-7
-7
-30
0
11
12
1
1
10
-2
-8
0
24
-31
-34
12
-26
-27
-8
0
5
-18
-4
-2
-25
-11
-16
0
13
15
8
-20
-7
26
-26
0
-15
0
8
-9
-10
3
-31
0
-11
-1
24
-28
-8
18
-30
0
-2
-3
26
-20
-2
-24
-11
0
0
-8
4
-24
-11
18
-31
0
-7
-12
-3
-34
-15
-3
-18
0
-22
0
1
-26
-14
8
-14
0
11
-11
13
-18
-7
-8
-23
0
18
-14
5
-29
-17
-13
-4
0
-5
-21
-5
-9
-23
-9
18
0
4
1
14
12
-7
0
39
0
15
2
16
15
-10
-16
-7
0
19
-2
-6
11
-13
-24
-5
0
-25
10
-9
-1
-2
3
-20
0
1
10
10
-10
-4
-11
-6
0
1
4
2
-9
-7
-18
27
0
-16
-16
13
-13
-20
14
9
0
-29
4
0
17
-12
14
-16
0
-12
1
8
10
-19
5
-16
4
3
2
1
20
34
-21
1
-13
-9
-8
11
11
8
-2
12
-4
-6
-11
3
5
-3
-3
-5
-9
-23
-20
-23
22
32
-3
-1
11
-12
-8
-10
-12
19
18
-43
-5
-7
4
-9
17
-4
10
-22
0
-16
-25
15
25
12
1
-19
20
2
1
2
13
-4
-39
7
16
3
6
-12
-4
26
-39
-29
-7
-31
12
12
7
1
-5
-6
6
-25
-13
27
-27
15
12
-12
2
-20
-25
39
-27
15
10
33
3
-30
-5
-12
-23
12
5
10
-7
-20
-7
7
-33
-5
23
13
-13
-19
-30
15
-17
0
29
18
-24
18
-6
-12
-19
2
14
-7
-35
9
-5
-14
-36
-32
-20
-7
-13
-6
-10
-21
-27
-4
27
-18
5
0
-27
2
7
-31
-30
-25
16
7
-13
5
12
7
-35
-51
14
-8
-12
-19
4
5
-35
20
-1
-16
-15
-18
-7
-16
-22
-7
19
-21
-18
-4
-6
3
-32
-36
24
-19
-12
7
21
-1
-26
40
-27
-8
-7
1
-29
-13
28
75
-23
23
-19
-6
-36
1
-7
45
8
18
-9
3
-13
-5
-24
-39
0
-7
-23
-32
51
-12
-20
-14
0
-9
-15
-23
-19
-19
-10
-23
0
-21
-4
-21
9
-16
9
5
0
-6
-6
-24
14
-15
-8
-14
0
-12
-6
-17
2
-16
-15
-21
0
-28
3
-24
13
-11
-19
12
0
-7
9
0
3
-27
3
-21
0
-19
0
11
-9
-28
29
25
0
-28
0
-14
47
-27
-7
-9
0
15
-9
-1
-4
14
-22
-33
0
8
-1
13
30
15
-19
-64
0
-21
15
22
-10
23
-21
42
0
10
-10
-37
37
14
8
-3
0
13
-6
-29
38
26
-13
-51
0
-18
1
7
17
46
8
36
0
27
-15
-38
40
3
4
6
0
15
-12
-22
-11
-1
4
30
0
10
-5
9
15
15
-3
11
0
-20
0
-3
23
-15
-40
22
0
-19
3
-4
14
-16
-40
24
0
-20
1
-17
0
-15
-51
11
0
-5
6
-20
45
8
-4
23
0
-7
6
-14
39
4
-18
43
0
-4
15
-28
-13
16
-13
-32
0
0
-10
-17
-16
-3
-14
22
0
-16
-9
-30
-4
-14
5
64
0
-20
8
-25
-15
-9
3
-16
-23
10
8
13
-1
-15
-11
-12
-28
13
7
13
-9
25
6
7
-19
1
-36
9
-22
9
26
1
-2
-10
-3
3
-7
20
-23
5
-5
13
-11
-1
-21
32
-24
5
3
17
-18
-12
-27
-5
6
-14
1
-7
-27
-2
-18
-12
-16
-1
10
21
-35
0
-17
23
-1
-11
19
13
-7
-18
-18
-15
2
-2
-8
-3
-20
-19
2
-10
-17
-4
-4
11
-6
-4
-14
-17
13
-5
-22
-8
4
-11
-8
-30
-19
-3
22
1
-7
-19
-8
-1
-6
8
3
-6
-14
-10
-20
-19
-36
21
-49
-4
-6
-7
11
-10
4
-18
29
14
6
-5
-10
-3
5
6
1
4
-3
-17
-18
19
-8
-6
-9
2
2
-27
6
42
-2
-10
-26
13
17
4
-13
0
-7
-15
-21
-4
35
-16
-1
-9
-3
-17
-26
-11
33
-11
16
9
12
-13
-14
24
13
-5
-6
1
18
-6
-17
-7
21
-30
-4
-11
8
-11
-13
-1
22
1
13
-17
8
-2
-7
17
4
-27
-9
13
1
-6
3
-13
-2
-23
1
-7
-4
-10
-17
-13
-5
-12
-1
-19
-10
27
0
-21
17
-2
-9
-33
8
-13
0
-18
6
-27
1
-20
-4
-23
0
8
10
-11
-11
-6
24
18
0
-21
11
-2
13
-11
14
-7
0
-15
6
0
-17
1
12
-17
0
9
25
-8
3
4
4
15
-1
0
-27
-18
17
-41
-10
-36
0
9
-21
4
-12
-31
-15
-23
0
14
-5
-21
-12
-25
-3
3
0
-3
3
15
-7
4
18
-13
0
-26
1
22
31
-9
0
-26
0
-12
-4
15
-2
-15
-25
-26
0
8
-1
10
-10
11
19
-7
0
0
-3
-6
13
-4
-22
-22
0
17
-4
-13
10
-8
-58
-22
0
-3
-10
8
6
7
22
-9
0
5
-6
-5
-38
0
-16
-16
0
-20
5
-10
-17
1
-19
13
0
-4
5
10
-46
-12
-29
-27
0
15
11
11
-13
25
-21
-42
0
12
-10
-14
7
20
-5
18
0
-16
-17
12
-16
-19
-3
-13
0
3
-4
2
0
-2
11
7
0
10
-9
-13
-21
11
33
-12
0
-26
-23
8
-24
-30
8
29
0
-14
-20
5
9
-16
12
-19
0
-2
-10
-22
16
-10
6
0
9
-4
-24
-13
38
-21
3
23
-4
2
-21
6
33
-20
22
47
-2
10
-4
14
-5
-30
-2
-7
23
-10
-20
-24
12
31
-4
-5
9
-8
-38
10
20
-7
18
22
-14
8
-19
2
7
-15
28
32
7
-7
-8
-27
-2
-9
-4
16
20
-9
-36
2
-6
-6
-32
-13
-16
14
-19
19
20
4
18
-18
40
-25
-18
19
1
31
-31
-1
7
-22
0
1
-7
28
-4
18
-2
-5
10
10
-16
13
-6
13
30
-25
-15
-4
-6
16
1
6
31
-16
-4
11
-11
12
-14
64
16
-7
30
-14
-12
24
13
54
14
-2
-23
14
-1
19
-30
-12
10
1
-8
44
6
8
-37
38
-7
-3
11
37
-9
9
-19
21
-2
35
4
7
-20
6
27
77
-3
-1
-6
-13
0
-23
-26
29
0
1
-3
-17
-4
11
-17
40
-19
27
-11
-20
-55
5
-7
35
1
-2
-9
-30
-21
1
-18
-9
1
-14
-16
-11
-8
-9
-5
18
-16
19
-14
-29
-23
1
20
-1
0
13
-10
-9
-41
-19
-3
-12
-20
8
-2
-8
11
0
-9
-34
0
-30
-3
7
3
-19
2
-26
0
-15
-3
-12
5
-4
-29
-4
0
10
17
-23
25
6
-14
-26
0
-24
18
-10
-2
-22
10
-48
0
-25
32
6
-21
-9
-23
-30
0
-3
35
0
-26
3
-41
39
0
-18
9
-25
-14
-6
-8
7
0
-23
18
-11
-14
-10
-5
-15
0
-5
5
0
-30
-4
-26
31
0
15
1
4
-12
20
11
8
0
11
11
-8
15
15
33
-23
0
-4
12
9
5
-11
7
26
0
-7
-20
21
13
20
-8
35
0
-5
-8
19
-1
25
22
19
0
24
-4
8
6
19
6
-21
0
6
-6
27
13
12
-40
26
0
-8
5
22
15
8
-8
5
0
4
12
5
-14
-4
-7
11
0
-6
-10
4
3
1
19
15
0
7
-13
16
27
-13
-12
-12
0
16
-11
-9
-2
-7
-3
-30
0
25
3
-27
42
-2
0
13
0
-3
6
-12
29
-10
-10
-16
0
-3
1
-11
-18
-12
-10
-33
0
13
-10
12
-24
-12
-2
-18
0
3
2
12
-9
-12
-13
-23
0
20
15
-15
0
-11
2
-8
8
6
7
16
-13
-9
2
-23
7
4
-2
-11
-4
-33
28
4
-12
6
-3
18
22
-28
-14
7
-8
9
-17
5
20
-19
-6
-17
-25
-2
-30
-7
22
15
2
-1
-28
11
-6
22
-17
-11
18
7
45
-19
-14
-36
19
3
-39
-21
-31
-6
-14
-25
11
-1
3
-10
-25
-14
-21
-17
14
28
-6
-25
-18
24
8
-5
11
7
2
-30
-21
23
-1
31
5
14
28
-46
-4
0
-3
-17
5
-27
2
-33
-24
25
-16
10
39
2
12
-33
-18
15
-10
22
19
4
-5
-42
23
13
-13
-6
13
-10
3
-6
-16
0
-6
5
3
2
54
7
-7
-13
-8
17
-20
9
28
36
26
-4
-6
17
-17
-6
1
9
-17
30
7
-12
15
19
-2
14
16
25
-11
8
19
17
0
23
8
-18
8
-8
-8
-12
-31
-5
0
18
12
7
-17
13
34
9
17
19
6
11
-11
1
-2
15
32
10
8
27
-4
-5
-21
6
4
21
14
34
0
24
22
7
22
-5
15
-5
-25
13
16
-12
32
10
-21
28
-4
15
3
54
0
-19
1
-35
-3
-37
-2
-14
0
-20
13
-27
-22
-7
39
-32
0
12
-11
-15
-18
-24
36
6
0
-15
-7
-28
0
-8
16
18
0
-14
2
-2
-2
8
22
4
0
-12
-12
-4
9
-9
13
34
0
-28
-3
-14
-22
-15
-1
59
1
-15
20
0
-15
-2
15
39
0
-22
6
-7
-1
-23
30
-19
0
-15
8
-3
18
-11
-6
-15
0
-13
16
1
30
-5
6
-14
0
-6
19
-1
-31
4
-18
-1
0
0
-4
6
37
11
-15
9
0
-26
1
12
8
4
1
-30
0
-14
6
-7
5
3
-28
-8
0
16
-3
24
25
0
-24
-13
0
1
12
33
-13
1
21
25
0
-9
23
12
-9
-8
-15
-17
0
24
1
-10
-43
4
-13
-35
0
24
-13
-17
43
-4
-6
4
0
24
-19
-19
29
-3
3
-5
0
-11
8
16
-26
-3
23
-11
0
15
-13
9
44
-6
-5
-20
0
45
-6
-10
41
3
-6
13
0
1
25
29
10
1
37
-11
0
10
13
25
-3
-1
2
-40
0
51
5
-7
42
9
-20
-50
-1
-14
14
24
2
-6
-30
-10
5
-1
-4
-2
-3
-14
0
-10
6
1
-6
6
-3
-14
-1
-43
-19
17
33
12
-9
-22
0
-33
-5
13
-11
11
13
-17
12
-31
-2
13
-26
27
-14
-5
-14
19
12
22
19
12
-26
7
2
11
26
13
3
19
-5
-28
31
-6
5
6
7
21
-36
-13
5
24
0
-7
-2
-11
-31
12
-13
-27
0
-21
9
-6
-26
22
-6
-28
0
15
-16
-7
-11
6
-6
6
0
27
2
-11
-4
2
-4
-37
0
4
18
9
-7
19
13
-28
0
13
8
-15
-22
4
-20
-6
0
19
9
-23
8
-1
-9
-25
0
26
17
22
17
19
2
-3
0
18
21
22
10
8
0
12
-4
5
21
10
-28
0
28
2
9
-21
17
2
-21
-6
22
-3
14
2
20
10
5
-15
9
4
0
-2
-11
0
-27
-6
-24
-9
-14
-8
-1
13
-18
-20
-19
1
5
-12
5
24
-9
-19
2
12
-37
4
27
-12
-8
2
-29
15
-2
12
5
-18
10
-21
16
20
3
-4
5
19
-4
-13
18
37
0
-17
-25
47
-8
-20
16
45
0
-10
-6
28
-1
-2
20
18
0
-10
-8
-7
11
-8
-3
3
0
-13
10
38
-18
-17
11
-10
0
3
5
28
-19
-3
-6
12
0
-2
-4
28
19
-1
-5
44
0
-15
14
32
-54
-12
-23
3
0
-28
15
27
-31
5
-15
-2
0
-6
-2
23
-11
8
-16
17
-2
-2
-16
11
2
-7
3
7
24
-8
-13
21
-5
12
-6
27
10
-4
15
-1
-17
-29
-12
-18
5
7
25
-20
-26
-5
-30
17
6
-3
31
-15
-28
-27
-29
41
-6
-10
34
-29
-18
1
-10
9
-29
9
-2
41
-41
-41
-8
31
-42
6
1
35
-40
-9
-14
47
-40
-3
38
10
6
-22
-11
-12
10
30
12
14
1
6
-5
9
-7
-1
40
-24
8
-20
-11
36
-25
12
0
14
-16
-31
-32
7
-33
12
-36
16
2
10
-41
33
-21
10
27
26
51
-22
-20
12
-12
-9
6
7
22
10
-3
9
-6
14
-20
7
48
-2
-23
34
2
-2
-3
-20
-25
38
-18
7
-9
16
20
27
26
-7
-19
-5
0
19
2
-5
1
13
12
-1
-14
19
4
27
9
-8
4
-11
-8
-4
-19
-18
-10
-22
-3
1
19
9
-5
37
32
37
-2
-20
-13
5
5
10
45
8
-15
-19
-13
-7
-4
-18
-17
-43
-6
-22
27
1
-9
14
-17
9
-25
-19
1
-2
-1
40
20
-12
-11
7
23
-11
-29
8
-22
-53
-24
10
38
-9
-7
-2
9
-5
-9
-2
18
-3
3
14
21
-17
-11
-19
3
10
-8
26
4
9
-5
-3
28
6
-39
-15
-13
1
-10
-17
27
11
-23
-25
-3
4
7
16
17
18
-14
-3
6
24
11
-10
8
6
3
-25
34
-10
11
1
-6
9
8
-28
6
21
15
23
22
28
9
-22
-14
44
25
5
1
11
-4
17
4
50
-2
11
-2
0
18
-11
-6
43
-25
8
1
11
9
-27
20
27
-12
-1
-31
-13
42
18
3
25
-2
23
-20
3
19
-3
19
1
-25
9
-4
13
43
-19
19
11
-6
-25
5
-18
27
-13
17
0
20
21
-37
-6
-2
0
-9
4
17
-31
-8
1
-22
-2
4
2
15
-27
7
8
38
-3
21
1
16
-7
10
1
46
0
9
-1
17
-35
-1
13
9
5
14
4
22
-10
-2
17
56
3
-14
-7
31
-18
11
-3
25
6
-17
1
11
-37
-5
-3
47
-5
-1
-5
18
-24
11
6
29
13
-31
-12
10
-26
1
8
-11
28
-25
1
4
-44
-38
30
6
2
-9
-14
5
37
4
-2
4
-15
10
1
0
30
-27
52
-5
-3
5
-10
-2
38
-35
20
45
27
8
-9
-3
-8
6
5
-15
-17
9
-26
19
8
-21
32
4
-26
-29
-29
6
-14
-2
-13
-10
26
-7
1
-4
11
25
21
-20
-13
-23
-23
23
27
11
33
26
-18
1
-28
-15
-18
-3
-27
35
-12
13
-6
-48
62
-7
8
-18
18
-10
-2
-22
42
-3
29
27
-36
1
10
12
24
7
-11
18
-6
-30
-11
-8
49
15
-16
-18
-3
43
39
7
12
-3
36
-2
-30
-20
-27
-1
56
0
-20
7
-16
-23
-32
14
-4
13
3
-31
19
39
9
-18
12
21
38
6
-39
57
2
-15
0
6
10
8
-37
-23
-42
9
49
0
-25
-11
8
-47
-23
5
35
0
-12
8
13
3
-13
2
-9
11
-28
9
10
-45
-18
4
17
21
-18
-16
2
-32
-10
37
-10
-11
-8
7
4
-6
-4
29
-32
2
-7
-11
48
-8
-1
2
-3
19
0
-33
-24
-31
-29
1
-22
-12
23
22
13
13
-8
44
-27
12
13
-7
27
-38
20
51
-7
26
-10
-25
-6
13
13
16
23
22
-15
-30
-5
3
-14
7
15
22
2
7
-23
-3
-10
-1
-18
34
3
-19
-7
-7
-11
4
-7
19
-11
-2
-7
4
-13
-2
-18
1
-29
-11
-29
13
14
-23
16
9
-39
-9
-21
-1
-17
19
6
24
-34
-20
1
-14
-12
6
8
36
-38
20
-28
-5
-17
-2
-5
-5
-5
59
-28
4
28
7
6
1
2
44
6
5
25
9
14
-9
-25
-6
-6
-1
-11
-5
-24
41
-14
11
-28
5
8
10
19
4
-14
-8
18
-2
-24
8
15
13
-31
-5
-6
15
-13
16
1
15
10
4
-5
-1
-18
6
16
13
2
35
33
-31
-38
-14
35
-18
3
-17
2
2
-37
4
-34
-34
-20
-37
17
5
-29
-15
-31
14
-26
-22
4
13
-6
-14
-15
-11
-25
-22
-4
-20
-21
-15
-12
-23
-1
-10
20
5
-45
19
-32
26
-3
-8
-7
24
-7
18
-5
-3
-9
-6
-7
-32
-37
23
-23
-16
-11
31
12
26
-20
17
-6
-17
-7
-8
6
-10
-5
19
-5
-33
-5
-17
-26
2
-6
9
16
-12
-15
21
29
10
-2
-2
10
-8
-6
-29
4
-6
31
-6
9
-49
-15
2
-14
-14
-8
-8
1
-37
-13
25
13
-17
3
-37
7
-35
10
16
12
24
-14
-7
1
-24
-26
-9
11
-17
12
-9
14
-49
-24
-16
60
44
42
3
29
-20
10
17
63
-4
48
0
6
-16
-13
7
5
1
55
-16
0
-36
-9
-3
-10
8
-20
9
-29
-14
0
-5
-5
-24
-28
1
-11
-22
8
6
6
-26
-36
10
-35
-6
6
7
-7
-15
-14
-4
-20
-10
8
-2
-3
-10
12
-8
-2
-16
10
18
16
-9
9
-2
-33
8
8
8
4
18
-17
-7
-25
5
-9
14
-18
12
15
-8
-2
1
-14
2
11
-20
23
-3
16
11
2
11
-9
-14
-21
-18
-4
7
2
18
10
1
-19
-6
8
15
-3
-6
-11
-29
3
-7
-27
18
-24
27
13
-27
-3
-10
-3
12
-2
14
-13
19
-8
7
37
16
-7
3
-1
-1
-22
-5
-17
-17
-46
-25
25
-9
-21
14
-36
-4
-24
21
49
31
-7
19
-31
5
-32
19
15
29
-11
12
-12
-30
23
5
4
-14
14
9
-1
-2
16
-16
-14
1
5
15
-5
-10
-6
10
-5
-17
11
-2
14
-25
-28
24
-19
-21
65
13
34
-20
5
15
-10
-19
44
61
12
-25
-8
-4
-10
11
14
14
1
15
-47
-39
-27
4
60
-39
14
-1
-17
-10
-2
10
6
24
-4
-17
-22
-9
-15
16
30
27
-2
-14
10
2
-33
21
-17
-5
-12
-19
5
-17
-30
6
-23
-8
-37
4
-1
18
-9
-5
-27
-18
20
-11
12
8
-20
0
-9
21
11
-16
16
-11
-24
-29
-8
12
4
-10
8
-11
-9
-12
-7
12
-5
7
37
-3
-9
15
-11
13
22
-16
4
27
-23
24
-8
9
-21
9
-3
-34
3
6
-6
8
-16
-6
9
-1
21
24
-19
9
-30
-29
11
-20
4
16
-7
3
8
-10
6
5
13
13
29
11
-5
-1
0
-26
-12
20
-11
29
-17
2
3
-12
-18
-14
-13
1
7
39
-1
-52
-7
9
-19
-10
11
-3
10
4
-6
7
-18
37
31
36
17
-38
14
12
-24
2
40
33
2
-13
2
-6
-24
-32
13
-13
7
7
-8
18
-7
-7
-2
-8
6
-13
-16
39
0
-2
-35
-3
3
-20
-7
9
-18
-27
-28
14
-12
-3
36
13
1
-19
-67
-2
-8
10
6
27
4
-19
-20
1
-2
8
13
-14
7
-30
-18
-30
8
3
12
68
6
-12
-56
-35
3
-2
38
45
13
-16
-7
-31
-9
11
36
9
38
-17
-18
-16
-13
-1
-29
6
-35
-24
-12
-9
5
0
30
15
-41
-25
0
-3
-9
40
-27
1
-18
1
-10
-12
-4
32
15
-8
3
-32
-1
-20
-11
-16
-7
-1
-36
-10
-9
-33
-24
-12
-19
9
-4
14
-8
-7
3
34
34
-19
-8
0
-12
-2
27
25
-4
-23
-49
-18
-25
-6
14
8
11
-22
-58
-10
-26
19
9
20
-3
45
-16
16
-25
-1
-3
7
-4
-2
-13
18
-14
4
-15
8
-18
17
-2
15
-27
23
13
24
2
-18
16
10
-19
19
-7
28
-16
-22
22
-1
7
18
-2
-2
16
-7
-5
5
-18
5
8
9
-30
-38
-7
-4
18
5
2
39
-4
-6
35
-24
-2
2
27
7
-13
1
-15
-19
-15
38
-1
1
-31
-33
-2
5
-12
2
-15
-19
-18
-11
-18
-10
-23
-9
10
-3
-2
-6
-11
-3
25
6
15
-15
22
-31
13
8
22
-5
24
0
3
-31
-12
-9
-16
14
23
-8
8
-25
-24
-25
-15
-22
-8
8
-5
-6
-9
-10
2
-6
-4
11
-12
-34
6
-6
5
-8
4
-1
3
-3
20
-3
19
-21
-2
17
-5
22
-1
0
-15
-17
-17
31
6
47
6
7
-43
-41
-11
33
21
13
12
21
15
25
-4
-17
-17
-12
-5
-9
17
34
-14
-34
-12
-1
-9
-13
-18
3
6
15
15
24
17
-17
25
-20
-5
2
-3
-34
31
8
43
36
7
30
9
-13
-14
20
11
7
11
-6
28
-18
13
12
-12
16
3
-19
8
15
12
25
14
2
-11
-10
-6
-23
-18
10
32
13
-5
-21
-14
-21
-12
-16
-20
-26
6
40
9
12
5
4
-34
-26
-11
21
20
-19
15
10
-27
5
-11
-9
4
-16
-7
-16
10
10
0
16
0
-6
-28
8
-2
15
-15
5
-1
-18
-4
6
-21
6
2
-24
13
-18
-4
-3
5
13
10
36
-24
-39
-14
13
-35
-3
-12
18
2
13
-27
7
-53
8
-4
4
0
38
31
30
10
-5
13
43
2
3
11
3
-46
-4
-8
20
-14
-37
15
31
-50
4
-18
7
-4
13
-6
-5
-18
-11
16
20
8
19
6
-15
-9
-16
17
-6
8
-10
12
23
-13
-28
-4
2
25
22
12
14
-8
1
-14
13
-9
-8
-26
1
-3
-24
40
27
-16
-14
-13
18
6
-18
15
-13
-8
-13
-20
15
7
-17
-9
33
48
9
-44
12
-3
6
34
26
41
20
-36
-5
-15
-16
-9
-10
62
-30
-49
-10
5
-6
-9
-8
10
-25
-21
-2
-32
9
31
13
13
11
-53
-4
-27
-26
-17
-11
40
-1
-53
-6
-2
-27
11
19
14
-4
-17
14
35
-26
12
19
-3
-21
-33
1
62
-37
-12
19
-49
24
-11
-9
0
-34
17
-32
-15
-7
-18
-14
20
-37
12
6
-15
14
-51
-6
29
-36
7
7
7
-30
-35
9
0
8
6
-3
3
6
-34
16
24
-34
-7
7
-12
-6
-10
31
10
-34
-26
15
-10
-34
26
-3
-1
-14
-3
-40
-22
-3
-6
9
-21
19
-10
0
-58
-9
-8
13
-1
9
5
32
-50
4
4
6
24
-10
3
-19
-4
-13
-5
-5
-15
-21
-3
-3
-31
6
14
-11
0
-24
1
28
-16
6
28
4
23
-30
-34
10
-10
58
50
15
16
-27
-10
-14
-6
11
28
3
16
-15
6
50
-3
21
5
7
-32
17
2
-17
-18
20
-18
-8
2
6
3
-3
-8
13
-18
-4
21
-1
-1
-18
-39
7
1
16
15
-33
8
-7
-7
-15
-15
-9
25
-4
11
-10
-5
-27
-17
-9
-14
-5
12
-38
-44
-17
-4
-15
4
-3
8
-8
-23
1
-8
-8
26
1
-3
13
6
-17
-26
-5
20
14
-28
-31
-53
-24
-25
-24
11
-9
29
-1
5
13
0
-13
8
-6
7
-22
25
-16
0
-4
0
-16
22
13
53
-5
3
-4
13
-22
30
-26
18
-19
16
12
3
3
18
1
27
-24
24
13
-18
-2
6
19
63
-38
7
17
25
-24
33
-12
22
-16
17
15
-2
-12
10
-36
24
-4
-6
6
1
10
-1
-5
38
-1
6
1
-29
-9
25
47
12
2
20
5
-20
-2
8
38
-18
-6
16
-14
-32
4
8
12
-2
-37
9
-6
-21
-7
27
18
11
-7
48
-10
29
-29
8
28
80
15
30
-5
26
-36
-6
35
35
-4
15
-19
-16
-6
8
-7
40
-7
34
19
45
-10
-7
16
-18
-22
-11
9
59
10
-14
15
3
-25
-7
-28
-11
-4
-12
-18
-15
-6
22
14
-19
2
-10
-23
9
-10
-10
14
5
5
-26
25
-43
22
-39
9
-23
-5
0
-14
7
-13
15
-21
8
28
-20
-26
-31
4
9
-2
-3
11
1
25
-30
33
-48
-29
-28
-30
27
7
14
12
48
-13
-41
-10
21
-9
28
5
-7
6
-4
16
20
5
-1
-13
-7
16
31
6
0
-17
-30
5
-24
-21
10
17
-19
-8
-2
21
-11
-27
-11
11
-4
-51
5
20
-18
21
-26
11
3
-42
-22
-17
-38
-31
-8
-5
-23
-28
7
-20
-9
-19
17
6
-24
10
9
13
11
9
3
-19
-3
-53
17
15
-3
-20
5
-20
-11
-12
-11
-29
7
-21
5
-20
-24
25
-30
-17
-17
-22
-19
12
23
-35
-9
-3
-6
2
-28
17
23
-7
-13
2
-4
5
7
35
21
11
3
-12
-4
14
5
6
15
-12
-13
5
-6
9
2
-3
18
-14
-31
3
-3
7
25
2
8
-3
-7
-16
-9
24
-16
13
-11
12
-3
-6
-26
7
14
-6
-1
2
-15
0
-6
8
16
-8
-6
2
-5
20
-4
16
16
-1
10
42
-30
44
-4
22
-15
-4
-13
-17
-9
7
4
31
-3
-5
-5
-20
10
41
39
38
10
-27
-6
11
-24
-4
-1
3
-15
-27
1
40
-4
19
-8
8
7
4
7
17
-15
-5
7
11
6
-31
-12
26
-3
-13
-22
-4
-20
-51
-16
-23
0
18
0
18
-9
-43
-5
44
-5
30
5
3
-14
-18
10
33
-15
-12
-12
-5
3
10
5
-17
-37
-16
-2
2
0
-1
13
16
-36
-14
8
-4
-10
-35
35
10
-11
-6
-18
-16
-7
-26
36
3
-30
1
-2
2
26
-32
20
0
-27
-14
25
19
-10
-43
18
37
-13
23
-14
12
18
-25
20
-1
-50
21
40
19
23
-15
13
-27
-29
-5
22
22
7
0
0
20
5
34
-12
14
-4
19
-2
-3
-19
26
-3
13
-7
19
-20
-30
-7
43
14
-13
40
-33
9
27
1
45
-14
11
23
2
16
-3
-25
-14
-19
4
-18
23
4
10
-38
40
-22
6
-16
-31
20
16
-29
11
-9
17
-22
-4
14
13
-31
-14
20
19
-27
14
10
-8
13
25
-2
20
16
26
1
-39
-13
16
-20
-6
-42
14
-16
-27
-34
-20
-31
4
-26
24
13
5
6
-10
-21
15
-31
31
25
-29
-38
32
17
26
-4
30
-1
2
-6
9
-26
36
-15
-9
12
14
-11
12
-31
0
15
-14
9
-14
-39
13
28
13
-17
-18
-9
-1
-26
11
-29
6
17
6
24
1
-19
-25
-23
21
-33
8
13
-23
-15
38
51
5
-8
2
9
4
-4
-5
-6
9
-17
-1
-1
6
-22
-7
-7
27
-56
25
9
-15
-14
-32
21
8
-28
14
4
5
-13
-28
3
-4
-16
-4
-4
2
-46
-24
-33
40
-9
14
17
-7
7
-16
3
-8
-17
-2
5
-4
9
-18
17
16
0
-20
32
16
-3
-4
27
3
40
1
-14
-9
-19
8
4
24
45
0
-15
-45
-6
22
19
30
33
28
-2
-14
-11
0
13
14
24
26
-23
-6
-8
5
28
23
48
8
-12
-36
4
-1
23
6
17
-6
2
-17
11
3
27
-4
28
-25
-13
1
27
-15
-20
8
24
-10
-6
-7
47
-28
-23
-11
10
-8
11
-1
32
-34
-9
-7
-21
-4
-10
-1
-4
-24
49
-15
-18
-36
-10
-11
8
9
37
-2
-10
-14
10
38
8
27
11
14
6
7
-17
-22
9
14
19
-21
18
-11
-17
-26
0
10
0
4
4
-22
10
-23
20
15
-6
-5
-8
19
-12
31
18
-5
6
-15
-16
-9
-1
19
-2
-30
7
-13
-26
-31
-2
-24
23
17
8
-8
-23
-20
-30
51
-9
-8
33
18
-2
10
-16
-22
-12
6
-4
10
-15
-14
-7
-10
-6
-10
0
2
-4
-12
-1
12
-14
-14
-23
6
-2
2
6
-6
-14
-10
-13
12
-3
-2
-1
-38
11
-1
7
2
-6
-29
7
7
-30
-21
-9
39
-30
-11
9
12
-11
0
-12
8
-19
-4
7
-6
22
19
-6
2
13
3
-2
7
-6
27
8
-28
12
-13
-10
11
22
-10
5
-31
4
0
-14
29
1
14
19
-20
-7
15
26
24
61
-21
-23
-30
-19
-15
2
25
52
-28
-6
-24
-3
-25
3
-21
41
-31
-11
14
-30
-48
-1
-1
45
35
14
-23
-34
-40
-18
-10
27
-5
-23
24
10
-41
-20
0
5
5
1
-7
-6
-33
13
19
-3
0
-18
-3
-8
-26
38
10
-44
12
-18
3
-9
10
4
22
-27
-20
18
-15
-2
6
20
4
-17
9
-12
-3
11
-2
48
-21
-41
31
-12
-16
-6
2
8
-14
-12
-9
42
-14
9
-22
14
10
26
-17
33
5
4
-18
33
18
22
2
3
-8
-26
-5
4
-22
6
14
-14
6
-22
-12
-18
-44
3
-13
0
5
-28
-9
11
-36
-18
-19
-15
16
-32
6
46
-1
-31
-13
-20
-22
-2
-9
-5
-25
9
44
1
6
-6
28
-2
-4
-15
12
37
-9
15
14
12
-10
-12
-1
35
-9
2
-7
-19
-2
-5
10
26
8
-7
5
-13
-6
-8
14
-14
16
-1
13
11
3
-28
-28
9
-11
23
-4
-9
-10
-9
13
-8
-2
2
1
1
4
0
0
-3
-14
2
-16
7
23
-6
-3
2
-7
7
-3
14
36
-7
15
-17
0
-36
-16
24
30
-5
-22
10
5
-36
-39
32
20
-14
-21
7
-4
13
10
23
11
-11
-14
12
18
-10
-4
14
17
-12
6
10
-6
13
-32
-4
9
-7
-1
24
-9
-24
15
-48
25
-22
6
17
0
11
6
-24
18
-1
24
13
-1
-14
-18
-36
13
1
41
1
0
-8
-2
-23
-11
1
24
-14
-23
-7
-4
-2
34
-7
18
-17
-9
-13
-24
-23
22
12
39
-4
16
9
3
6
28
-19
-21
-7
18
-12
27
10
40
1
-4
4
11
-11
-20
12
33
-3
4
27
24
-25
-12
3
-10
-10
13
-16
-5
-3
-28
-22
-21
-3
-8
-17
-14
-18
-9
-19
38
14
-8
-32
1
24
-19
-10
18
2
5
-5
19
40
-14
-7
33
-8
10
-32
8
30
-18
-11
42
20
-5
-29
11
8
-16
-8
18
-1
1
-12
-12
6
-26
-3
-6
-16
8
-7
-16
22
-30
-9
13
15
-7
-13
-33
-17
19
-15
17
-32
-32
-21
37
19
15
-20
4
-20
16
-50
18
1
11
3
-17
0
-11
7
3
-3
28
-1
19
-28
-13
-25
36
32
12
0
-17
6
20
-23
20
19
6
11
10
-14
2
15
17
25
4
-10
-1
29
-36
7
-3
46
3
0
-25
-23
7
-2
7
24
9
22
-25
-25
42
22
20
-5
6
-9
-13
-29
10
-13
-34
-9
-9
-19
-13
-2
-4
9
-8
-21
-11
30
-24
14
-12
-5
-6
-6
2
16
-2
-24
-1
6
-17
-13
-7
7
-8
7
-11
0
-23
-13
-17
49
-14
51
19
21
8
-6
8
-15
22
-15
-30
24
-30
12
-11
-16
18
6
-23
0
-18
-30
-12
20
-2
-14
30
22
12
20
3
-47
1
10
-2
9
-23
13
7
-14
31
27
3
3
-10
-18
14
-12
3
24
-13
-19
3
-1
5
-18
-3
9
-36
10
13
14
4
14
13
45
-41
-18
2
-38
-6
35
5
24
12
20
9
-20
34
-24
21
-2
14
25
8
19
-10
9
-22
57
-5
-6
36
35
-23
45
8
-7
-60
25
18
9
-11
45
-17
8
-3
-23
23
10
-20
21
16
-10
-4
-6
23
37
-8
0
-35
10
-12
-22
8
-1
0
38
-43
3
-30
1
20
36
2
23
-7
-14
-12
-22
32
40
5
0
-2
16
-20
-17
11
21
13
20
-22
11
6
14
43
-15
-9
11
48
11
10
-12
15
2
-26
15
43
10
-7
10
10
0
-2
-28
-19
12
18
-30
-7
3
14
10
13
-4
-13
-13
3
2
0
21
-4
9
-28
-11
-16
-3
-22
0
-35
-1
47
-17
13
10
-16
14
6
-14
29
-4
12
27
0
0
-2
22
38
21
14
-16
-25
14
-14
-3
24
-40
-11
-31
-10
25
-35
-1
7
-20
-14
-3
-4
18
-15
9
-15
12
-26
-2
-7
12
-1
0
-4
-7
2
28
-19
-4
2
-21
-19
2
1
14
-20
-1
4
-20
6
17
5
-6
4
-12
0
14
-15
17
-4
41
-30
-14
43
-7
-37
27
43
2
-14
-2
3
1
-15
32
75
-41
3
-2
6
-9
7
4
-38
-37
-7
-10
3
-2
-27
63
-4
-29
-41
-31
5
-18
-8
43
42
-6
15
7
13
-1
4
11
-22
3
9
7
27
36
11
12
-11
26
26
-2
22
7
21
4
-2
-12
-13
-8
-1
18
1
-10
-13
10
-16
-14
4
-10
22
-4
-18
3
-6
-11
11
-8
23
-23
-4
-2
-19
-11
-8
-5
8
-1
-28
-29
12
5
-12
-12
27
-12
-7
-40
1
3
17
20
18
-19
0
2
-10
10
21
-8
-20
15
7
-6
-6
-9
6
13
36
13
17
20
-6
18
-23
4
15
-11
34
-4
-2
26
3
-3
-24
-12
14
-11
-15
-4
-18
34
2
29
33
16
0
-1
-23
9
24
1
6
-35
23
-12
-12
46
-32
1
31
-11
13
-7
4
8
2
5
9
11
44
12
-23
-17
-15
-8
-14
7
-22
-25
-26
1
-47
8
13
27
-32
-17
-8
-16
-31
-11
21
19
-25
-21
14
1
21
20
41
-1
1
-12
3
4
-30
12
1
-18
-6
-7
29
-11
-13
7
4
-28
-12
2
26
-11
21
3
5
-17
-3
-10
15
2
-25
5
-7
-6
-8
-3
16
12
-22
-5
19
-22
-4
-20
11
8
-27
27
43
-9
16
-3
-26
1
-2
2
18
-26
-3
-22
-6
-1
13
-7
-13
-8
-10
-15
-9
-5
5
26
30
-2
29
-4
15
-3
41
0
11
-36
53
-11
-2
2
28
-4
-13
-33
37
-5
-12
-2
6
-9
-28
-16
14
19
7
-9
27
-21
-1
-17
30
18
-20
7
15
-25
-10
12
59
1
-8
3
-15
-18
-20
3
-33
12
1
16
17
-12
-4
1
0
22
-36
15
5
-13
6
-13
6
1
-9
5
28
11
5
3
2
18
-26
29
-20
-14
5
-11
16
7
-1
2
-25
-2
25
-1
-1
5
8
-5
-6
0
8
1
-2
-3
-15
32
-25
20
30
16
6
13
-21
12
-27
5
8
-2
1
0
-14
-29
12
-5
27
-4
-5
-3
12
-22
22
21
-11
29
-26
-22
11
-10
13
-10
-17
3
4
-50
-2
-25
10
-11
10
-20
10
-17
-19
-17
-8
-8
-4
-3
3
-2
6
-22
-21
-3
-17
10
30
-15
17
-22
-23
7
-9
-19
-3
-15
9
3
-22
11
6
0
-34
-11
-12
-20
-18
12
5
4
-9
24
10
-47
-23
3
-4
-1
-6
-9
0
36
-39
-13
9
54
-7
-30
-27
3
-37
-10
2
15
-3
-27
-10
-24
-25
-14
-10
5
6
8
10
11
-22
-30
-34
3
2
-12
-51
-29
-1
-17
-21
17
-12
-19
-46
-22
6
-42
-14
-11
4
9
11
-10
26
-26
-27
-7
31
-15
-14
-31
-6
-39
-16
-3
21
-6
-41
0
-16
-24
-5
5
21
0
-7
10
25
-13
-6
16
19
-9
-18
-9
-8
1
14
-39
23
1
-47
39
4
22
-10
17
-3
13
-28
20
-11
-1
-2
11
-12
-13
-28
23
57
11
-1
-16
20
-5
-19
9
19
23
-22
0
-21
27
-12
2
-4
20
-8
7
-26
10
-39
27
43
19
-10
-3
-14
12
16
33
54
16
-4
10
3
3
13
-5
49
10
-3
54
5
0
12
-15
-34
-20
-3
40
28
-16
23
3
-12
-24
-11
0
11
12
-12
3
-27
23
15
-8
-5
14
-2
3
-5
-41
4
42
13
-13
-5
-11
-4
7
12
21
6
-4
13
-6
-14
-21
26
33
-12
-1
-13
-14
-6
16
27
1
27
-5
8
-10
-16
-15
8
28
-6
0
12
-11
-16
17
26
14
-14
-14
-23
-26
-4
25
23
-2
-13
-13
-20
11
6
35
24
19
-4
10
-41
-19
28
19
9
1
-7
-10
-19
-20
13
20
-3
18
3
-8
-11
2
13
5
-3
-33
15
22
-2
-1
1
9
-2
-29
-11
7
-27
-9
10
-7
-4
-7
-13
4
-10
22
18
16
-11
31
-24
-8
12
2
6
-17
-2
47
-9
6
-5
-4
17
1
-22
38
-24
22
-15
8
-7
-7
-9
-9
-1
-12
12
11
8
10
18
27
-17
-21
-9
1
32
-1
7
19
-24
-13
29
12
4
3
-3
-19
6
-2
-26
-3
22
7
-3
7
0
-25
-14
-12
33
-10
20
22
-12
-26
-6
10
22
-2
4
2
3
-23
30
2
-23
-4
-10
-19
28
-15
-24
-5
-18
-11
1
12
1
-4
-5
6
-16
-7
10
1
-7
-19
25
-6
-10
11
2
6
15
0
-35
0
-8
-7
-13
11
11
17
-27
20
-12
1
-25
3
-1
-17
2
-4
-7
-6
-17
17
12
-2
-6
8
-36
-6
-18
0
13
27
10
24
-9
-6
-24
12
2
-18
-18
12
25
-3
8
-8
3
-6
2
56
11
-9
-5
22
-1
16
17
-21
15
-17
-39
-5
10
4
-1
4
4
-3
-4
-15
45
-4
-8
-1
24
-6
-21
-22
13
17
-1
-16
-20
-23
-28
-20
9
-13
-22
-4
-11
15
10
-28
20
-26
10
2
11
-16
16
21
-12
-7
5
-9
-40
11
30
-11
-8
-12
9
36
-18
5
22
-10
-7
33
5
7
-9
26
17
-15
11
-30
1
27
9
-12
-1
-20
-5
1
-7
26
26
12
21
5
-13
46
32
-16
-8
-17
30
-2
5
-19
9
-1
-22
13
48
-18
-4
-17
14
27
-10
25
25
-17
-7
42
36
-17
4
18
48
-32
21
-16
20
7
10
14
46
9
3
12
30
20
-8
-11
3
3
-10
6
-4
22
-9
13
18
22
-26
-1
-2
-46
-17
-4
7
22
11
7
8
16
-2
-25
12
25
6
1
-26
13
-28
-26
5
28
-8
7
-12
-4
6
-4
14
25
-19
16
-3
15
12
8
19
53
-18
6
-24
-14
21
-5
4
21
9
4
-21
-29
22
-11
-1
11
-14
-9
-22
-9
2
-16
7
-10
6
5
-43
-17
-14
1
18
5
27
0
-43
-9
-37
3
18
-2
15
-23
-27
-9
9
-6
-6
5
34
-12
-29
-18
17
6
1
-23
52
5
-32
-6
-14
5
10
-13
-4
12
33
-6
6
-7
17
-8
-5
4
20
-19
-8
17
9
-10
16
9
-4
-16
-9
14
-2
-1
13
-11
18
4
26
19
4
-9
7
-15
-13
23
12
-19
16
-5
2
-13
0
-19
3
-10
2
-20
18
3
6
-8
4
20
-8
-11
20
-7
-7
17
-15
4
15
-17
-18
-18
0
-5
-40
3
3
-2
6
-12
-34
-11
18
13
-11
-12
-16
-6
-12
16
-9
14
-5
-36
-14
-18
-28
-16
-22
13
4
9
-26
3
-7
40
-3
9
-3
-1
-18
13
2
29
1
-1
-6
22
-20
-7
16
11
8
6
2
39
-26
-3
7
22
1
3
-8
-22
-16
2
26
20
29
-3
-35
-7
-19
-11
-23
-5
26
-17
-22
50
7
13
52
13
0
16
-19
10
-6
-2
12
-3
42
27
-21
-12
8
11
-24
1
23
15
-16
-25
8
1
-24
4
-54
9
-2
-25
12
-6
13
7
-39
-3
4
-15
-1
-2
5
-21
32
41
-14
-5
13
4
-8
-32
-20
27
-26
22
12
-5
7
-12
-29
43
-17
-2
0
-3
-5
25
7
-16
9
5
11
-24
10
-25
-13
24
-4
1
-2
-15
19
-34
-12
11
-10
2
-10
-6
3
22
2
-8
-4
16
-9
-5
17
-6
-22
27
-11
-4
10
-1
10
-14
23
11
-23
34
0
1
-8
-14
18
-32
-18
1
1
-12
10
-3
17
-39
-13
9
4
-9
0
-22
7
-35
1
12
-17
-5
-13
-5
3
-6
-9
23
-19
-7
5
-23
25
-2
-20
3
-22
-4
0
-13
-13
-22
-1
-5
0
1
17
57
-22
-1
9
-9
-9
-3
-29
-27
-36
-11
-16
4
2
5
22
-14
-10
-4
0
10
-12
-18
36
11
11
-15
-16
3
-9
-4
-29
-33
-10
-23
0
17
-22
12
-3
8
1
30
-7
23
-32
0
17
-15
-24
39
1
4
-3
-9
-19
-11
-3
-12
-21
-16
1
10
-13
-7
-5
13
-6
-13
-25
-15
-26
-5
31
38
7
8
1
-7
-38
-5
-14
-24
-13
19
2
-15
10
-43
-5
-10
-2
28
37
-18
37
-39
-8
14
-3
47
16
-13
-23
-5
11
2
13
28
0
1
-4
-13
2
5
17
23
24
-10
31
-23
-13
-10
-6
24
-4
-6
0
-22
-25
6
-12
-2
17
17
-5
-5
-17
-18
4
-11
-12
13
10
4
-17
2
-11
-8
8
18
-34
11
-24
15
-36
19
-18
-24
15
7
-3
-16
-30
27
12
-11
3
18
2
-12
-26
14
4
-2
31
18
-10
22
-28
-21
22
-15
21
1
0
-8
-18
11
-15
-3
0
6
-4
6
-12
-7
-7
-9
-22
19
-1
37
-16
4
1
11
-4
2
-25
-9
-10
7
0
5
51
9
5
2
-11
-21
9
-24
6
-9
1
-24
-20
15
-4
-11
14
21
-13
-8
-4
-8
-36
-1
9
6
-6
-12
-2
-17
1
5
-26
-11
12
-29
-3
-3
-2
17
-26
5
8
2
7
28
-25
-17
1
-13
13
3
-6
-11
14
4
-35
-41
46
-12
-4
18
30
15
-18
-35
16
20
-15
44
-4
-10
7
-40
-1
22
-19
7
-23
5
9
17
0
13
-7
21
-21
8
2
11
-10
-19
11
-20
-23
3
8
5
-32
14
23
21
-25
23
-22
-24
35
5
-13
9
2
-9
5
1
17
28
-3
19
-1
-7
-27
27
-50
29
-20
-24
-5
44
-32
-24
17
-3
-14
-7
25
23
-16
-18
-5
3
1
-5
-11
7
-28
38
10
42
19
-19
2
11
-19
-25
-28
-5
6
-5
11
-2
-2
-14
-26
18
16
-12
3
11
24
-3
-18
24
13
-2
-7
-4
-18
-14
-5
-20
-25
3
0
-8
23
-15
-5
16
-41
43
-1
-10
46
-20
28
2
-19
1
-33
-12
-8
6
-14
-22
-8
17
-31
-11
-26
-10
14
-22
-3
24
-1
-1
-9
-12
-8
-18
-20
-10
5
7
-11
2
-18
-22
13
-10
20
24
-19
4
-2
3
16
-38
11
8
14
-22
10
-23
-19
-3
14
21
14
17
-3
-4
-19
-5
13
6
16
23
-8
37
-2
-20
-3
11
-10
-40
-33
33
15
-19
-16
12
4
35
14
-28
-40
7
-9
23
4
38
-8
5
-22
19
-42
16
-24
56
-1
-6
-4
2
-43
-6
-7
-29
25
-4
2
3
-35
-14
-13
-23
-19
15
-9
-2
-28
-4
4
-4
-21
10
-24
-6
-12
-23
-51
-20
51
-7
-36
-5
-27
-15
-21
-20
11
21
-20
30
-28
2
3
-13
-21
22
2
1
0
-40
25
-13
-6
-25
-22
8
4
-44
2
-19
0
3
-15
12
-28
-6
7
-17
-3
57
6
-2
-18
19
28
20
13
0
21
22
-24
22
46
-2
-12
-22
10
26
-30
8
53
-3
-25
-8
8
-23
-3
11
-13
-15
9
-8
14
-26
-25
-5
3
-28
-1
-22
6
-10
-14
-17
35
-31
6
4
16
9
20
1
-16
-17
-8
-7
2
-9
1
8
-11
-31
36
-30
-10
-25
-5
-1
-10
-22
63
-5
4
26
24
-6
15
7
23
-26
5
33
42
4
19
13
6
-19
22
0
-5
-31
14
12
2
-27
-11
16
7
1
-9
9
-7
28
-22
-19
21
12
-5
2
-5
8
12
-32
-1
6
14
-1
3
12
33
26
22
-4
-31
-4
-12
1
-8
16
35
15
-6
-20
2
-10
-12
27
-4
7
10
-23
-10
-7
-3
-7
-9
-2
15
12
-9
-32
-31
16
-20
14
-14
14
26
-34
-21
-14
4
13
-7
-2
-28
-34
-8
2
-7
-9
1
9
9
27
-20
-17
-31
15
-33
-33
-44
15
-7
-15
1
37
-2
-47
-12
-15
-10
-5
-28
5
-29
-4
-15
39
2
-2
-38
9
-33
13
-27
28
3
-10
-13
38
-17
-6
18
5
-5
-7
-5
8
1
29
-19
12
-39
9
-5
13
48
-11
-1
-13
-26
3
1
-5
59
-7
14
6
8
38
-8
-18
14
8
0
35
-17
49
-19
9
20
30
-2
-5
-7
49
-5
-4
35
-51
-1
15
-1
-8
-19
-17
-26
-5
45
-25
18
7
-2
1
-5
0
33
1
14
25
3
5
26
38
60
-8
18
-24
9
13
-22
-6
-20
21
-26
-21
10
30
-19
3
-35
13
-43
6
1
19
6
18
11
-4
-10
-29
3
-6
-43
18
-1
1
-17
18
4
16
-22
20
-13
41
15
34
-26
4
3
-47
-38
20
14
-10
0
6
-24
-35
2
-6
3
35
-22
-5
-20
26
21
15
3
42
-18
-13
11
-5
19
-2
37
16
-25
-5
-2
-2
14
-12
-16
26
-22
25
1
10
26
11
-9
10
-6
4
4
-2
23
7
-12
7
-28
5
35
-10
15
-2
17
21
-6
17
15
-9
-23
-6
9
-32
10
16
31
2
6
13
17
-1
-13
15
-21
-4
-24
3
10
5
10
23
-18
0
-35
-2
2
-7
-31
32
17
-12
10
-6
26
-10
-19
-8
2
-26
-7
3
33
2
-8
-10
17
2
8
1
14
-14
-3
-1
-8
16
-14
9
2
-28
-3
4
23
-13
31
12
3
-20
-13
-15
15
7
12
3
-8
-13
23
-16
-4
-1
-27
-12
34
-33
40
17
-21
-4
3
-8
5
-5
11
8
52
7
7
6
-5
4
14
-5
43
-2
-6
-6
-4
-7
-6
3
34
-10
5
16
-4
14
-10
3
42
-14
-3
30
18
-4
-16
9
-13
-16
-4
23
32
-19
11
-33
6
-6
27
21
-44
-38
14
-50
17
-1
39
56
-31
9
-2
-18
-12
-17
-1
39
4
0
24
-2
-45
-20
39
-15
-19
7
26
-18
15
-8
-19
10
-12
8
47
-16
-2
-24
-20
-16
-14
20
13
6
33
23
5
7
-3
9
17
13
-11
9
29
15
-6
10
2
8
2
48
17
-9
-3
9
-10
12
17
39
17
20
4
15
13
20
-8
4
-2
-18
1
-6
-9
3
-7
-2
4
-13
13
0
-37
17
-6
25
-2
-19
-7
-22
-7
4
-11
-17
-4
-26
9
-29
-3
-4
-10
0
-7
5
-3
37
-18
-15
22
-31
34
1
-11
21
-10
-18
-5
18
-7
-19
5
27
-35
-7
16
-15
16
-17
-7
1
18
-17
32
-7
10
-10
-5
11
-17
-20
-10
2
-4
-21
-5
12
-20
5
-13
-16
39
8
-7
-7
-1
-14
40
33
-3
6
-17
-33
7
14
34
22
14
0
-16
-31
8
13
-4
69
3
9
7
41
-24
3
-7
-16
16
32
16
-7
-13
8
-5
-9
-17
26
-4
-1
-1
2
-10
1
-9
14
5
10
-16
-2
2
-19
29
5
18
-24
-2
-6
-28
2
16
-5
12
-18
15
4
-26
-6
-12
6
16
21
-26
21
-9
-5
1
14
3
0
8
-4
-39
-3
-29
8
2
10
5
-29
-30
-9
-20
30
9
20
-33
-13
49
-21
6
27
49
-13
-20
7
5
-21
-23
-8
1
-17
-3
12
-17
-18
-10
13
15
45
-39
-25
6
-8
23
29
22
-5
-23
5
7
-13
1
8
-12
1
-8
1
-17
-27
-7
17
7
13
7
-11
-23
10
-6
-14
-15
7
-25
-5
-21
1
15
-1
-17
-1
-2
3
-33
-13
14
31
-17
-31
13
-6
-1
-7
11
14
-13
-12
-9
-20
-28
-12
2
1
-3
10
-26
-24
2
-25
39
-36
-4
12
33
-11
1
-32
37
-4
0
2
9
2
-2
-28
8
4
11
19
2
-16
9
-45
10
-6
12
-12
-2
8
-12
-7
-18
-16
3
16
-11
13
-4
-16
-5
-18
-6
2
-29
3
-19
-42
-27
-7
2
-24
0
5
16
-8
14
-14
-3
-22
12
0
21
8
9
6
3
-10
9
-2
19
-9
-6
3
2
-17
27
-15
13
-10
26
1
6
7
12
3
22
-6
2
-2
-9
8
0
3
-16
11
-7
-14
-11
9
23
2
1
-9
1
0
11
-11
21
6
8
-2
-1
-16
-10
39
-13
26
-8
22
-8
-22
1
-26
26
0
-1
-37
7
0
-43
-32
9
-25
-24
6
5
8
-35
-9
31
-15
14
-23
25
5
-8
-11
-18
-4
-31
-27
24
-3
-28
-22
5
-5
7
-16
-18
-7
-29
-29
-4
-6
15
10
6
5
-11
7
-14
13
-42
29
20
-4
-22
34
-14
-16
4
7
-9
-8
-19
48
-8
-10
34
-24
-11
-2
-33
4
-12
-25
27
-10
-1
4
-17
-21
-15
-17
16
-17
1
0
-25
-35
-3
-1
16
-10
-21
0
-7
-10
-6
-17
-2
-17
-8
-20
3
-10
-4
-24
-14
-28
-38
7
12
-4
0
-12
-15
6
-25
-33
14
-1
31
-20
-18
-3
-15
-24
36
-4
40
-8
44
-15
-22
-23
18
17
14
22
39
-20
-18
-19
19
5
-26
0
-15
22
-19
-17
28
42
-30
-8
-26
14
19
15
6
37
-20
8
-8
-23
-4
17
-5
-36
-20
1
-5
2
25
-12
19
26
-15
27
-12
-11
31
5
-7
5
3
16
9
7
-6
19
-8
-5
-23
4
-25
22
35
-16
0
-23
-9
29
-25
28
35
6
-5
7
-14
33
-6
25
-22
17
-18
15
8
13
-26
-8
-3
16
9
-9
20
9
-5
-4
3
0
8
-27
41
6
10
6
10
-2
-10
1
-32
-2
12
-9
8
-4
13
25
-10
11
-47
-40
-3
12
10
-25
11
-2
-31
-12
-6
-16
4
-15
-23
1
-16
-19
20
-2
-12
34
-31
2
-35
-26
1
-3
-5
10
-12
3
-4
-17
-16
-4
20
-17
-12
2
33
5
5
39
2
-9
20
4
26
8
5
-1
-12
9
-9
18
8
11
-18
13
1
-21
-4
12
17
-8
12
16
-3
-30
-15
-10
-23
-5
11
-20
-3
-15
-13
18
3
4
2
7
-16
-25
26
12
-24
1
2
5
-9
-24
-10
-4
10
-27
1
-15
5
-4
-12
-6
17
-33
4
-19
-5
21
-14
-22
47
-11
20
18
16
32
2
2
23
5
4
7
-1
47
-20
-12
31
39
29
15
-15
-28
-20
4
-8
1
2
41
13
14
41
3
-10
14
7
14
4
3
19
11
-10
9
-17
0
-5
-22
7
24
-27
9
-14
13
24
-9
5
0
10
-6
-6
-13
3
0
-34
13
7
24
-7
-13
6
33
3
-1
-8
-14
24
15
28
24
-3
-12
29
18
7
15
9
58
0
-26
-8
-38
10
4
9
-11
-1
-21
-19
18
14
-17
17
19
12
-19
-17
13
-22
41
22
36
4
9
42
-35
-8
37
1
-6
-4
-21
-60
22
-10
17
-1
42
23
-5
-17
-1
23
25
1
87
1
-7
5
-70
26
-11
-11
32
26
7
0
0
38
7
-2
-8
22
30
4
6
42
-14
-4
-2
-5
6
6
-22
20
-1
-5
2
16
12
4
3
23
-21
-16
4
-5
30
0
-36
-28
18
-8
1
-23
7
42
63
-17
28
2
-14
18
-8
7
-15
-18
19
-8
-34
-23
31
12
-2
-34
38
3
-20
-27
-2
24
65
-12
13
3
22
-2
6
4
-49
18
22
-12
-21
11
-17
-9
15
-2
14
-24
-22
2
-8
-19
28
-27
9
-4
-30
13
8
-15
-22
28
8
-18
-13
6
-7
-16
-32
-19
-33
-28
-34
11
-11
2
38
-13
-29
2
-2
26
-4
-8
-10
7
27
1
-33
15
-13
6
-47
-18
-38
15
-45
3
-15
15
-15
-36
-16
21
-21
16
0
2
21
-19
-2
31
-11
7
5
11
5
-4
-5
16
-13
-16
1
-3
-1
-31
0
-7
0
-18
-7
15
-1
-17
30
38
25
-2
3
3
-13
0
-1
18
56
-16
-9
-25
23
8
-2
13
10
-24
-18
-13
16
-29
3
6
37
-23
-15
-1
22
6
-26
2
74
-5
-15
-49
20
9
-26
20
-44
-12
0
9
-17
3
-35
0
-7
-2
1
4
-4
-7
-24
7
32
-7
-11
-10
-9
0
-14
-3
-16
-9
-17
16
-9
-2
-27
9
-32
-20
-17
-19
9
5
-25
-13
-31
-27
-32
25
-25
-4
-10
-11
-7
-22
-12
-26
-6
-7
-38
-25
-37
2
-8
7
5
10
-29
-3
-38
-16
-20
18
-41
-16
-5
-1
-20
23
-9
-38
4
16
3
10
18
-11
29
-19
3
18
-20
11
40
-26
4
17
-40
20
11
-3
6
-1
-2
-57
-2
1
-17
6
-16
-27
8
-34
-16
20
1
3
-13
-17
27
-2
-38
4
-5
-2
8
17
-21
-17
17
-1
-9
-10
8
-39
0
-11
-1
13
-9
-2
-19
-26
21
11
-6
-3
-4
-9
-8
0
-5
1
-16
31
-20
-19
9
2
5
-6
5
33
-14
-11
-5
-21
0
-11
26
32
-21
21
-4
-16
1
3
21
-15
4
-28
-19
-5
7
-5
30
-12
-24
-21
2
-3
3
37
9
-20
-8
2
3
10
-17
-8
-7
-26
-3
-10
12
19
-15
2
2
29
-12
21
32
3
-21
22
-2
36
15
19
11
-16
-18
-7
-11
2
31
-4
0
13
5
11
-5
8
16
-4
-11
0
-5
-5
12
2
14
13
6
-26
-13
27
-3
13
18
9
-8
-13
16
25
10
10
41
0
-7
6
10
24
24
-1
3
19
-11
-4
-21
8
-23
-10
-10
-31
4
-26
1
-23
21
2
26
-26
10
-14
1
26
32
2
3
-7
9
34
-7
-12
38
-7
20
17
22
27
14
8
30
23
45
-11
31
17
-11
7
10
9
2
-28
-8
2
-20
-24
-8
17
-9
-2
37
48
-11
2
13
-9
-10
-9
24
41
-11
27
-21
-26
-15
-7
2
27
-23
12
18
-19
-40
31
3
41
-17
0
-24
-18
-25
15
34
74
-19
37
-43
-24
5
-13
17
2
5
-7
-9
1
-7
17
6
13
-4
-28
10
-10
-11
11
-7
17
-9
-9
16
-11
-20
5
16
20
8
5
16
-9
-14
-1
-12
-9
14
-60
8
-17
7
-5
-29
-3
13
-22
13
-5
7
-12
8
-18
8
-22
30
-9
-6
5
-5
12
7
-33
23
-11
-8
-33
5
2
7
-49
34
-5
-5
-23
-28
-8
-25
-6
-23
9
6
10
-37
-14
-4
10
-43
45
-13
12
-26
-17
-6
-26
35
-33
-10
18
-11
-10
-17
-5
-17
50
8
31
-32
-2
0
-8
20
-7
-29
27
-27
-14
11
-5
15
56
-8
27
-1
-16
-19
-29
-9
37
29
-41
-34
-6
-5
-12
-11
-32
-1
-22
-9
-12
11
5
38
41
8
-6
-5
-42
-5
-23
-9
18
-24
-28
-4
-32
2
2
15
-8
-12
-27
11
-27
-10
15
-1
-10
-7
-20
20
-4
-15
15
30
35
31
12
1
12
1
26
-22
1
29
-7
-9
16
-19
3
33
3
12
10
24
-10
-16
-4
16
12
-13
6
-12
16
8
-24
26
35
-18
0
-22
21
-13
-49
17
9
-17
-1
-15
21
1
-14
-12
-26
40
46
-44
-3
0
-2
13
11
8
40
-37
-3
-15
-12
-17
-27
-24
48
-2
22
14
-15
1
-36
22
9
-22
1
39
-11
11
16
34
14
14
-3
4
-17
-4
34
11
14
-35
18
8
-15
-21
7
12
-4
6
-5
13
-7
29
-32
18
5
8
-24
16
4
19
-19
-33
-10
-8
16
16
49
-26
16
-19
12
-4
40
-14
-8
-14
13
-9
-7
-8
13
-7
-13
-13
-3
3
-17
-32
17
10
-8
-17
13
-4
4
11
6
11
45
-9
-3
12
-15
16
48
-10
24
-16
2
26
-31
-22
29
-19
-8
-5
10
-10
-12
-5
38
-9
31
-9
0
16
-1
13
27
-11
36
-2
-17
-5
-12
-19
11
-37
-29
-7
-7
38
9
-32
19
-15
-18
-10
-21
23
20
-29
8
8
-35
-17
-34
-22
11
2
-28
-11
8
11
-9
32
26
-15
-15
7
-27
11
-29
30
22
-20
-28
1
-38
4
2
-3
6
-5
26
8
-34
3
-1
17
10
-4
-6
1
-24
19
-12
10
-16
-13
5
8
-27
-12
20
5
-24
15
-22
19
8
-40
8
-2
17
6
-1
12
-7
1
4
3
30
-5
45
34
19
4
-4
13
29
21
16
9
-10
-13
-3
-32
2
20
-22
-4
3
8
1
-1
15
40
20
-7
28
-2
-7
52
52
-5
5
5
0
-24
13
-5
5
8
13
-3
9
-21
-3
21
-4
36
-3
-5
25
-24
4
45
-12
5
-27
-5
12
28
-37
-15
-7
7
-5
-14
25
6
11
-16
9
-19
-6
6
-15
27
17
-22
-3
-25
-9
-12
-21
6
-25
12
20
-44
-5
-6
-4
-7
8
3
8
-34
-8
4
-4
11
32
-7
16
6
-1
11
10
37
-19
14
14
-29
-1
-1
0
63
-9
-7
-6
13
5
4
-14
3
18
11
-1
-15
-11
-10
32
22
19
-26
-15
1
-8
15
19
-40
-17
-16
-18
2
6
21
-1
-10
26
16
-17
2
-17
-14
26
21
2
-12
19
78
-26
-18
11
-16
-9
4
34
51
-4
10
-5
-39
-42
38
15
22
-32
8
-12
4
31
-28
17
-3
-34
7
19
-25
18
-32
4
-20
11
14
45
-52
-4
-31
-1
-7
0
10
26
-6
-1
9
2
7
-15
9
20
11
-12
19
-2
5
-9
-8
25
28
5
25
4
3
-5
-2
24
10
18
41
-9
21
11
20
9
8
-4
11
-16
-20
8
8
16
11
-23
-12
2
-15
5
5
26
-24
4
32
-2
-9
-5
9
26
4
-32
18
-6
-20
18
5
2
22
-16
6
1
-5
-25
-9
-45
-7
-1
-1
-13
-18
-9
4
-26
-21
-11
30
-9
15
-13
5
-25
-5
15
-5
3
19
33
10
8
10
-3
-3
17
8
27
24
8
-2
-14
8
-5
4
26
-1
18
-12
4
-15
-19
-2
-20
9
12
12
-19
15
11
12
-2
8
29
27
5
28
4
-1
4
-9
40
6
7
-1
-12
9
-5
2
37
-3
-21
1
-1
43
1
-11
3
5
-34
20
24
1
8
-5
27
20
-6
15
25
-9
-3
-8
39
-9
0
6
-29
20
-7
-22
-9
-12
29
-19
-13
-28
13
-20
6
20
6
-18
-7
4
-15
-14
29
10
-24
-3
13
-11
13
-2
-26
-12
0
-10
39
-12
6
-2
2
-3
-21
0
33
-6
-33
2
43
-3
7
-23
-27
21
6
-5
-1
20
37
-10
-12
34
-18
1
-30
7
1
10
-12
9
-7
-8
25
-1
8
-35
-15
-5
-6
17
-12
-3
-6
-36
-18
-4
-23
-3
-29
-11
-7
-1
-18
-12
8
-6
42
8
-17
-23
4
-24
-18
3
-3
-20
-14
-20
-6
-11
-15
-9
-48
-28
-9
-26
-19
16
4
-31
-16
-9
3
-29
-6
-4
28
-23
15
37
-6
-37
-15
-29
18
-32
2
46
-13
-19
-23
30
5
-10
-5
-22
36
37
3
20
1
-20
-2
21
36
7
-4
-5
-9
-28
24
18
-4
-19
-19
7
-3
23
66
-42
-39
-17
30
-17
-19
15
13
-31
16
-2
8
-6
-28
-18
17
-7
37
-38
-4
-4
6
-14
-21
-2
-1
-11
0
0
20
-11
-25
-16
-16
2
7
8
-21
5
2
-42
-18
-28
-12
14
-4
5
3
-11
-11
-28
5
7
-13
-2
20
-6
6
1
3
24
-19
-8
-16
-10
14
18
7
-31
-4
16
-50
-25
-32
-14
27
-6
19
14
-23
-4
6
21
25
11
-6
-5
20
-10
10
31
26
-24
-12
22
-9
-21
-41
3
9
9
-13
-5
-15
-10
-20
4
-5
4
11
-4
21
-20
12
29
-16
2
-31
26
-19
7
-23
-13
16
20
-11
19
-13
3
-1
11
-6
19
8
1
-16
-18
-21
1
0
-9
-26
37
-27
-25
-16
19
-2
2
-23
17
-10
-19
1
1
-5
26
1
24
4
-6
24
-6
-4
-27
-6
22
-53
-28
5
-19
-25
3
-11
15
-47
-39
8
-1
-12
19
24
22
-16
-20
-28
-4
7
-22
2
3
21
-15
-1
-8
10
-2
-29
-6
27
-38
6
14
13
15
1
11
23
-21
-34
17
16
-28
-1
20
-3
-7
11
-14
1
-35
-3
5
36
-36
8
21
7
-10
-9
-7
14
-18
12
-2
17
-17
-2
1
10
-13
-20
3
-7
15
5
-4
0
-11
-9
4
-9
48
-7
25
-4
-2
4
-3
5
2
2
4
8
-10
16
-14
0
-19
-10
3
-3
14
15
-17
27
12
-14
5
-9
-2
8
1
28
10
5
-14
-13
-10
28
18
27
-6
-7
-1
-12
7
22
8
33
9
-8
13
8
24
9
1
43
4
9
17
-14
-20
-1
-21
-48
19
-8
-9
-13
-10
-9
-6
-54
14
-7
-11
-13
-11
-17
-21
-49
27
25
-23
5
-8
26
-10
-14
-14
2
-18
21
-19
38
24
34
-18
20
-11
22
-18
15
14
42
35
0
-8
-13
4
4
-18
-11
-14
35
4
0
-6
6
-10
-12
-25
48
-4
6
-5
20
-2
-8
4
-24
22
9
-5
43
-22
-7
28
6
35
11
20
20
-2
-13
64
1
28
-20
-2
32
-15
-17
7
0
36
24
-7
35
-9
17
27
22
22
-6
12
-15
13
-10
-7
31
0
-24
-7
11
-6
-9
-10
15
-11
-16
7
-11
8
9
32
17
4
-26
3
-18
5
5
34
5
-2
-29
-26
-15
-16
-24
6
0
7
12
5
45
0
13
13
0
4
23
-8
7
15
3
-7
-1
18
3
10
-15
19
15
4
0
-3
18
-23
-13
34
0
23
-1
-7
26
-28
32
35
9
11
-1
5
17
-31
-13
35
6
24
0
0
12
15
2
8
-12
16
0
-9
20
-9
16
23
35
0
0
-18
-9
-14
12
-2
-5
-12
0
-27
11
-14
6
-9
-51
11
0
-11
27
-7
13
-7
-50
0
0
-24
22
-7
-14
-1
-33
0
0
-9
-13
-4
-1
-4
-16
22
0
10
-4
0
-3
-10
-18
42
0
-5
-7
-12
-6
-3
-3
-8
0
5
11
-9
9
25
-15
21
0
13
18
5
7
11
-24
39
0
11
6
-11
11
4
-3
-38
0
46
3
3
-30
-4
10
-10
0
13
22
18
20
18
21
38
0
-17
11
11
-10
1
-4
-18
0
2
-3
15
-14
16
-12
8
0
-8
13
0
-6
35
12
5
0
0
22
1
13
26
-2
-25
0
1
1
-11
29
8
-18
-33
0
-20
7
-4
10
26
42
10
0
-21
5
-19
13
19
36
1
-5
-5
2
-4
-29
-7
-3
53
-4
-2
-16
10
0
-14
0
25
-12
4
-25
-13
-6
-8
-13
27
13
-13
3
3
-46
-9
-23
45
45
12
-14
-7
-19
-10
16
3
21
26
-8
3
1
-27
-5
5
25
-36
-17
-1
-47
-1
-35
1
37
-24
-8
-20
0
-16
4
-9
-6
2
-5
-28
16
-20
-5
-36
18
15
-24
8
-22
8
22
-50
19
12
-16
17
-13
-5
11
-23
18
-3
-19
14
18
10
15
36
20
2
-19
26
9
-22
-3
43
-13
-13
-23
22
23
-12
-24
9
-25
-17
-30
28
5
7
-13
19
12
-12
-15
21
4
-7
-10
22
-32
-13
-14
26
20
-3
-5
-13
-5
-21
-23
13
-2
-9
-16
4
0
-21
-6
9
-12
-7
-16
-12
-16
-10
3
17
10
25
-11
7
-19
15
-36
-9
13
10
12
-5
-5
1
11
-7
33
5
-14
-6
1
8
3
-2
-3
26
21
4
-7
-11
-34
-13
2
2
9
-1
14
-3
-13
37
-3
28
31
-4
-7
-1
5
27
-1
7
31
-21
2
-23
-20
31
-15
0
-4
4
0
-31
-28
5
-36
-10
16
7
0
2
-2
-12
-24
12
-7
34
0
10
-5
-14
10
-17
14
-4
0
-14
-16
-4
-19
-11
22
21
0
-5
0
-1
-24
10
18
54
0
7
-5
-4
13
-8
32
-7
0
11
-6
-3
13
-8
10
15
0
14
3
12
-21
19
11
44
0
-7
-22
-6
-16
-9
-10
-16
0
5
13
-15
8
-5
-1
-31
0
-13
10
-4
25
-10
33
-34
0
-10
14
26
-7
-14
23
-2
1
-5
-1
15
22
5
4
-26
0
-8
-10
14
29
7
3
-20
0
-1
-2
24
31
6
1
-9
0
-2
1
15
-20
-27
-26
-11
0
-18
-12
13
-1
-18
-9
-11
0
-6
-18
23
-50
-13
4
-1
0
22
4
36
-10
-5
-4
-24
0
4
-3
14
12
-2
7
-42
0
-16
8
12
23
10
17
-29
0
-4
2
35
-4
-4
-24
-33
0
1
1
28
-4
-1
-15
-35
0
1
12
21
-2
9
8
-44
0
12
-28
13
-3
-23
-30
-38
0
-3
-5
42
7
-13
-31
-28
0
-6
24
20
24
-6
3
7
-49
6
-31
-23
-28
15
-6
-16
-32
2
-13
-2
1
13
-8
-14
-20
1
5
-15
9
-1
-2
-10
-18
8
-9
-4
-16
7
29
-3
12
-6
4
-1
-3
10
-4
0
2
-6
26
-7
21
-1
-23
-11
-7
7
-24
4
-7
13
40
4
-4
0
-21
0
-36
-13
9
12
-12
-13
-5
-29
-25
-17
-19
-11
0
-28
0
-7
1
-6
33
7
0
-19
8
20
-12
-5
-2
-7
0
-36
16
11
31
3
-34
1
0
-8
-7
25
-9
-19
18
9
0
-10
-7
21
-19
-17
23
30
0
6
1
32
22
-8
7
-7
0
6
-4
22
-30
-12
1
-24
0
8
-8
4
13
-8
16
-30
0
6
-9
19
-11
-13
10
-8
-17
0
-14
-21
-34
-15
21
-17
-2
-4
-23
-2
10
-8
16
-8
-17
-6
-15
7
26
-20
40
-11
-15
-8
-17
-9
-7
-25
5
-31
9
-3
-31
-8
-19
-22
0
-31
13
-7
-21
-15
30
-12
22
-11
-22
13
-22
-18
-9
-43
23
-18
-9
16
-15
-3
-12
-48
-9
-38
23
4
-8
0
16
-28
10
-12
0
-3
-2
-3
-9
0
-21
-26
0
20
8
-25
16
12
-18
-30
0
28
23
-25
33
19
-34
-4
0
-12
3
-24
-20
0
15
-29
0
-15
6
-31
-11
-1
-25
-17
0
-16
16
-14
-19
10
-21
-9
0
-17
-23
-13
19
-17
16
-1
0
-23
-12
-33
-11
-9
-12
-38
0
-23
-1
-18
0
-2
13
-2
-29
-4
-15
4
-52
-13
-35
0
-29
-28
-18
15
21
18
1
-1
-26
-12
9
22
40
-7
5
-10
-9
19
-19
-19
49
4
-6
13
-21
7
-10
-2
6
-6
5
11
-12
-24
-3
5
20
16
-10
19
-23
18
-10
-30
1
-16
1
9
-14
2
-7
-11
-7
-23
-12
10
7
-13
-20
5
-14
-24
-25
-5
-35
-25
-26
-10
-27
-28
0
-4
-33
-29
-22
6
-32
-38
-12
-32
-13
-21
-42
-10
-24
-32
-33
-4
-27
12
-12
-11
-32
27
37
11
4
19
-25
2
10
28
10
-18
14
-7
-32
-15
53
27
16
3
0
5
-22
16
5
35
12
14
-4
-7
-24
0
40
22
10
21
38
-3
-6
-21
59
19
11
19
-9
-2
-1
-15
-36
6
1
-10
-29
12
-20
-1
16
-28
-17
-1
3
-1
-4
5
-41
-30
-5
10
-10
5
-5
7
-8
-16
31
7
4
-18
24
0
-5
16
17
-1
-11
-15
-3
-1
-3
-12
-13
33
24
5
-1
-18
-41
-8
4
5
3
-8
49
-3
19
11
-33
9
6
-9
9
2
-32
4
-50
-17
-11
-7
-50
12
3
-19
-6
-6
-11
27
-38
-21
-9
-10
-39
-18
2
-8
-46
-6
-3
-5
-7
15
9
0
-36
35
-2
-14
-22
27
0
-7
-24
18
-9
-44
-12
14
-8
-26
5
18
16
-22
-13
23
-9
3
-7
-3
-16
-22
-25
29
-10
-25
-6
11
25
-47
-18
17
-3
-51
-30
6
48
-18
-24
-21
-23
-14
13
-27
-25
-35
-1
4
-11
3
17
-16
-17
-9
5
3
3
-11
9
-14
-16
-33
-9
11
42
8
9
2
6
-14
-10
31
6
2
14
-10
10
-53
-1
29
56
4
-26
-18
32
6
16
-8
-22
19
10
0
-18
36
7
7
-19
31
30
10
-5
27
0
7
35
-11
31
3
-2
-31
37
-3
13
11
-30
10
-8
0
-34
7
-14
11
-19
-14
-35
-9
-12
11
3
-10
23
-5
-36
-21
-3
-6
15
6
-20
-11
-10
-3
-13
-1
-26
-8
7
1
-24
-29
-1
5
1
-2
-14
8
-14
16
-9
-5
3
-15
-24
-14
18
-8
-33
3
-26
-14
-30
-17
-2
29
-3
2
-12
-34
12
-21
-10
41
-19
6
-11
1
-4
-31
37
15
1
15
9
-1
9
-9
-14
-4
21
-9
-13
4
-19
-4
-10
-22
23
-1
-6
-8
-13
-29
17
17
-12
-6
-9
-15
-12
-5
3
9
-4
-14
-23
-28
-21
-28
19
-20
17
3
-5
-37
-15
-38
19
5
10
18
5
-37
-15
-23
8
-26
20
16
30
-29
-13
-15
31
-23
37
-8
-8
-3
15
-4
-31
-7
22
-21
8
8
-5
-10
-23
15
20
-1
-28
16
-13
-7
-15
-17
-7
-10
-14
-26
0
-27
37
-18
3
-17
-17
-27
-12
-27
15
4
2
3
-30
-1
10
4
-31
-22
-25
-8
11
-16
36
-17
-25
-10
50
-16
-25
-5
-9
-11
-52
-25
32
-8
-19
20
-25
13
-19
-26
-8
2
18
20
-1
1
-23
-9
30
-24
4
-3
0
-14
-24
-20
-14
-15
10
-18
-12
-7
-11
-37
24
9
-3
4
-19
6
-5
6
12
-27
16
-7
9
-11
-26
-24
23
-14
13
-3
-14
-6
-12
-19
25
1
28
-4
15
8
26
18
-26
-13
2
-12
10
0
9
-13
-16
6
22
1
-10
3
-17
6
29
-5
1
10
-40
13
-17
-6
-14
16
37
3
3
29
-7
-14
11
-9
21
15
-13
-3
3
-8
-11
24
-21
6
-10
3
-8
-32
0
40
13
-2
23
11
0
-16
-6
0
1
-28
9
39
-13
22
-15
16
-4
2
1
-10
-17
-27
-5
41
4
-22
39
8
1
-2
-6
11
10
-31
9
6
11
-4
-34
-2
-8
-13
0
32
-2
14
-12
-4
0
12
23
21
20
20
-5
-6
1
12
-29
34
7
-10
-14
9
-7
-9
16
38
10
7
4
0
-4
2
1
32
9
14
-9
7
22
24
-36
22
4
10
-7
1
-3
-3
1
-13
-4
26
-14
0
-13
-18
-28
7
13
8
-15
-9
-3
5
3
18
13
-2
17
-23
13
12
7
-15
6
14
-18
-1
-14
-14
-15
13
9
-25
-36
27
4
-11
24
-5
40
12
-14
-11
0
-21
-5
-44
1
7
-31
-3
-22
-5
2
-20
10
-10
-33
30
-19
-13
13
-14
13
-8
-25
-3
6
-27
3
-33
22
17
-5
-3
-13
-20
-8
-16
11
-20
-9
17
-16
20
19
-12
24
12
-18
-10
39
-13
10
11
-39
-16
-28
-3
7
-19
-6
20
22
-21
-54
7
19
-21
-16
16
-17
13
-22
5
22
1
9
5
-15
14
-10
9
36
-10
6
9
17
43
-8
5
29
-4
-14
13
-5
34
21
-8
-22
5
-22
-10
-19
4
60
5
-21
5
-16
-11
-19
-3
-1
-4
-14
-15
-19
0
18
-2
49
-26
0
1
6
-11
5
15
-17
-10
-6
1
0
-28
-12
34
-2
7
-8
-7
-26
-34
-4
14
32
2
14
-35
-9
-7
-13
-41
9
6
19
-15
-20
-4
-3
5
13
32
16
-16
-34
-8
10
-6
16
-2
-8
0
12
9
-8
0
14
-3
17
-23
8
24
2
-36
14
18
-11
9
-10
13
-2
3
9
19
7
4
-13
5
17
-3
-26
6
-1
2
-19
-8
6
-3
-20
17
17
7
-1
-41
30
-7
5
26
14
-27
-9
-5
45
10
1
21
26
10
-15
-4
-7
8
-7
9
3
9
-26
-17
-15
-33
38
5
-7
-28
-7
3
-10
-4
23
14
-6
-6
8
26
-7
-1
-41
-11
-20
9
13
12
-30
-12
11
-28
3
13
-40
10
20
23
31
-3
11
-14
16
30
24
-22
46
16
4
-7
29
40
29
-34
-2
-15
25
11
-42
10
32
12
-9
4
20
-4
5
-11
40
14
8
12
-5
11
-15
5
41
-16
-23
-11
4
24
21
-1
28
16
-16
-9
8
22
18
-11
35
16
30
-3
-1
61
39
-24
27
35
6
