7
-6
19
-34
0
-4
-51
-19
1
-4
20
-30
14
9
-27
7
1
9
-9
-28
-1
5
7
1
2
7
-17
-13
5
2
-29
-2
34
-10
30
-7
7
23
21
25
14
24
-13
17
-15
-5
59
-13
-11
6
-18
-2
-3
-12
-7
1
6
4
8
-12
38
0
-3
-8
-2
13
7
7
2
-14
-7
10
0
0
0
-1
0
1
0
0
0
0
0
0
0
1
0
0
0
0
0
0
0
1
0
0
0
0
0
-1
0
1
0
0
0
0
0
-1
0
1
0
0
0
0
0
-1
0
1
0
1
0
0
0
0
0
1
0
1
0
0
0
0
0
1
0
1
0
0
0
-1
0
1
0
1
-3
-40
11
-21
14
30
-7
-24
-17
19
6
17
16
15
-8
-19
-3
2
-18
11
-11
6
5
-20
7
-22
0
-27
14
36
35
24
0
6
4
-16
28
-12
-6
-14
-18
34
-10
19
3
5
-13
9
-19
-18
-35
-20
38
55
-31
-5
19
7
-2
-1
-7
28
-12
14
3
11
-42
2
-29
17
-7
-29
-30
-23
-4
-13
-38
-11
3
-13
-5
17
-12
4
-20
12
-9
12
-28
25
-11
13
-8
19
33
23
18
-14
-25
-3
9
-9
-12
-12
-11
36
-15
-5
23
-16
4
4
1
46
17
8
12
-2
13
0
21
-20
-5
-5
4
21
-14
6
-18
20
2
-3
6
11
-13
-2
16
-11
8
10
-11
27
-8
-1
0
0
0
0
0
0
0
0
0
0
0
0
0
0
0
0
0
0
0
0
0
0
0
0
0
0
0
0
0
0
0
0
0
0
0
0
0
0
0
0
0
0
0
0
0
0
0
0
0
0
0
0
0
0
0
0
0
0
0
0
0
0
0
0
0
0
0
0
0
0
0
0
-22
14
11
-1
-18
18
11
-2
-1
5
-7
-8
20
-21
1
-6
5
-10
3
-6
-1
-8
30
8
16
-11
-15
17
-3
18
-6
-12
16
35
-20
0
12
-1
-24
-2
5
-12
-19
0
1
12
13
17
19
-15
-2
15
-45
-9
14
-15
-6
20
18
1
10
-20
0
22
-29
-3
-4
30
-30
15
13
-2
-27
1
12
2
-21
0
-9
17
-15
16
-6
0
7
18
-13
1
9
16
1
-5
12
13
-4
-7
-9
12
-5
14
1
-23
4
28
-15
18
0
21
5
1
-3
-8
-9
13
-2
-4
8
23
1
-1
7
6
0
1
18
-26
3
5
0
24
-6
-13
-13
-11
2
-20
3
7
18
1
-6
15
15
-3
16
21
-12
19
-16
13
34
16
8
0
16
18
-8
31
13
8
-8
9
-23
-12
-25
-18
-13
-15
-10
-2
-24
-8
6
22
27
-6
21
-5
8
17
-15
11
-8
0
13
10
20
4
-1
11
11
0
14
19
1
2
-38
15
8
25
12
-23
5
5
17
23
7
-1
26
-6
-9
8
24
-25
-10
-12
0
0
0
0
0
0
0
0
0
0
0
0
0
1
0
0
0
0
0
0
0
1
0
0
0
0
0
0
0
0
0
0
0
0
0
0
0
1
0
0
0
0
0
0
0
1
0
0
0
0
0
0
0
0
0
0
0
0
0
0
0
1
0
0
0
0
0
0
0
1
0
0
12
-32
-50
-28
-4
-7
-15
-15
-17
-12
-40
-18
-20
-3
0
-1
-10
11
-19
-10
-17
-4
23
1
10
-37
0
-8
-11
-6
12
-6
-17
-14
-7
-11
-18
-17
27
-10
-5
2
-13
-27
2
-14
26
11
0
-24
-13
4
-4
13
19
12
-11
1
9
-24
-19
-9
16
19
10
2
-14
-1
-4
-10
11
13
-18
4
-19
15
16
7
11
24
0
-7
18
6
-30
-4
3
26
-2
-52
22
14
18
16
-2
3
3
22
6
22
28
4
12
-23
-15
-1
2
0
-5
7
-7
-2
1
8
-3
29
18
9
-21
-16
-2
7
8
-17
4
3
-5
-5
-27
-7
4
-5
-18
9
-7
-13
-7
1
-14
23
0
3
-43
-22
0
0
0
0
0
0
0
0
0
0
0
0
0
0
0
0
0
0
0
0
0
0
0
0
0
0
0
0
0
0
0
0
0
0
0
0
0
0
0
0
0
0
0
0
0
0
0
0
0
0
0
0
0
0
0
0
0
0
0
0
0
0
0
0
0
0
0
0
0
0
0
0
-20
-11
-8
-25
-8
26
-20
8
3
11
-14
9
-8
5
-11
11
5
-8
6
-12
-5
4
4
14
-9
-10
-4
-24
-16
23
4
0
5
-2
-7
16
-3
0
-6
5
-9
5
-5
0
-12
0
-10
-6
7
-7
-8
-15
-16
29
4
-16
13
-5
-2
-7
-10
-18
4
-2
-12
10
-13
5
-26
9
-15
-8
6
11
-2
35
6
6
5
3
12
8
13
-2
15
17
-14
12
-11
-8
3
8
-39
-7
25
-3
10
8
-10
-10
7
-13
-16
-4
25
0
-4
-1
3
-7
0
-2
-5
1
-3
-16
-1
21
32
15
16
12
5
2
-2
29
16
6
-2
10
-20
13
1
-11
0
-24
-13
-4
-3
-17
9
-11
8
0
0
0
0
0
0
0
0
0
0
0
0
0
0
0
0
0
0
0
0
0
0
0
0
0
0
0
0
0
0
0
0
0
0
0
0
0
0
0
0
0
0
0
0
0
0
0
0
0
0
0
0
0
0
0
0
0
0
0
0
0
0
0
0
0
0
0
0
0
0
0
0
0
-1
8
-28
7
-7
1
-5
-5
5
-25
-8
-16
15
-8
9
-13
-4
-30
-9
-1
11
-15
9
-13
20
7
-2
13
6
6
3
-2
4
-16
-9
0
-8
-2
10
6
18
-26
-1
-3
-15
5
32
-4
14
39
-4
-3
-1
7
5
-18
7
-6
-9
-17
-6
16
13
-4
27
-19
-16
-14
-15
4
-3
6
-16
-12
8
31
-5
3
-24
-28
12
-5
-2
7
33
8
-31
5
26
-5
19
-3
26
18
6
11
-7
-17
-21
18
-16
4
2
-16
-16
-3
25
-11
7
7
31
-6
8
2
4
-15
16
6
60
35
-24
-13
8
1
8
-5
24
-35
-16
19
10
15
-32
12
5
-19
-16
-1
-7
20
3
-1
-17
-8
0
0
0
0
0
0
0
0
0
0
0
0
0
0
0
0
0
0
0
0
0
0
0
0
0
0
0
0
0
0
0
0
0
0
0
0
0
0
0
0
0
0
0
0
0
0
0
0
0
0
0
0
0
0
0
0
0
0
0
0
0
0
0
0
0
0
0
0
0
0
0
0
-4
2
3
-43
-12
33
-15
-53
-1
11
7
-17
7
23
-8
-24
3
5
-13
-22
-12
18
-5
10
-9
7
13
-6
-7
19
-7
22
0
-17
6
-8
15
10
-12
16
-3
-8
-1
20
-8
22
5
45
-9
11
21
21
-2
-11
20
17
10
-10
26
-16
30
9
8
7
-12
-27
6
22
22
11
12
13
-24
-8
11
1
-2
-3
-27
30
-7
-3
15
-16
23
8
-6
19
-7
-11
-9
-18
-12
31
-21
5
-9
-13
23
-14
0
-24
26
14
1
19
-6
18
19
13
-10
-1
6
4
-16
-29
14
24
-7
-10
0
-9
26
17
-6
-5
0
12
-2
22
13
37
14
-15
8
-19
12
-6
-18
-19
12
30
13
-4
-5
7
38
10
7
-7
16
23
5
-19
11
-1
-11
15
-16
13
12
4
6
-16
-18
4
12
3
-7
16
2
17
14
1
-4
17
0
-10
-1
-8
22
1
-9
-5
-1
13
3
-28
29
8
5
-13
3
-9
4
15
16
-13
-12
4
-4
2
-8
9
-6
-7
-18
-21
-3
11
0
9
12
5
5
-10
-27
6
3
3
-10
13
-12
-29
2
11
-8
-1
-10
19
5
-2
1
26
2
-13
-2
0
15
3
-5
-14
-16
34
10
0
-22
-1
8
-8
-14
23
2
-6
-19
7
35
-23
-5
2
5
7
5
-4
16
10
1
-7
1
9
-12
-9
-2
10
-1
-5
17
-4
-2
6
12
-7
-11
-17
3
-35
7
0
15
7
-14
-10
3
25
-15
-7
-3
1
10
1
-11
2
-3
15
-5
-11
-6
-10
-1
-16
-9
17
2
3
-20
-32
4
17
-8
11
2
9
12
-14
-29
-5
27
16
-11
-12
3
-17
-18
-17
4
17
4
-13
-21
-22
18
17
-8
10
17
12
1
-1
-10
13
51
-2
-14
17
3
17
-4
-1
-11
10
17
-9
20
7
18
-11
16
-1
34
-4
12
-6
5
1
14
20
16
5
4
-27
1
-4
-3
24
19
-13
-14
-9
15
-19
0
2
0
-7
-13
34
-15
2
12
1
26
-6
3
-25
-12
-5
7
29
-29
-2
-18
-25
-14
-9
-17
-6
-16
-13
27
10
-29
-22
-6
-27
-18
-13
48
-15
-9
-1
18
-6
13
-13
19
-24
-8
10
-2
21
17
-2
15
-23
3
14
-7
7
-2
-16
3
-9
-1
-3
-12
2
24
11
30
1
31
25
13
11
17
22
33
12
34
-2
32
1
6
7
7
11
36
13
-9
-17
-11
-14
-19
1
-29
49
-4
20
-26
11
2
-13
0
-7
7
14
-4
23
1
15
-3
-9
30
3
8
23
7
-18
-10
32
-12
11
24
-1
24
5
-27
10
3
-9
8
-7
24
16
14
-29
54
-18
-1
32
3
-19
23
-18
-10
-19
12
11
-24
-42
-31
-23
-13
5
-12
15
-46
11
-17
-32
17
7
3
3
5
-7
-10
3
-26
3
-9
-5
8
2
-15
19
19
-10
4
10
7
-17
20
-2
4
1
-10
-6
-4
-27
31
11
-11
1
-20
-5
-16
-2
-26
-17
0
7
-12
-14
-15
-29
-27
-28
2
15
9
24
1
-30
-14
17
14
27
-15
-16
30
-1
-8
-3
28
48
-21
-11
-2
-24
3
-9
-21
5
36
6
9
-28
1
30
-6
1
26
5
1
-17
1
-21
18
19
12
1
-3
-28
1
-25
13
-1
-10
-15
24
0
0
9
-1
24
-17
13
10
6
17
6
3
7
-13
17
-10
23
38
20
-8
-4
-18
4
-14
-2
-31
-9
21
15
-2
-2
7
1
-2
-30
38
-1
-2
28
3
35
-19
-5
-7
24
-18
-36
-8
-17
-21
-17
18
-1
32
-16
-2
-11
-6
37
24
-7
15
3
18
-8
-10
58
8
-5
29
26
10
10
30
0
19
6
-2
15
2
-5
13
-12
-8
11
-29
-12
3
-4
-8
-6
1
4
13
10
-43
4
23
7
-14
3
14
36
-3
-3
5
2
15
16
-20
-24
24
-34
-13
7
3
-22
15
-2
4
7
-4
1
6
3
7
3
-22
41
27
8
1
-8
-9
-10
-11
19
-6
1
4
-12
-13
5
18
11
-8
-12
-16
-4
25
-13
6
-7
-22
-12
10
-9
-16
-3
9
-6
-8
28
-12
4
6
2
12
-2
3
-3
-2
-4
-2
-7
-3
-6
-8
-4
6
-4
-9
-14
3
15
-12
18
-16
1
-2
7
-1
1
36
-12
19
28
-17
7
-16
-12
15
25
15
4
-10
11
-41
-10
-6
-16
-4
20
-5
16
-18
-16
4
26
3
-11
-10
30
-20
3
-12
16
-18
-9
10
2
-20
-10
-20
30
-28
-19
27
-5
12
-38
3
2
-1
-1
17
-17
30
-24
-8
33
15
17
35
-26
-2
-49
27
39
-18
8
5
17
8
-4
-1
-7
-7
-25
10
9
1
6
15
-1
-15
13
-14
-30
34
12
6
19
23
3
1
29
-8
5
10
37
-8
-15
10
-5
-34
-1
-20
29
-3
-21
20
19
-15
5
6
-12
8
-6
1
-8
2
-10
12
36
6
0
-17
-6
-5
1
-27
21
-24
14
-7
17
10
-4
-22
3
15
-4
21
-13
7
-4
39
12
3
18
7
0
18
11
3
9
-5
-2
9
9
-6
-8
6
-10
-1
4
12
25
25
50
31
-20
9
5
-20
20
4
7
-10
13
-7
-11
-21
0
2
-22
-6
20
-12
-2
-27
11
1
16
-6
-1
-20
-6
1
12
-10
5
-12
9
-2
-18
-7
5
-5
-4
-5
14
-27
-4
-25
3
1
-31
-20
-11
-9
-14
17
-20
-24
1
19
19
16
0
3
-23
6
-4
17
19
4
-1
-7
4
18
23
-2
-1
-15
22
-16
-6
-12
2
-3
11
-2
6
2
-37
-17
21
20
14
1
-7
-2
14
3
0
-11
-10
29
11
10
18
-16
20
3
-7
24
29
-14
33
-42
8
13
-11
-13
38
33
-1
11
1
-10
5
-17
-3
19
33
21
13
2
10
-29
11
-13
-9
8
-12
28
6
-25
-35
8
-2
-3
12
3
-22
30
6
-19
14
26
14
-6
-12
12
-33
7
2
-13
23
17
-4
-9
1
-2
-15
0
11
20
-4
10
19
0
-8
-3
12
2
13
-17
-2
11
-7
5
2
13
2
-24
7
-20
5
-21
-9
-13
-10
31
16
-5
5
-14
-13
-21
17
-14
-30
10
-2
-19
4
-5
9
3
-6
-11
11
-20
10
23
7
-21
25
12
4
9
-4
0
-16
8
-4
22
5
-4
-33
14
-19
29
2
6
11
21
7
15
-10
-11
-10
-11
-21
2
1
-4
16
14
-6
-8
-7
-8
-11
-47
-1
23
6
18
24
1
-20
28
-4
-14
12
-9
-24
-6
-6
-11
6
12
28
-20
-23
-5
-19
-20
27
27
-14
0
0
0
-1
0
1
-1
0
0
0
0
-1
0
1
-1
0
0
0
0
-1
-1
1
-1
0
0
0
-1
-1
0
1
-1
0
0
0
0
-1
0
1
-1
0
0
0
-1
-1
-1
1
-1
0
0
-1
0
-1
0
1
-1
1
0
0
1
-1
0
1
-1
1
0
0
1
-1
-1
1
-1
1
0
0
0
0
0
0
0
0
0
0
0
0
0
0
0
0
0
0
0
0
0
0
0
0
0
0
0
0
0
0
0
0
0
0
0
0
0
0
0
0
0
0
0
0
0
0
0
0
0
0
0
0
0
0
0
0
0
0
0
0
0
0
0
0
0
0
0
0
0
0
0
0
12
16
12
35
9
1
10
-20
6
5
9
7
-4
2
-12
-16
-1
9
20
31
19
-20
20
5
7
6
-5
-3
-44
-1
18
27
5
-6
-17
-4
-11
4
10
0
-2
-1
2
-2
-2
4
11
-8
-10
23
7
2
-2
9
16
25
1
20
-5
-7
-9
12
15
-7
19
-8
-10
-32
4
-12
12
23
0
0
-1
0
0
0
0
0
0
0
-1
0
-1
0
0
0
1
0
-1
0
0
0
0
0
0
0
-1
0
0
0
0
1
0
0
-1
0
0
0
0
1
0
0
-1
0
0
0
0
1
0
0
-1
-1
0
0
1
1
0
0
-1
-1
0
0
1
1
0
0
-1
-1
1
0
1
1
0
0
0
0
0
0
0
0
0
0
0
0
0
0
0
0
0
0
0
0
0
0
0
0
0
0
0
0
0
0
0
0
0
0
0
0
0
0
0
0
0
0
0
0
0
0
0
0
0
0
0
0
0
0
0
0
0
0
0
0
0
0
0
0
0
0
0
0
0
0
0
0
0
10
13
45
15
18
-17
14
9
-2
-7
14
6
-15
-14
12
22
19
3
2
8
11
-15
-3
5
-6
2
-15
0
6
-9
-5
24
-17
16
11
32
23
2
0
28
-10
-14
17
-14
-5
-7
11
-6
28
-7
-4
2
-3
-2
-4
-2
9
-6
-5
-6
0
5
32
-19
-18
16
-23
-28
3
-9
-3
6
-21
12
0
-15
23
0
-24
8
-3
11
-3
4
-18
-9
27
15
-13
-3
-12
-3
-32
-7
27
3
-3
16
-2
17
-19
-14
-3
14
2
9
7
12
3
-11
12
9
-2
0
3
4
12
20
-5
-14
-31
23
16
34
-21
-12
-15
-8
-4
39
5
29
3
-17
6
36
0
-12
-9
-1
23
6
14
-6
-4
-11
-21
13
21
-26
17
-6
16
-7
-18
-13
37
-18
9
-7
-9
4
-10
9
29
-18
4
-3
-9
-4
-14
17
-18
-26
19
-1
0
1
1
-12
-16
5
37
-8
-7
-14
-6
5
11
-31
8
-2
2
6
-38
-11
-30
5
-22
3
-27
-4
-1
19
2
-1
27
43
-24
-29
-35
14
30
-28
9
0
0
0
-2
1
3
-1
0
0
1
0
-2
1
3
-1
-1
0
1
0
-2
0
3
-1
-1
1
-1
0
-2
1
3
-1
1
1
0
0
-2
1
3
-1
1
1
0
0
-2
0
3
-1
1
0
-2
0
-2
1
2
-1
1
0
0
0
-2
1
3
0
1
2
0
1
-2
1
3
0
1
0
-3
8
5
2
-7
29
16
6
-18
3
28
17
-11
29
-14
7
7
-12
-5
18
-6
3
10
16
-14
1
-7
25
-13
19
-15
8
1
3
24
-6
-6
11
-11
3
11
-1
7
20
-14
1
6
1
2
-11
-2
-15
-27
-20
7
11
-2
1
14
-21
-24
27
-1
12
6
0
2
2
9
-2
1
-13
-5
-16
9
-9
9
-3
9
8
-11
-20
-11
-5
-5
7
2
6
-16
-15
0
15
-7
10
-13
5
-19
-22
19
10
20
-15
-3
8
-11
-22
-4
20
7
-6
12
6
6
-26
-12
13
-13
3
-7
-24
2
-4
-17
16
20
0
-16
3
-19
-34
-10
2
-13
11
1
33
-9
-25
-9
3
-17
13
6
0
-1
-1
1
-1
-1
0
-1
-1
-1
-2
1
-1
-1
0
0
-1
-1
-2
0
-1
1
0
1
-1
-1
-1
0
-1
0
1
1
-1
0
-2
0
0
0
1
1
-1
0
-2
0
0
1
1
1
-1
-1
-1
-1
-2
-1
2
-1
0
-1
-2
-1
-1
0
2
0
0
0
-2
0
-1
1
2
1
-16
15
-4
-17
14
16
-5
-11
-20
19
-6
-25
9
7
-15
8
-31
-2
7
-13
-12
-7
-12
5
11
-7
-23
-27
14
22
-11
-3
-4
1
-14
-12
6
0
-1
15
-17
-4
-8
25
-9
-22
-5
22
22
-10
1
-21
16
46
2
-7
20
-15
1
6
22
4
-6
-5
-6
-8
4
9
36
-3
-3
10
10
7
33
-14
7
20
-14
-9
-1
18
11
1
14
-10
5
11
-2
-2
20
17
-3
-16
-6
31
15
12
6
1
-1
22
8
-17
17
31
12
2
-6
25
4
-5
-10
-6
19
3
-31
2
20
32
8
16
12
11
-4
24
11
16
2
4
-21
13
-14
20
-22
-4
-11
1
-12
-2
-66
-14
3
-19
35
16
-23
12
-24
-25
15
-15
4
24
15
32
-21
3
24
25
23
26
8
-2
-34
1
20
-7
7
-1
19
-9
-7
-6
-11
10
-7
13
3
22
8
-26
-11
28
-14
3
0
11
-14
17
0
-15
27
29
0
-7
7
-7
9
-11
7
-4
5
-25
13
0
-5
16
11
-3
-13
5
7
21
-6
-9
-3
17
7
-1
12
-17
3
12
6
2
5
-19
11
18
7
-23
17
4
-23
-24
23
5
16
3
-10
5
-13
23
16
1
16
10
14
-2
-19
-9
7
2
19
9
11
11
10
-22
-23
-9
-1
25
-45
-9
20
3
8
3
-11
-2
-14
5
-3
19
9
12
11
-1
1
4
-9
22
6
-7
-11
19
12
4
7
5
-27
14
5
-5
-2
-5
-1
-6
11
20
-15
6
-15
14
-15
-15
0
25
-26
12
6
7
-4
-22
-26
16
19
-14
8
-11
-5
-14
-5
14
-17
-15
-4
-2
5
-12
17
1
-9
12
6
9
-7
4
-1
-10
15
5
-10
1
-10
5
-5
12
-5
-12
11
-24
8
10
-7
19
-9
-16
-29
-16
35
9
12
6
-13
-1
7
1
-23
2
21
-5
-11
-2
-17
14
1
-1
25
22
-7
9
-21
-2
-7
-4
3
-1
-6
-6
-12
-5
0
5
-27
6
22
15
-7
21
-1
11
36
11
14
-20
15
-5
-8
-7
-26
0
-14
-23
2
16
2
3
1
-7
12
11
-2
7
-16
-1
-16
-13
5
7
-13
2
-17
-13
6
17
-1
18
0
14
-26
-6
5
11
8
-4
11
9
-9
-4
-21
-3
22
15
-15
-11
13
-5
21
20
-5
20
-5
-2
6
-15
25
8
-21
13
7
-2
9
-4
20
-19
7
2
1
-12
8
13
35
4
-6
1
17
-10
-5
7
10
35
-29
2
23
-16
-7
31
36
19
-11
6
-8
-33
-3
-20
-10
17
-8
11
2
9
-6
-25
-5
8
5
9
-23
0
-7
2
-12
-28
-2
3
-7
-3
4
-13
10
17
-20
-6
-9
6
5
-28
5
13
4
2
-5
-1
-4
21
-39
-12
3
0
11
0
-6
-19
-3
16
-22
-11
7
35
-11
-31
-24
20
21
-17
-2
9
-14
-10
-59
-25
-9
17
-17
15
0
5
-10
-7
6
19
-3
5
-9
1
5
-9
-16
11
7
14
-25
-35
1
-2
-11
12
-4
5
10
22
3
0
6
47
7
-8
20
-7
7
8
11
10
-4
-10
4
-27
29
8
-31
8
-6
-1
13
21
4
-13
-21
5
19
-11
3
8
14
12
2
-7
9
-14
-15
-3
7
13
23
3
31
-3
13
25
21
-8
15
15
17
19
-12
13
-10
1
1
-9
25
29
-23
18
-14
-1
-7
-2
-1
11
-16
12
2
-9
-10
11
6
4
-35
16
5
0
-14
-3
20
14
-24
32
1
8
-12
5
-18
-9
-6
-18
2
-13
-33
-5
-27
2
0
1
-10
-18
-20
-3
-40
24
0
7
4
10
-1
1
19
-19
9
-22
-5
0
6
0
-11
-1
-28
6
16
10
-6
-17
6
-1
-28
-8
-9
14
8
-11
24
-9
-11
-6
2
-2
-6
4
15
9
-13
7
10
-7
-27
-8
-2
-4
3
10
-16
8
-27
-17
6
-3
-15
-21
-27
-1
-7
11
18
8
4
-2
0
-7
-23
12
-15
21
7
3
-1
36
-26
6
5
0
-22
-15
28
9
16
27
10
-14
-19
-18
-4
-8
15
2
18
13
-30
-32
14
-10
-6
2
-8
2
-22
-20
-8
-1
14
1
-8
-5
6
3
3
17
13
-6
1
22
-8
18
-2
6
4
2
23
-11
-7
-7
-7
-41
-18
-11
15
10
-16
20
-9
-18
-20
-11
5
4
-11
4
-1
-9
9
-27
0
0
0
0
0
0
0
0
0
0
0
0
0
0
0
0
0
0
0
0
0
0
0
0
0
0
0
0
0
0
0
0
0
0
0
0
0
0
0
0
0
0
0
0
0
0
0
0
0
0
0
0
0
0
0
0
0
0
0
0
0
0
0
0
0
0
0
0
0
0
0
0
-5
-1
-5
-31
-12
-20
-36
15
7
-16
-6
-21
16
-12
-32
-2
-1
4
-25
-29
4
-36
3
17
9
-4
-2
-41
-7
-8
-19
-11
18
0
-6
-19
-17
14
-16
-3
-10
-10
7
19
-8
-4
-2
8
-11
-16
-13
-14
-19
18
-2
-25
0
-4
-5
-4
-22
22
-7
-6
4
13
17
-5
-2
15
31
22
7
10
15
2
5
9
29
4
-21
13
-11
36
16
9
-6
-9
19
16
7
6
19
20
-7
-9
12
8
-5
-5
7
20
10
16
8
-2
-15
-5
16
2
-22
7
1
3
13
-24
-7
19
-1
-15
2
12
8
20
7
16
-2
1
-14
-8
-14
-19
21
22
-21
-17
8
6
6
-28
8
18
-1
3
0
0
0
0
0
0
0
0
0
0
0
0
0
0
0
0
0
0
0
0
0
0
0
0
0
0
0
0
0
0
0
0
0
0
0
0
0
0
0
0
0
0
0
0
0
0
0
0
0
0
0
0
0
0
0
0
0
0
0
0
0
0
0
0
0
0
0
0
0
0
0
0
32
-29
-1
-36
-29
2
2
-3
-18
10
22
-13
8
-10
8
-13
-1
37
19
-6
-17
-17
-17
19
3
-13
-24
-6
-15
10
-21
1
-14
-1
-13
-3
12
-3
-4
-14
10
5
12
-8
34
-9
9
22
14
-20
-46
-12
-12
35
-3
-2
-5
5
-6
1
-23
5
-10
20
10
5
23
9
36
-8
-4
3
3
22
-32
-3
6
20
-4
14
20
-4
-16
17
-13
12
19
9
-1
9
17
18
-2
-22
1
-20
5
0
5
6
21
36
-9
4
-12
23
0
14
-19
12
11
16
-2
-2
13
0
-5
-18
16
7
1
-12
-1
6
-14
1
10
8
-21
-12
0
-4
-13
-28
26
-17
6
-19
7
10
-21
-28
24
-1
8
-5
-9
47
-15
8
8
39
8
9
13
-14
20
36
8
-31
22
7
30
-26
11
-8
30
-1
-7
9
-7
11
13
14
-20
6
-4
-1
-19
-22
-34
10
14
10
-2
16
25
-35
26
5
25
19
-11
13
25
9
-23
39
13
-24
-31
-14
19
-29
-6
23
6
13
-6
-10
-15
-17
37
21
8
21
-30
25
-13
-7
-7
-4
-14
-1
-15
8
17
-15
6
4
-9
-5
-7
-8
20
1
0
1
1
-16
-3
7
13
5
-4
9
-6
14
5
-8
8
-5
0
22
-17
19
8
-16
31
-1
14
10
1
18
1
9
-5
-6
-19
8
-12
2
9
3
8
12
-18
-27
23
12
-9
-13
33
27
29
-24
15
17
-18
-27
0
1
-5
-20
-31
29
-8
20
11
-17
18
9
11
-9
-16
5
-7
-5
8
-28
-4
15
5
30
3
-7
-9
-14
0
-6
-2
-14
-8
-20
-11
7
-5
-15
-20
-19
23
-25
3
-32
-4
-7
-2
35
0
-11
11
-38
33
-12
28
25
-21
-18
25
-37
2
-7
34
-40
-20
-6
16
-15
3
16
-4
-23
-8
-25
15
-13
-6
25
-22
7
16
15
28
19
-20
8
-6
6
-5
46
4
37
2
7
-5
18
-15
-1
-20
-18
1
0
16
28
-15
4
5
15
-36
-2
14
-9
21
10
21
-3
-8
38
21
29
13
12
3
-22
-30
-4
-14
-7
-14
-16
15
-11
-32
11
-25
-32
-13
-25
-4
-9
40
-1
16
-2
3
10
-8
-10
-2
11
7
8
-12
-3
-6
-6
-15
10
-4
-14
-11
-4
4
0
6
-1
1
0
-21
11
6
-1
-14
9
4
20
-16
11
-5
-2
-18
2
4
-3
-11
-4
1
-6
3
5
15
4
0
-1
12
0
14
10
-1
0
29
-10
0
23
-10
-7
-5
1
-6
-8
-3
-7
11
-12
3
-11
-29
10
0
-1
-25
-7
-12
-22
18
-7
13
0
16
-4
13
-28
-12
32
14
-12
11
3
-5
9
-30
-24
4
-5
-19
2
-19
-20
-3
-21
3
17
5
0
31
13
2
-3
-18
-23
-11
1
9
26
-29
0
26
7
21
18
-15
13
-11
6
-20
-10
13
16
-25
13
16
-11
-3
-15
7
3
13
-4
-4
9
27
-25
2
2
-8
-8
-11
-26
-3
11
10
11
-33
4
6
14
-11
-11
-21
16
17
6
13
-21
7
-1
1
2
20
-13
40
-19
7
17
28
38
-13
-10
3
-5
6
-8
-6
32
7
0
-30
-14
-13
-3
-21
-1
24
23
-3
-28
3
-21
14
4
3
-12
14
-21
9
16
9
-9
-10
-4
17
-16
-12
11
-11
3
15
4
5
-12
9
7
-20
-3
12
-11
4
-18
22
17
-10
20
-6
5
-3
-9
-21
-12
0
-22
-1
14
15
-10
9
4
1
-9
4
-8
12
4
38
-13
0
-4
19
18
9
-7
-16
-23
1
-5
1
4
0
-1
-7
-7
8
20
-10
11
6
-3
-9
-19
6
22
12
-7
25
1
-7
23
11
-10
-3
0
0
-16
-6
39
-20
2
8
1
15
-8
12
15
0
9
-6
-6
25
14
0
3
9
9
-8
1
-1
3
4
16
0
-22
2
6
-15
-1
0
10
-5
-14
-8
-8
11
21
-20
-7
17
14
-6
9
-1
15
-11
13
23
-12
8
-10
11
0
22
17
-15
-9
15
13
-16
4
22
1
-7
14
18
30
-38
-11
7
4
12
14
-6
-16
3
-12
4
-20
13
9
-16
9
18
26
10
0
4
4
-22
-2
-10
1
11
-15
26
-21
-36
-2
2
13
-11
-39
4
11
-7
-20
-23
13
15
0
11
-6
-7
-4
-9
8
4
4
-1
-18
1
-18
-11
9
5
-21
0
2
31
3
13
-4
0
-4
1
12
-19
2
21
6
-4
-12
-3
7
-11
-20
-8
-5
-26
-18
32
7
18
-1
1
12
-15
30
-10
-9
33
-6
6
-1
10
17
-7
-9
33
10
-4
-20
3
10
5
6
20
15
-21
-6
39
34
3
9
-11
20
-25
-26
-17
2
-10
2
3
-25
4
-17
-9
3
26
-1
12
-17
-22
-7
28
12
-3
-11
25
9
-13
5
7
-8
-10
-2
1
-8
11
-6
-14
-19
7
-9
-6
-13
-4
-21
-10
13
-10
4
0
16
-23
-18
-7
0
-5
10
-4
6
-4
1
-6
-1
-15
-15
19
-27
0
-8
-7
-12
-15
-21
9
1
-10
-13
-2
2
-2
9
-13
22
-13
13
1
8
-19
8
-20
-5
-12
-4
10
16
0
16
7
-5
-7
-11
-5
-5
-5
14
8
1
22
-12
-5
1
23
-2
-37
-3
-9
-21
11
19
-16
-18
-15
10
-22
-7
-17
39
-7
-24
-11
21
13
5
0
10
42
0
-9
-18
13
4
-14
12
-12
1
-10
-27
11
-29
-27
-28
-34
45
9
4
-40
-13
-4
-2
-36
48
0
1
-1
-2
0
2
0
0
0
1
-1
-2
0
2
0
0
0
2
0
-2
-1
2
0
1
0
1
0
-2
0
2
-1
0
0
1
0
-2
0
2
-1
0
0
1
1
-2
0
3
-1
1
0
0
0
-1
0
3
-1
1
1
1
-1
-2
0
3
-1
0
0
1
0
-2
0
3
-1
0
5
4
14
12
-2
1
-8
10
11
-3
9
3
5
11
8
11
-10
11
-2
0
8
14
21
-4
-2
-4
2
6
24
4
-7
3
-16
-2
-11
2
4
-5
-12
2
-25
-11
-8
-2
9
-7
5
7
-5
-4
47
-4
-1
-7
33
23
-4
-24
41
13
19
-24
10
20
23
-18
27
-22
13
-3
-8
5
13
3
-8
11
-19
13
-2
-15
-13
-3
-17
-3
0
16
1
-8
-8
-20
-7
-25
-1
4
5
12
16
1
-6
19
-34
-3
-2
14
13
6
0
-12
11
-10
4
2
-18
-49
-21
-9
8
-15
5
-12
11
28
-19
1
9
-26
-14
19
18
-33
16
-26
29
-44
17
-13
-22
-35
1
-9
13
-15
-4
-3
0
0
-1
0
-1
0
2
2
0
0
-1
-1
0
0
2
2
0
0
0
0
0
-1
2
2
0
0
-1
0
-1
0
2
0
0
0
-1
0
0
0
2
0
0
0
-1
0
0
0
1
0
-2
-1
0
0
-2
-1
1
0
-1
-1
-1
1
-1
0
1
-1
0
-1
-1
0
0
0
1
-1
6
-14
-7
2
-21
1
11
5
-21
-6
-7
-2
-20
-16
7
0
-2
1
-7
0
-1
-8
23
3
0
11
-7
-3
-5
1
9
-8
-11
-1
1
1
-9
-18
-6
-16
-1
0
-15
11
-11
-10
-3
-5
8
5
-9
-13
47
11
-10
14
-21
11
-35
-13
4
-16
-15
36
22
4
1
18
6
-10
2
12
2
-16
4
-42
4
11
15
1
11
3
1
-21
7
-22
-28
15
-6
7
-3
-18
-13
-4
-22
13
0
21
-14
-14
4
-15
24
18
-7
14
3
-11
-3
-4
-24
-35
-28
-3
32
11
6
20
-14
-26
34
-6
-5
-1
34
-3
6
36
26
-5
20
-27
-17
5
13
3
5
-7
-33
-22
-20
0
-14
-12
-27
6
15
-6
-3
-15
-22
-6
-8
-4
4
2
36
9
-8
24
-6
-5
4
-2
9
3
-6
16
-10
8
9
-14
8
8
-41
3
10
9
0
-5
-11
17
-2
5
-8
15
-9
-13
5
-4
0
-9
-9
-24
11
28
-3
21
17
-17
32
-4
-1
31
-4
54
-6
14
25
14
-11
-5
14
6
-3
1
6
10
-18
-5
-9
24
12
1
-10
1
-1
0
5
13
8
-15
14
15
20
-20
8
39
26
-7
-6
5
-8
-22
2
-5
14
10
-10
20
-10
-24
-20
1
-26
3
-31
18
2
7
15
-11
-22
1
29
5
5
-4
20
-21
-2
21
8
2
57
-36
14
-18
15
35
-17
-6
9
-40
8
-10
-15
68
11
16
2
6
8
6
-3
31
-4
7
23
8
-5
15
-2
16
-10
-9
-6
22
-17
-5
-12
15
3
-4
7
-17
6
-15
12
9
10
-9
-5
13
-9
-4
-12
12
-18
-10
-27
13
-5
8
-17
5
-8
11
24
-8
2
-6
49
7
-8
3
-12
3
6
7
17
-6
-20
-17
-16
-18
-6
-14
-18
-2
39
15
1
43
-14
-6
15
-4
-4
-6
-18
23
6
1
4
0
-13
-6
-16
-13
-24
3
-5
6
27
7
-14
-8
3
-15
10
19
23
-16
-7
1
13
-7
-7
-2
9
6
-32
-16
-9
-6
10
0
22
9
-1
-4
1
14
-1
19
-6
-2
8
-14
5
1
1
6
-17
-4
10
-9
-8
-1
20
-10
-21
2
4
-10
8
-2
6
5
-9
-9
-7
-7
2
11
11
0
-22
31
3
-18
1
2
6
21
8
-8
-35
-5
17
21
5
-6
24
-35
36
-6
10
2
19
-8
-18
-9
-3
-15
7
-11
-26
13
-3
4
7
4
-1
20
43
1
13
-20
-11
18
6
22
24
-8
-6
-27
-5
-7
-16
-29
7
28
0
0
1
-1
1
2
-2
1
0
0
0
-2
1
2
-1
1
-1
-1
0
-2
0
2
-1
1
0
1
0
-1
1
2
-2
1
0
0
0
-2
1
3
-1
1
0
0
-1
-3
0
3
0
1
1
0
-1
-1
1
3
-2
1
0
0
0
-2
1
3
-2
1
0
1
0
-2
0
3
0
1
17
-10
-39
6
16
36
-3
-10
-12
26
5
-1
-40
4
20
-36
-19
-7
17
1
33
-41
-28
1
-30
31
14
-12
16
-21
-3
-9
-22
-29
-5
-45
2
15
-4
15
31
-6
21
-5
-7
-23
-16
25
6
-25
5
-14
32
-30
29
43
30
-26
-16
-17
9
30
51
36
37
57
48
-21
-3
-51
-12
-20
11
-4
4
-12
15
10
7
0
20
7
3
20
10
-13
1
23
-21
-20
8
7
-20
28
28
18
-1
-29
-1
-19
4
16
-7
30
7
2
9
5
1
-12
23
16
-30
-14
-5
23
-24
-23
-1
-5
20
0
0
-20
42
36
-9
-1
1
-15
29
-11
-30
-25
18
5
-23
-19
-30
-11
-59
-51
-48
12
0
0
-2
0
-1
-1
1
0
0
-1
-2
0
0
0
1
0
-1
-1
-1
0
0
0
1
-1
-1
0
-2
-1
-1
-1
2
1
0
0
-2
0
0
0
1
1
0
-1
-1
0
1
0
1
0
-1
-1
-2
0
0
-1
2
1
0
0
-2
0
0
0
1
1
0
0
-1
0
0
0
1
0
-32
-2
21
0
16
-14
-37
21
-17
-6
36
15
-5
32
-19
-1
16
10
-3
58
39
2
-17
5
-14
32
-28
18
8
12
-13
14
-18
2
1
-5
20
0
0
7
-15
19
-8
39
1
-17
-22
-17
15
-8
12
-14
11
13
36
18
-14
-3
-9
-11
-12
43
35
14
32
-29
-4
25
-1
19
-40
-10
-18
-12
-22
1
18
-9
14
12
23
0
-18
19
18
2
1
27
2
-8
13
-6
5
7
-42
10
-24
-12
5
13
-12
17
15
2
9
30
20
13
0
3
18
-12
-17
-22
-18
-13
-7
23
-37
-8
-6
-13
-12
-4
3
35
-5
19
-7
18
7
8
18
-32
-24
-5
-19
-14
-9
-19
-1
13
-9
-7
2
-3
-26
-9
-9
10
-17
8
13
-1
7
-2
1
-3
-9
-5
8
-2
-1
4
19
4
5
3
-14
3
-49
31
-15
-6
13
18
-6
5
-18
-8
-21
21
17
-28
7
-11
-18
29
-13
8
18
-10
-1
-22
1
8
15
24
13
35
8
5
11
-8
4
44
-13
-15
6
5
-10
-15
-12
30
-10
-9
-4
1
3
1
12
4
-13
-1
-22
-5
-29
16
16
-5
7
-5
7
1
-18
-7
-8
20
-5
-16
16
4
15
-9
17
15
-6
-9
2
9
9
3
8
26
6
11
49
13
-13
10
13
30
10
-14
-20
10
9
25
11
13
-15
-30
-41
-1
-14
-3
5
30
-13
23
85
17
13
-2
20
5
13
-7
0
10
-41
-54
3
10
-40
49
7
-13
-24
-43
-10
35
15
46
-9
0
-44
-52
16
26
-6
49
-18
-16
3
-7
10
-29
-50
25
11
-14
-18
-5
-2
-23
-18
2
-5
13
8
0
12
-35
-30
-4
-3
-17
7
34
-35
48
46
-30
47
-10
20
-1
8
-20
91
-16
25
2
-15
-32
7
9
40
-20
-19
-9
-4
7
1
23
-10
9
-14
12
-11
-12
-24
21
8
15
4
-1
-1
-2
-11
17
-17
-13
-6
-7
41
4
-36
0
23
-6
-17
12
3
2
-17
-22
0
-12
16
-15
54
21
-5
9
0
-12
-14
-18
-7
10
-25
21
18
-9
-2
-11
8
4
12
0
-4
6
-4
-24
-5
44
-14
1
-4
-8
8
-7
-3
-16
38
23
11
18
0
26
-4
25
-5
27
-2
-5
12
19
-16
-14
-38
-14
-13
22
10
-28
5
-21
1
-3
-10
-1
4
6
4
10
-3
4
11
5
-13
1
-30
-22
-2
14
-9
12
-5
0
9
-6
-12
-25
-27
24
4
-23
-8
-15
21
-27
42
14
-10
-27
-3
-2
2
61
33
7
-8
-15
-23
9
-11
-12
-19
5
-3
-24
-18
14
-15
5
13
-2
-21
-15
-30
-6
-15
-6
21
0
-23
1
-1
5
14
-9
28
-4
-25
-18
-5
-2
3
30
15
7
5
-17
-19
2
12
-6
-2
-3
51
7
-29
3
2
-35
-18
-36
11
23
-30
14
24
14
-11
-13
31
14
9
-4
36
-4
-1
-27
0
0
0
0
0
0
0
0
0
0
0
0
0
0
0
0
0
0
0
0
0
0
0
0
0
0
0
0
0
0
0
0
0
0
0
0
0
0
0
0
0
0
0
0
0
0
0
0
0
0
0
0
0
0
0
0
0
0
0
0
0
0
0
0
0
0
0
0
0
0
0
0
0
0
0
-1
1
1
-1
-1
0
1
0
-1
1
2
-1
0
0
0
0
-1
0
1
-1
0
0
1
0
-1
0
2
0
0
0
1
1
-1
0
2
0
0
0
0
0
-2
0
2
-1
0
0
1
0
-2
0
2
0
0
0
1
0
-1
0
2
0
0
0
0
0
-1
0
2
0
0
0
0
0
-1
0
1
-1
0
0
0
0
-1
0
1
0
0
0
0
0
0
0
1
0
0
0
0
0
-1
0
1
-1
0
0
0
0
-1
0
1
-1
0
0
0
0
-1
0
1
0
0
0
0
0
-1
0
1
-1
0
0
0
0
-1
0
1
-1
0
0
0
0
-1
0
2
0
1
0
0
0
0
0
0
0
0
0
0
0
0
0
0
0
0
0
0
0
0
0
0
0
0
0
0
0
0
0
0
0
0
0
0
0
0
0
0
0
0
0
0
0
0
0
0
0
0
0
0
0
0
0
0
0
0
0
0
0
0
0
0
0
0
0
0
0
0
0
0
0
0
0
0
-1
0
0
0
1
0
0
0
0
0
0
0
1
0
-1
0
0
0
0
0
1
0
0
0
0
0
0
0
1
0
0
0
0
0
0
0
0
0
0
0
-1
0
0
0
0
0
0
0
0
0
0
0
0
0
0
0
0
0
0
0
0
0
0
0
0
0
0
0
0
0
0
0
0
0
0
0
0
0
0
0
0
0
0
0
0
0
0
0
0
0
0
0
0
0
0
0
0
0
0
0
0
0
0
0
0
0
0
0
0
0
0
0
0
0
0
0
0
0
0
0
0
0
0
0
0
0
0
0
0
0
0
0
0
0
0
0
-1
0
0
0
0
0
11
-2
-21
-45
-5
15
-29
13
-7
8
-28
-33
7
30
10
15
-4
-17
-12
-9
15
16
-13
8
-1
5
2
-55
22
10
24
-8
-1
5
7
-7
19
26
-7
27
1
-8
11
8
13
32
30
4
33
23
4
24
-31
52
58
-17
-11
-8
-1
-1
-14
-26
9
4
-19
10
-14
33
-9
-44
-1
36
-41
2
3
2
19
-30
-12
-42
-4
30
-36
27
7
-32
-18
22
-22
30
7
-4
1
-11
13
-9
-3
-20
11
-17
26
-9
-40
-1
34
-9
9
-2
-8
34
-1
21
-16
-14
-10
-18
22
-16
5
-34
4
44
-5
16
-22
4
-39
-8
31
40
71
-28
6
-23
39
63
29
12
22
-36
-4
-7
42
60
17
-14
9
-15
29
-2
-3
27
11
8
1
-16
6
10
-18
21
20
9
-7
-5
1
8
-6
-11
26
15
7
10
29
4
69
-15
0
1
22
-9
-11
-13
-28
3
-11
6
11
-5
11
28
-26
-13
-25
-26
15
60
49
-34
24
7
-20
-5
11
-21
17
1
-29
1
-3
-5
15
14
-37
42
-7
-9
-11
-7
-18
-25
-7
-11
9
15
-1
2
0
-10
18
-1
24
8
-16
-8
-30
-13
17
3
-17
11
4
-11
-23
5
38
8
26
11
28
0
-32
4
8
-12
9
-12
15
16
17
27
19
-42
1
-12
-43
-14
-11
-5
16
20
-27
-14
13
-11
-25
19
30
18
17
-45
20
3
81
44
19
9
8
-28
13
-23
-2
8
-33
-2
-12
-17
-19
-1
-12
23
-16
25
-7
-3
-50
-20
20
4
32
16
12
9
-19
-33
-2
-25
-31
-18
-38
-1
-28
-2
37
9
31
-23
7
-23
-23
41
-35
-19
-6
9
-1
37
24
2
-24
2
-47
-5
-16
-7
7
31
-5
35
4
-39
39
-17
-2
9
10
6
38
27
45
3
-15
26
-23
10
40
33
11
23
-3
14
-10
5
-2
-7
2
2
-11
-2
-13
-1
-16
11
7
26
-21
1
-4
-17
12
3
-1
21
5
12
-30
-1
-7
-4
-2
-2
16
-3
-34
2
-36
12
-4
15
8
-12
2
-13
-26
-30
-20
24
1
4
1
-14
-19
-23
-20
-3
17
0
6
-28
-24
-12
-3
20
17
13
14
43
26
-16
-8
-14
9
-23
-1
19
-4
9
-9
-11
18
20
-8
6
6
16
19
-26
-5
5
11
-6
-11
-16
-20
3
14
18
6
-13
-32
-15
34
34
-11
13
11
2
9
-12
8
21
-10
9
-15
-5
-4
3
-29
23
-32
-1
-14
-23
-4
24
30
-7
-6
-4
4
2
48
-1
-15
-1
0
0
0
0
0
0
0
0
0
0
0
0
0
1
0
0
0
0
0
0
0
1
0
0
0
0
0
0
0
1
0
0
0
0
0
0
0
1
0
0
0
0
0
0
0
1
0
0
0
0
0
0
0
1
0
0
0
0
0
0
0
1
0
0
0
0
0
0
0
1
0
0
4
-20
-15
-37
2
-24
5
32
-1
5
-17
-24
-11
6
9
9
17
2
-2
-37
8
6
6
5
16
-9
14
-8
6
1
-29
8
-13
9
7
-2
-1
29
-11
26
10
9
6
-36
3
14
-2
-2
-13
-14
-4
78
19
-8
97
2
13
8
-19
-31
-9
13
-21
-5
10
19
9
-12
-9
-15
23
12
-26
1
9
6
23
7
-16
0
13
27
0
23
-14
-7
16
23
-10
19
13
-8
16
8
-17
2
-9
10
-2
-3
-3
2
-6
2
-5
-2
0
10
16
-12
20
28
-16
20
16
-13
12
25
6
19
37
-5
-6
-14
-18
-17
28
2
0
4
11
11
26
9
20
-10
0
2
-8
24
19
25
-29
-5
0
0
0
0
0
0
0
0
0
0
0
0
0
0
0
0
0
0
0
0
0
0
0
0
0
0
0
0
0
0
0
0
0
0
0
0
0
0
0
0
0
0
0
0
0
0
0
0
0
0
0
0
0
0
0
0
0
0
0
0
0
0
0
0
0
0
0
0
0
0
0
0
-42
-23
-9
13
15
-15
13
13
-7
-7
-15
-4
-12
-11
-3
-4
-16
-15
-12
-30
5
6
13
4
-36
19
9
7
22
4
-4
44
-4
-19
23
15
-4
-5
16
21
-5
-12
-57
-13
21
-2
-9
12
-17
-51
-29
-12
20
-20
6
14
8
-27
-19
11
17
-28
4
-6
40
47
46
-14
31
-9
16
-47
13
-2
13
-8
-14
47
11
-12
19
12
3
5
5
11
-4
10
0
18
10
9
-23
-17
-18
0
19
-15
9
-1
2
57
-9
7
31
13
-1
-25
20
13
14
26
18
19
1
-3
20
0
9
14
7
-9
8
4
-3
44
7
1
11
-3
6
-33
22
5
-2
-6
1
11
-8
3
15
-14
5
30
0
0
-1
0
0
1
0
0
0
0
0
0
0
1
0
0
0
0
0
0
0
1
0
0
0
0
0
0
0
1
0
0
0
0
0
0
0
1
0
0
0
0
0
0
0
1
0
0
0
0
0
0
0
1
0
0
0
0
0
0
0
1
0
0
0
0
0
0
0
1
0
0
6
11
-11
-5
13
-3
12
-28
-9
36
7
-6
-1
4
-7
1
18
12
-12
13
-19
10
10
4
-10
1
0
-2
-8
-21
20
13
-6
-16
-3
7
-19
-11
-6
10
-1
-13
2
5
7
-6
20
2
2
6
26
6
8
-34
24
0
0
-38
8
-9
19
-21
0
20
13
15
17
1
2
-6
13
-7
-20
-16
9
9
-23
-3
-8
14
-6
0
15
4
-13
15
-13
5
22
42
16
30
3
10
10
21
-4
-18
-18
4
-15
3
-1
-1
-18
-20
-31
2
-15
32
-2
-2
4
26
-6
-1
6
-4
6
25
-10
3
4
-5
0
10
1
-19
4
-39
-29
-2
12
30
4
16
-3
-5
-23
-10
24
6
-12
17
0
0
0
0
0
0
0
0
0
0
0
0
0
0
0
0
0
0
0
0
0
0
0
0
0
0
0
0
0
0
0
0
0
0
0
0
0
0
0
0
0
0
0
0
0
0
0
0
0
0
0
0
0
0
0
0
0
0
0
0
0
0
0
0
0
0
0
0
0
0
0
0
3
-5
14
25
10
6
7
5
3
2
7
14
3
8
-2
-16
5
-3
14
3
4
0
-3
1
19
-17
15
-22
6
-8
12
3
16
9
-1
-15
-4
-18
-15
27
-13
2
14
-7
2
-3
-14
-1
3
-6
10
25
10
8
-13
-2
-6
-2
-6
4
-3
3
-19
21
-18
-7
-3
-15
0
27
0
-16
2
13
9
-17
3
3
-10
-5
5
14
2
-21
3
10
-26
-26
5
0
-16
-27
-3
4
-27
-5
7
-2
3
-5
-1
-2
-5
17
-6
-1
4
-9
-8
5
-14
3
-12
-16
6
-16
-15
14
-7
9
2
3
12
-10
1
3
-14
16
-1
0
10
16
0
-6
4
0
-16
-9
-6
-6
11
-6
-16
-6
4
-9
-16
26
-1
-7
0
16
-4
6
-18
11
1
32
-31
-4
21
3
-3
12
-7
22
10
17
-3
-4
11
-12
10
-5
27
13
-9
26
0
3
6
8
-1
-13
-3
-5
39
4
-1
-13
15
-10
5
-24
15
-28
3
-14
-4
10
28
-10
7
-5
23
-19
2
14
24
-21
4
31
16
-5
8
-2
1
19
-6
13
0
-3
-21
-2
1
1
-30
-9
-17
5
0
1
-5
1
-19
-16
-32
-14
14
9
12
-3
12
-3
-6
8
-3
6
10
-5
-15
-10
-6
12
-11
-26
-10
10
-12
2
-19
2
11
10
-13
-13
10
15
-18
6
-18
31
13
3
9
-15
-24
-8
-7
-5
-5
12
16
2
-34
12
23
14
18
1
0
12
11
4
8
2
25
-5
0
7
2
1
-8
7
-4
12
-1
6
10
-7
-15
16
7
-6
-16
-6
0
7
17
6
20
9
5
-18
-1
-1
-2
-9
0
5
9
-21
11
-27
-10
-2
3
-10
-14
-21
-20
22
13
-19
19
6
-6
12
0
3
-10
-15
7
18
-19
4
8
2
-4
6
17
-3
-2
-2
-8
0
20
8
-15
15
7
6
8
0
18
-26
17
17
-10
-2
7
-19
2
8
6
-15
17
9
-12
16
1
20
-30
-16
3
12
8
12
1
-17
3
2
-9
4
19
-15
-14
-5
10
-3
-7
-2
19
22
8
-6
-16
0
-6
2
11
14
-17
-2
6
-1
18
25
-4
17
-26
5
-7
-1
0
-13
-27
-2
22
1
9
-9
-6
-11
-8
-9
-17
-14
-5
-7
-3
3
24
11
-13
-20
10
-15
-10
-2
-9
0
7
-4
0
11
-17
-10
-10
7
-13
-8
15
-16
10
-7
8
31
-17
-17
19
-9
-4
4
-28
1
6
-21
1
8
-14
-18
19
22
-13
3
-21
4
8
-5
15
16
-22
-5
0
0
0
0
0
0
0
0
0
0
0
0
0
0
0
0
0
0
0
0
0
0
0
0
0
0
0
0
0
0
0
0
0
0
0
0
0
0
0
0
0
0
0
0
0
0
0
0
0
0
0
0
0
0
0
0
0
0
0
0
0
0
0
0
0
0
0
0
0
0
0
0
7
-20
-29
4
34
-13
-26
44
16
-19
10
-7
-29
-11
-3
11
17
-15
18
-26
-40
10
-30
-16
19
3
-4
-22
53
21
-34
-13
29
3
-22
-21
-2
8
16
30
36
16
-1
-17
-3
18
3
1
-14
2
-4
-2
3
7
-13
-13
-10
-7
7
-25
20
6
-20
1
10
-4
4
-14
3
-2
-13
-8
-10
0
31
13
11
-4
14
2
26
23
21
-8
-4
-2
11
8
8
-6
12
-13
6
-21
-8
1
-4
-28
-2
-1
-11
-3
27
-14
-10
-6
1
16
28
-1
-2
-14
11
5
0
-10
25
-7
-20
-11
-14
-41
0
0
30
3
11
6
27
1
-16
-22
-23
16
12
10
-4
-6
-1
-12
-21
9
11
3
0
0
0
0
0
0
0
0
0
0
0
0
0
0
0
0
0
0
0
0
0
0
0
0
0
0
0
0
0
0
0
0
0
0
0
0
0
0
0
0
0
0
0
0
0
0
0
0
0
0
0
0
0
0
0
0
0
0
0
0
0
0
0
0
0
0
0
0
0
0
0
0
-11
-14
-11
8
-19
3
-19
-1
7
-1
5
-17
-4
-3
-19
2
10
-9
13
-20
19
14
-4
14
-15
27
-10
11
5
19
13
10
11
-19
11
5
18
-7
27
5
33
-9
18
18
24
40
16
-12
-5
8
18
-17
18
-5
4
1
-24
16
-8
-32
17
-8
-15
38
-3
-23
-21
-28
-30
-16
-8
38
-9
31
-13
-4
14
0
20
18
-6
-12
-24
-14
-2
23
1
-10
-3
-9
-8
19
-18
-8
0
-3
9
17
-13
-9
1
5
2
6
-2
-1
-14
-2
6
-9
-12
21
-21
-8
1
0
-19
-18
-1
-2
-4
-14
9
-9
21
-5
46
-1
10
-22
16
-34
16
-19
15
-22
-7
1
15
-1
-2
-5
-10
-10
-7
-14
-9
-33
25
13
-12
3
1
-10
-2
-8
11
7
-26
6
5
0
-16
-2
12
15
-11
6
-7
-1
24
-1
3
-4
11
5
13
5
30
-1
5
6
-7
7
8
-6
7
-11
1
23
-8
23
-7
11
6
2
3
0
2
8
7
11
12
9
-8
-6
-5
-16
11
3
-4
-15
-2
20
-10
1
0
0
0
0
0
0
0
0
0
0
0
0
0
0
0
0
0
0
0
0
0
0
0
0
0
0
0
0
0
0
0
0
0
0
0
0
0
0
0
0
0
0
0
0
0
0
0
0
0
0
0
0
0
0
0
0
0
0
0
0
0
0
0
0
0
0
0
0
0
0
0
0
0
0
0
0
0
0
0
0
0
0
0
0
0
0
0
0
0
0
0
0
0
0
0
0
0
0
0
0
0
0
0
0
0
0
0
0
0
0
0
0
0
0
0
0
0
0
0
0
0
0
0
0
0
0
0
0
0
0
0
0
0
0
0
0
0
0
0
0
0
0
0
0
-2
-11
16
6
-30
-8
-7
-7
3
2
1
14
-12
-14
8
5
-13
-10
-6
11
-27
-6
5
6
15
-8
-9
11
-15
-4
-7
-12
5
-10
-23
1
3
1
0
-10
-16
-22
3
-11
14
8
11
-9
30
1
12
11
-26
-22
-10
-8
15
-6
-13
-13
-6
4
-5
4
-26
-22
-5
-17
-9
7
-24
-8
0
0
0
0
0
0
0
0
0
0
0
0
0
0
0
0
0
0
0
0
0
0
0
0
0
0
0
0
0
0
0
0
0
0
0
0
0
0
0
0
0
0
0
0
0
0
0
0
0
0
0
0
0
0
0
0
0
0
0
0
0
0
0
0
0
0
0
0
0
0
0
0
0
0
0
0
0
0
0
0
0
0
0
0
0
0
0
0
0
0
0
0
0
0
0
0
0
0
0
0
0
0
0
0
0
0
0
0
0
0
0
0
0
0
0
0
0
0
0
0
0
0
0
0
0
0
0
0
0
0
0
0
0
0
0
0
0
0
0
0
0
0
0
0
8
-4
-3
-2
20
19
10
6
10
-5
11
-8
22
8
-6
17
23
-15
-17
-24
18
0
0
15
16
-11
-18
15
-10
22
-7
-8
4
6
1
-7
-1
14
13
-10
0
6
8
-19
11
12
12
2
7
8
-6
-14
-12
19
-22
-4
0
11
-11
-9
-23
3
-16
6
-4
1
20
13
8
-23
10
6
-21
8
-6
-16
-12
3
-9
1
1
6
24
-10
-12
11
-4
5
4
7
-6
-2
5
-7
31
17
4
1
16
-14
-1
1
53
14
-2
5
16
-16
-1
2
28
1
3
12
-20
3
23
3
-20
0
-21
-5
-11
21
44
-20
-47
-9
-10
-18
14
61
13
-8
-2
5
26
-11
5
0
6
27
-31
-15
7
-4
-14
-10
0
25
-21
-17
-9
5
-18
-19
3
29
-24
-1
-3
10
-19
-23
2
18
-16
-2
7
-14
-4
11
-4
7
-39
4
-1
-4
-15
-2
-4
15
11
-5
7
-11
-12
-23
25
15
-7
28
1
-15
-15
18
-28
41
1
-6
-8
17
-36
54
-4
-5
39
-2
16
11
19
22
22
34
67
-20
-20
-25
-10
31
11
-4
10
-8
7
-6
-4
12
12
2
5
4
4
2
6
-8
15
-7
0
24
18
5
17
1
-1
13
-2
1
16
-4
-5
39
16
9
-15
-11
8
11
-22
7
7
12
-2
21
-2
9
-16
-8
-15
3
1
12
9
1
-9
0
5
-7
-9
-15
2
0
-13
-14
17
-5
10
-11
26
10
-24
-5
-9
-2
-11
19
2
21
-10
10
1
9
-1
17
-3
-7
-6
6
24
5
-8
4
9
25
-27
-11
7
10
-21
9
35
9
-29
-4
13
-13
-21
26
15
-8
-17
8
-12
-11
-11
24
6
-1
39
28
-26
-4
10
-13
-10
-24
17
-24
18
-12
13
-22
-10
-3
-11
14
9
13
-2
-10
9
0
-3
-11
-8
-7
2
13
12
-9
4
-8
-13
0
7
-1
6
9
16
-5
-5
-8
3
7
-14
2
-34
-13
7
9
-4
8
10
-2
-29
0
-11
-19
-11
-4
15
22
-9
11
-4
28
7
13
5
-6
18
7
10
0
-7
-4
1
-12
12
-12
-10
4
-4
-34
-15
10
12
15
36
32
-52
-21
0
0
0
0
0
1
0
0
0
0
0
0
0
1
0
0
0
0
0
0
0
1
0
0
0
0
0
0
0
1
0
0
0
0
0
-1
0
1
0
0
0
0
0
-1
0
1
0
0
0
0
0
-1
0
1
0
0
0
0
0
-1
0
1
0
0
0
0
0
0
0
1
0
0
-23
-6
-16
10
-3
-3
12
19
-14
-3
2
-1
-4
50
12
4
0
-1
-5
-8
-16
31
-11
10
2
8
-17
-2
20
6
-18
31
-9
-10
-7
12
-1
25
7
15
12
10
-26
-5
-7
15
-7
-7
0
-13
21
-4
-2
7
-5
-14
-1
1
4
-10
-8
8
-3
-9
3
21
-7
-22
0
10
-7
-5
12
-6
-29
-32
-32
30
-35
18
-23
25
-8
-28
-18
24
-21
26
-5
8
-2
-19
22
50
-15
16
17
-10
6
-7
22
22
-45
0
-10
-27
0
29
-12
-15
35
-4
-23
2
-3
-3
9
26
58
-1
-8
-5
27
0
22
-28
18
-8
-20
15
-17
-12
-10
-51
-26
29
-54
37
-16
-1
-20
-53
-15
30
0
0
0
0
0
0
0
0
0
0
0
0
0
0
0
0
0
0
0
0
0
0
0
0
0
0
0
0
0
0
0
0
0
0
0
0
0
0
0
0
0
0
0
0
0
0
0
0
0
0
0
0
0
0
0
0
0
0
0
0
0
0
0
0
0
0
0
0
0
0
0
0
23
0
0
4
-22
-5
21
7
23
17
2
2
-23
-7
0
-8
-16
-7
-24
3
-28
2
18
-6
1
2
-19
37
29
-1
8
-6
-6
24
-19
-6
5
-18
2
7
2
7
-3
-13
-6
-17
30
-1
4
-16
1
6
-5
8
-13
-19
10
-7
-9
4
8
3
-1
-18
30
2
22
16
-11
-12
23
7
13
-22
-19
-16
-16
-5
10
2
-4
-15
-29
7
-9
22
-14
-8
-12
23
-34
18
-15
12
33
18
14
30
-28
8
7
34
-1
-11
-9
-25
-13
7
-23
-7
-1
-21
35
2
4
1
8
-29
14
-21
-14
-20
44
-29
10
-5
-15
-19
-1
-43
47
15
-32
-13
31
1
-11
10
-11
-36
6
-3
0
22
7
18
0
-14
-25
-21
-16
25
1
11
3
-20
-2
-25
6
3
-16
3
-4
-19
-4
8
-13
-23
26
-8
0
-15
-7
11
16
-2
10
15
16
-14
6
-29
47
15
3
-10
3
-30
-10
-4
-17
8
0
-19
-11
-6
15
-22
21
-15
-36
-11
10
-1
34
-26
-22
1
9
-15
-20
-9
3
12
5
6
7
-11
-1
-16
5
5
7
5
-10
0
-8
-18
35
20
-12
7
16
0
14
-2
12
5
-22
-5
-13
14
12
-5
6
-16
30
26
-1
-13
-10
3
33
20
21
1
12
-32
-10
10
26
31
21
-16
-11
-9
18
21
30
-18
-34
5
-30
0
-18
2
0
-4
-23
10
5
5
-8
-14
-4
-3
-20
36
0
2
-2
-3
0
2
-1
1
1
2
-1
-2
0
2
-1
1
0
2
-2
-2
-1
2
-2
2
1
1
-1
-4
0
3
1
0
0
1
0
-3
0
3
1
0
0
0
0
-4
0
3
0
1
1
1
0
-3
-1
3
2
0
1
1
0
-2
-1
3
1
-1
0
1
0
-3
0
4
0
-1
0
-1
-2
0
-1
0
1
1
-1
-1
-1
0
-1
1
1
0
0
1
0
1
0
0
1
-1
1
1
-1
0
0
1
0
1
0
0
-3
0
0
1
-1
1
0
0
-2
1
1
1
0
1
0
0
-2
0
0
1
-1
1
1
-1
-2
0
-1
0
-1
0
0
0
-1
1
0
-1
1
1
34
-3
-9
-5
-4
14
-25
38
-4
11
7
-7
-5
-1
-26
19
-9
13
0
11
0
1
9
-35
3
-16
-4
-26
10
30
-7
-13
6
14
1
0
-21
2
2
0
28
9
-13
10
-9
13
5
-19
5
11
-2
-13
-15
8
-3
0
7
-4
17
-18
-6
-14
4
9
1
-13
-18
-7
24
-2
1
10
0
0
0
0
0
0
0
0
0
0
0
0
0
0
0
0
0
0
0
0
0
0
0
0
0
0
0
0
0
0
0
0
0
0
0
0
0
0
0
0
0
0
0
0
0
0
0
0
0
0
0
0
0
0
0
0
0
0
0
0
0
0
0
0
0
0
0
0
0
0
0
0
9
20
1
-16
2
-2
-20
-11
8
6
17
-33
32
2
5
-10
8
-18
-17
-20
8
8
-1
-14
-39
-9
5
27
-39
5
-13
28
13
-14
20
17
-4
4
7
48
-28
-13
-2
8
2
4
34
4
-3
11
0
-28
-6
-11
-25
-21
22
-20
-8
25
41
-17
-11
29
-2
-9
-5
-28
-17
9
-32
5
1
-12
5
28
-29
-14
-9
-6
-5
-7
0
-31
-11
-18
-13
-26
-39
47
0
-5
20
-19
1
5
11
6
-18
-15
-45
-8
1
-26
-4
17
3
4
42
19
-23
16
28
4
-18
40
26
22
0
-9
12
4
-6
-3
-20
6
-4
-24
1
35
32
-7
19
8
-18
6
20
9
-23
-11
8
6
-7
25
0
0
0
0
0
0
0
0
0
0
0
0
0
0
0
0
0
0
0
0
0
0
0
0
0
0
0
0
0
0
0
0
0
0
0
0
0
0
0
0
0
0
0
0
0
0
0
0
0
0
-1
0
0
0
0
0
0
0
-1
0
0
0
0
0
0
0
0
0
0
0
0
0
-17
-18
-11
-35
-19
-7
29
-20
11
-11
20
-7
3
-34
2
2
-16
-14
-6
-9
-17
-13
-28
-29
-4
44
6
10
-16
-1
18
-1
7
11
14
25
16
16
18
30
7
33
-17
-2
-1
20
-18
8
32
-15
22
50
9
6
-17
9
18
-18
14
60
29
3
-28
37
-5
15
-23
39
5
15
-56
48
-2
2
10
-23
-1
43
-28
16
0
1
-1
-8
7
-3
2
9
-6
-1
3
-5
5
-1
3
-10
-16
12
-9
5
4
24
11
4
-9
-1
5
12
15
5
19
6
14
5
6
5
5
-1
-1
5
-15
6
-8
21
-18
-1
6
-12
-19
-5
0
6
-5
1
14
5
-4
-2
-10
3
13
6
-2
22
26
2
21
-4
2
28
-7
-15
-15
11
25
-3
10
-1
14
-20
-30
4
-9
-10
0
-17
12
4
45
18
5
9
-39
-16
25
-19
-25
11
2
-34
-10
1
-18
-3
-21
-1
-20
-5
-4
-16
-1
11
-21
-5
9
0
-4
-21
-29
6
-14
-3
4
2
0
18
-26
2
-34
1
-10
5
-21
-21
29
-21
0
0
0
0
0
0
0
0
0
0
0
0
0
0
0
0
0
0
0
0
0
0
0
0
0
0
0
0
0
0
0
0
0
0
0
0
0
0
0
0
0
0
0
0
0
0
0
0
0
0
0
0
0
0
0
0
0
0
0
0
0
0
0
0
0
0
0
0
0
0
0
0
-19
27
-12
20
0
22
2
-36
-27
-2
1
3
-4
-19
0
-8
-3
-9
-6
-18
0
-6
-13
6
-24
29
-11
8
6
6
-5
-13
-10
6
-11
2
-6
-15
4
-10
14
-15
-1
-20
-7
-14
2
-10
-26
25
-10
-14
-8
31
0
-11
15
5
-5
-23
7
3
3
5
7
-15
-8
-14
12
-9
9
15
-22
0
-1
-22
-1
-2
15
-3
-1
-7
-1
4
11
-8
1
8
20
7
3
-15
12
2
11
-22
-9
-4
1
11
-11
-7
13
-29
8
-13
-10
-20
-11
17
-17
-28
-2
23
-9
-9
6
-14
14
6
14
-5
-3
-17
-12
7
4
20
7
1
11
-23
-10
9
1
-2
-23
25
-12
-7
-13
-19
-9
18
0
0
0
0
0
0
0
0
0
0
0
0
0
0
0
0
0
0
0
0
0
0
0
0
0
0
0
0
0
0
0
0
0
0
0
0
0
0
0
0
0
0
0
0
0
0
0
0
0
0
0
0
0
0
0
0
0
0
0
0
0
0
0
0
0
0
0
0
0
0
0
0
11
8
14
-10
-8
15
5
3
-4
6
0
-12
-6
10
-11
7
-1
23
0
-2
-17
10
-22
16
4
11
5
2
-11
1
-9
13
21
6
-3
-10
1
-6
-25
21
1
-3
-11
-12
-15
-8
-17
21
15
0
-3
-6
-2
6
0
-13
31
1
-31
-14
-18
5
-22
16
-3
-14
-4
-35
-23
5
-38
7
-4
-1
2
-16
13
-1
10
-7
18
-7
24
-19
3
9
4
-22
-5
22
20
-32
20
24
10
-29
-21
-3
-6
-14
-1
3
18
-7
17
19
3
22
-17
-3
-22
-6
22
21
2
17
0
-11
-18
0
-28
-12
-14
-7
-11
-5
-7
-8
-23
-27
11
2
-12
-5
8
1
-29
-28
48
-11
10
-19
22
-30
0
0
0
0
0
0
0
0
0
0
0
0
0
0
0
0
0
0
0
0
0
0
0
0
0
0
0
0
0
0
0
0
0
0
0
0
0
0
0
0
0
0
0
0
0
0
0
0
0
0
0
0
0
0
0
0
0
0
0
0
0
0
0
0
0
0
0
0
0
0
0
0
-27
-7
9
-27
5
-14
-24
0
6
-37
5
7
9
8
-14
1
26
-18
-7
-13
12
11
-15
-30
-3
-2
18
14
-2
-7
-10
3
-1
0
-7
3
-1
4
3
3
21
6
-10
-22
0
-1
0
-15
-3
6
10
-3
-19
2
26
8
-4
8
-31
8
-15
-6
3
-20
14
15
-35
-24
-16
-12
-11
-21
10
-10
4
3
-11
20
24
7
-17
-4
12
8
-11
5
21
0
7
16
14
8
13
14
21
-32
-17
-3
17
-11
-2
-14
-14
1
-14
5
4
3
-22
12
-23
-9
-13
4
13
15
-3
-12
-14
-3
7
-2
-1
-32
-6
-3
2
-21
0
-12
-15
-11
-15
27
-17
11
24
-23
19
-31
-19
10
11
1
0
0
0
0
0
0
0
0
0
0
0
0
0
0
0
0
0
0
0
0
0
0
0
0
0
0
0
0
0
0
0
0
0
0
0
0
0
0
0
0
0
0
0
0
0
0
0
0
0
0
0
0
0
0
0
0
0
0
0
0
0
0
0
0
0
0
0
0
0
0
0
0
1
-18
-18
-21
-4
-30
-11
-27
0
-20
-14
-35
-16
-15
-3
-20
-4
-9
-10
-33
-35
-11
-23
-41
-12
-12
0
-14
-5
10
10
16
13
13
10
3
3
20
-11
23
11
21
9
12
7
17
0
25
-37
2
-7
30
1
8
13
-6
10
10
5
28
12
19
21
40
21
45
24
19
10
29
5
39
-5
-2
23
-3
-17
6
5
11
6
12
-10
10
2
2
32
0
-8
-6
-2
-26
22
-5
-2
4
-13
3
6
27
-19
12
-9
12
9
7
-31
15
3
17
14
18
-1
2
-28
6
-4
11
1
-10
-18
17
0
38
-8
1
8
-8
10
-7
-8
10
15
3
13
12
-35
-19
-30
-32
-26
-13
8
-8
17
35
-31
-18
-6
4
10
-12
-12
-2
-15
-12
-4
26
8
-5
0
-16
7
0
18
10
-11
34
9
-14
11
-24
18
-5
12
2
7
-16
-19
-12
-7
9
8
-10
17
3
14
9
18
14
-29
8
-17
-9
1
4
-16
-17
-11
2
-11
19
-28
-15
-19
-15
-8
-10
-42
18
2
7
-10
3
0
-11
0
1
-5
-27
0
-24
18
1
-6
12
-11
-33
-6
-23
10
5
-10
12
-12
-12
-20
8
-10
11
27
-4
-18
-5
-8
5
5
-1
35
-15
-10
-14
-17
-22
1
-11
2
1
-18
5
-13
-18
-9
-7
7
0
12
-6
9
4
-12
0
20
-6
5
21
1
11
8
-9
-6
-3
-14
-9
9
-13
25
-24
-6
25
-13
-3
-16
-12
-21
-1
4
23
22
4
-21
-12
0
-4
-5
4
-4
-7
-38
-6
2
-5
9
1
-10
13
-13
14
9
11
13
-3
22
-10
18
18
-5
-2
-15
-9
8
-26
-15
24
-26
3
0
-27
-3
20
34
-13
7
-3
13
-19
15
3
4
-6
2
0
-37
7
-24
-40
-44
54
-6
1
17
1
17
9
9
21
3
-9
3
22
-3
-13
-16
-8
-19
-2
-4
23
-1
17
-6
-31
0
1
18
-4
-12
-13
-14
-6
8
15
-9
6
-21
-5
-40
0
-13
-8
7
-2
-36
25
-9
-2
-4
-17
5
-15
6
-26
-9
-17
0
5
-10
0
9
-8
-1
4
1
3
11
6
19
-9
-17
26
-17
0
-6
35
14
21
25
-22
7
-7
-21
18
-19
0
7
-7
12
-40
-21
-14
-6
-6
6
-12
-7
-17
-8
22
-1
33
10
-11
-8
-9
11
-16
19
20
-19
-5
0
3
4
-5
2
-19
-13
3
53
1
-11
35
-8
6
32
4
6
2
-33
-44
-21
-20
-6
-8
9
-14
-5
-34
-30
-22
-26
12
4
-7
-19
20
-27
-15
14
-17
-24
-9
-33
8
-6
8
-30
9
-31
-17
28
12
-9
17
-23
12
-4
-8
8
-18
-25
-10
12
1
-12
8
-1
-8
-7
-13
13
1
-5
1
-5
1
-15
-11
46
4
14
-21
-7
-4
-1
-15
-26
12
-6
-15
20
-33
-8
0
-12
0
19
2
21
-13
30
16
5
-16
9
-4
12
17
18
-2
-2
14
0
26
-25
13
5
-2
12
-8
16
-13
-9
-11
13
-14
2
-37
-9
1
-12
18
-28
5
-17
-1
-7
-13
-18
-6
2
3
-10
16
-9
-27
17
-19
-5
-17
-6
-30
-11
-26
-9
19
45
39
25
1
-15
4
38
4
2
35
-9
-19
10
-8
14
19
-15
4
-7
-23
-7
-21
-10
-6
19
7
-20
-11
12
27
20
-4
-1
-10
-2
-14
10
-5
18
22
-2
-16
5
-15
9
-5
-16
-19
15
10
45
28
-31
8
-13
2
-12
7
-13
12
-26
-15
12
16
3
24
15
38
-13
-12
11
-17
-1
-13
-13
15
-22
2
-1
-23
-31
24
7
-21
-28
9
35
-11
-45
-11
16
-10
9
-18
13
-19
-2
-22
-22
36
-32
1
-9
23
-5
5
10
0
-29
21
-9
16
17
-2
29
-3
14
-3
9
-12
-9
-13
-4
-8
-3
-10
-13
34
-7
-10
11
-39
-17
17
-11
5
17
-30
-4
-8
30
-17
5
-10
-10
7
-2
22
-17
1
7
-20
21
-21
-17
4
0
-9
1
-7
33
6
-18
9
-18
-12
6
5
3
-1
-3
18
-5
-10
-22
-17
0
12
-34
-17
0
-18
-22
-1
7
-16
-18
-8
11
3
-8
-4
29
20
-7
4
-3
9
3
-7
-4
10
-4
11
19
-9
5
16
-17
2
-24
8
4
-1
2
-1
15
-11
5
21
-12
13
4
-22
-27
-25
2
2
2
0
-39
-3
-15
-29
-11
19
-16
-9
-9
34
-1
-4
18
15
-3
11
-9
-2
7
2
24
-7
3
-1
-23
-6
-8
-11
20
1
33
-18
-14
24
1
-21
7
8
-6
33
8
20
-5
25
6
19
3
24
51
22
-5
52
-9
17
-2
27
3
-33
-8
-21
-25
12
-2
25
3
-32
4
1
-22
15
5
-5
-22
14
-20
19
11
22
4
0
-16
7
-12
-10
-31
-12
4
-8
-2
32
-7
-29
7
-10
7
6
13
28
-17
-7
12
11
34
9
-21
-5
-12
-2
-20
-22
23
-7
-15
-6
-7
-25
2
14
-21
-8
-2
5
-24
18
3
12
9
-1
-31
-23
-20
6
-19
-26
1
24
8
31
-1
15
2
16
-13
5
-10
13
19
6
36
-9
19
8
1
14
16
-1
0
21
23
-15
10
-16
-14
16
0
4
-6
-5
-17
-24
-12
-24
3
-1
-8
8
6
-13
-24
12
0
4
-11
16
1
9
-22
5
2
-6
5
13
-36
3
22
-30
-29
-7
-2
15
17
-13
0
2
6
10
14
8
-12
27
-3
-1
-7
-6
32
6
-41
-7
10
-12
-21
6
27
-13
-13
26
-6
-29
20
-5
12
23
2
10
-2
-4
-20
-30
17
-21
36
25
6
-27
-17
-30
10
-20
24
0
10
7
-1
6
-7
-14
-2
-41
8
-25
-4
45
-8
8
3
-22
-13
-19
-28
24
-2
9
14
-4
-18
-32
-10
11
-13
10
-23
4
14
-5
23
20
-45
21
-1
-8
-5
42
-27
10
6
-35
10
4
14
-30
5
-2
5
12
23
-14
4
11
31
15
7
-6
23
-2
-9
-10
-1
-5
21
3
14
-8
13
-9
-7
-19
-7
-8
-2
-6
-13
-6
-13
17
0
-11
-7
-19
4
14
-2
22
12
-2
-16
-1
6
-21
-7
-11
-11
4
-8
-18
-4
21
-16
6
7
-5
-24
19
7
-15
-4
-24
41
-22
14
23
-35
8
41
7
18
-12
2
10
11
11
6
9
4
2
-2
-7
-24
-13
-9
-1
-24
-3
-4
10
-1
12
-17
-10
14
-11
-2
-20
24
10
-13
4
14
-4
7
-2
3
0
-12
-7
-18
-7
10
10
40
17
-15
9
9
-24
3
13
16
-8
-11
0
3
4
-10
0
-13
-16
15
17
27
-17
-1
0
0
-1
0
1
0
1
-1
0
0
-1
0
1
0
1
-1
0
0
-1
0
0
0
1
-1
0
-1
-1
0
1
0
1
-1
0
-1
-1
0
1
0
0
-1
0
-1
-1
0
0
0
0
-1
1
0
-1
0
1
0
1
-1
1
-1
-1
0
1
0
1
-1
1
-1
-1
-1
1
-1
1
0
0
0
0
0
0
0
0
0
0
0
0
0
0
0
0
0
0
0
0
0
0
0
0
0
0
0
0
0
0
0
0
0
0
0
0
0
0
0
0
0
0
0
0
0
0
0
0
0
0
0
0
0
0
0
0
0
0
0
0
0
0
0
0
0
0
0
0
0
0
0
0
5
13
34
15
5
17
11
-22
-16
22
-21
-18
-6
-4
4
8
8
23
20
-20
-13
15
13
-33
-8
-10
4
27
16
-12
-11
-19
-2
15
1
42
9
-21
-3
-3
-2
15
23
8
-19
-15
-12
-5
-12
-7
23
1
6
5
6
-5
21
8
-6
-1
-13
21
24
25
-24
16
-21
27
-4
6
-27
1
0
-1
-1
-1
-1
0
0
0
0
-1
-1
-1
-1
0
0
0
0
-1
-1
-1
-1
0
-1
0
0
-1
-1
-1
-1
0
0
0
0
-1
-1
-1
-1
0
0
0
-1
-1
-1
-1
-1
0
-1
0
0
-1
-1
-1
-1
0
0
-1
0
0
-1
-1
-1
0
0
-1
1
-1
-1
-1
-1
0
-1
-1
0
0
0
0
0
0
0
0
0
0
0
0
0
0
0
0
0
0
0
0
0
0
0
0
0
0
0
0
0
0
0
0
0
0
0
0
0
0
0
0
0
0
0
0
0
0
0
0
0
0
0
0
0
0
0
0
0
0
0
0
0
0
0
0
0
0
0
0
0
0
0
0
7
-15
32
11
4
19
-16
8
20
2
52
16
21
56
3
-1
-18
-24
0
-1
25
19
-24
-5
-10
6
4
-3
-10
-37
30
12
3
15
-17
-24
-9
6
18
0
-10
-13
-22
-14
7
-9
-2
17
-8
1
8
1
-11
-25
24
-9
0
15
11
-9
-32
-21
-3
2
-17
9
-3
29
-5
-37
5
0
17
17
13
4
5
0
6
21
-1
26
-16
-6
9
0
-18
1
-6
11
6
-17
26
-5
-21
3
15
6
-11
7
24
1
14
15
-14
4
-30
-3
-8
19
-14
-6
19
2
2
-8
-5
-7
7
-1
-6
9
-14
23
6
-9
10
31
21
5
-13
8
-21
26
-16
-3
12
13
-8
18
-6
-31
-8
10
-18
-6
-3
-10
-5
-1
14
32
-18
1
9
-14
-9
-7
-13
47
-11
0
-3
3
-7
-1
3
29
-3
-19
-8
-4
-5
2
41
29
-21
-12
2
-11
9
-3
11
15
2
-4
-8
-27
14
-12
4
19
9
-24
15
-13
-8
14
-5
-19
-20
-18
-16
12
17
13
-14
0
14
43
0
15
-1
-1
18
-20
-2
1
-1
-1
0
0
2
1
-1
0
-1
-1
-1
1
2
0
-1
0
-1
-1
-2
1
1
-1
-1
1
-1
-1
0
1
2
1
-1
1
-1
-1
0
1
2
1
-2
0
-1
-1
-1
1
2
-1
0
1
-1
-1
0
1
0
2
-1
0
-1
-1
0
1
1
2
-1
0
-1
-1
-1
1
1
0
-11
1
25
-3
8
-14
12
-11
15
-2
-1
7
9
-23
19
-3
13
-13
-17
14
-15
-16
16
-17
9
0
-22
-14
1
9
6
3
1
-13
-18
-8
16
1
6
-1
-5
2
24
-7
1
-14
31
1
-8
19
25
-6
-16
-6
-6
7
-13
2
-6
-15
-3
-11
-2
-13
-6
-23
-3
-34
-2
6
1
19
-24
-11
-16
-26
-33
13
-3
-6
-27
-16
-11
-33
-28
10
-7
10
3
5
3
-9
-24
8
-3
-8
21
-2
-13
-6
-32
13
-12
-3
-5
-16
-11
-31
-35
-12
3
-12
9
-3
-19
9
-22
-1
-2
-11
30
-43
-4
11
-28
-10
-25
-32
24
57
-12
-35
-15
-7
14
11
-1
0
24
-10
28
14
29
43
0
-2
0
-2
-1
0
0
0
-1
-2
-1
-2
-1
1
-1
-1
-1
-3
-2
-2
-1
1
-2
-1
0
-2
0
-2
-1
-1
-1
-1
-1
-2
-1
-2
-1
1
-1
-1
-2
-2
-1
-2
0
1
-2
0
0
-1
0
-2
-1
-1
-1
-2
-1
-1
0
-2
0
0
-1
-1
-2
-1
-1
-2
1
2
-2
0
-7
6
-10
-13
-37
-11
8
-8
-6
-9
4
-6
-9
-5
-13
19
-18
16
-21
-8
21
15
-10
2
-5
9
-3
-4
-24
-26
25
-3
-2
0
-11
-9
-10
-14
1
10
-1
13
7
-27
18
5
-14
5
-10
13
17
-3
-2
-7
4
-11
12
7
-19
-7
-10
-4
4
5
-6
9
11
-3
12
-5
22
8
1
22
-16
-1
-8
-18
-3
2
-7
1
-2
-2
-14
13
5
-8
-24
-25
10
1
10
0
-28
-28
-1
-8
-31
-16
-1
-9
-7
2
-3
19
4
-2
-8
-1
5
0
11
4
4
7
-4
5
-32
-36
-17
-9
-12
-27
2
-7
7
-11
-13
-1
24
-20
23
24
-12
1
-25
-35
-1
-12
14
3
-12
-28
-14
-2
-8
-5
12
-7
8
-39
0
4
8
-7
16
15
-10
-36
-21
-18
3
21
7
-14
-10
-32
12
6
10
-2
12
27
-18
13
-2
3
15
-15
1
21
-33
-6
13
-12
2
3
3
-19
21
-23
1
-9
3
-17
-10
-8
32
16
-5
13
-32
-17
-17
8
-20
9
-13
10
-10
-11
6
-20
19
1
-19
38
-3
-26
-29
18
-9
0
17
-12
-18
-6
2
4
35
-18
-5
-19
-3
29
19
-10
12
-10
-3
17
-20
-16
-12
-34
7
7
11
-1
-17
13
-17
-4
45
1
21
-2
4
22
-8
3
13
-1
1
-2
-21
-26
14
-15
13
6
13
-14
15
-23
-7
13
3
17
4
-16
4
15
-5
10
6
-18
14
0
-18
-7
-7
-5
1
5
2
3
-1
6
-21
-4
11
-29
0
-13
-8
-2
2
-4
-17
-26
19
-1
2
-14
1
-12
9
3
-7
7
0
-5
-25
-15
1
0
16
-12
10
-29
-7
-4
-4
-12
9
10
-2
-25
3
12
12
-4
1
14
-6
11
11
15
-13
2
10
7
-4
7
26
3
-23
11
-12
31
3
6
6
8
25
-4
-7
-22
-34
-16
-2
16
-1
-15
-22
13
11
6
1
33
-16
16
15
-5
-16
11
-7
14
11
-6
-12
-10
-21
4
19
12
2
12
-34
-16
-10
-2
-14
-7
10
9
-7
-11
-11
-9
-17
-22
10
3
-4
8
13
-16
-9
11
-16
-24
-14
9
3
-20
-3
-13
-1
28
-29
16
-21
-10
10
-6
29
37
-6
-23
-21
-21
-19
14
20
17
13
6
-28
-5
-12
7
6
-1
-33
-13
33
-38
-7
11
-15
32
-23
-31
0
-40
-12
-1
2
-4
18
-24
-34
-12
3
-8
6
-9
-12
5
20
8
-15
10
10
2
15
9
13
12
8
-3
2
-22
23
10
-14
12
22
-2
26
-8
-28
3
-16
-17
5
21
3
-3
2
-11
0
-10
21
12
14
-1
3
-3
10
-21
-9
-2
-11
-2
-11
-7
-17
-9
0
15
10
9
10
-16
-11
1
-3
8
10
6
-9
11
14
-24
-16
-5
-27
-8
14
-8
4
-21
5
-2
4
-5
-15
-4
6
7
1
14
21
-14
-24
-12
25
-14
19
-4
-23
-9
22
-24
13
-18
10
-15
-18
20
14
1
-3
-9
-8
-9
-14
8
6
2
-6
-20
-6
3
-7
-2
2
2
8
3
-1
-2
6
14
11
1
-23
-7
-15
-5
1
-12
-7
-28
-11
-10
-24
13
4
0
-5
19
-10
-10
0
13
4
24
-5
11
-19
-7
-20
-14
15
3
-2
5
-37
-4
-24
4
23
-3
13
-31
-17
-7
0
-32
-15
-15
-10
-4
-18
-10
27
-5
0
-6
-34
-10
-17
-17
26
14
5
-3
24
11
-2
-7
-17
-9
-13
-7
3
17
-15
-15
-32
-16
8
-6
13
11
-6
-6
-2
9
10
2
1
25
-11
-19
-14
-6
10
-15
5
15
3
-31
-27
4
-7
8
10
5
-3
11
-9
8
7
6
2
19
4
-4
-8
15
-11
-1
6
1
-14
-16
-6
-25
41
1
-8
-4
-13
-6
20
-11
8
7
10
-3
-12
-5
-20
-2
2
-4
17
8
-23
-19
-26
-14
27
-9
1
2
2
29
10
20
1
-6
3
-4
-5
4
-24
-9
2
8
-24
-14
-16
6
-14
-9
6
16
-3
-21
9
-3
1
18
-18
11
-2
-21
-16
21
5
16
18
4
-4
-10
-15
-14
-10
-34
2
-11
-5
-4
-14
-12
-35
5
6
-21
-12
0
10
-2
18
-1
-6
-14
-3
-8
9
-24
8
-4
-10
-4
-1
-18
-5
-6
-22
8
-9
4
2
15
-9
-5
2
0
4
-2
-15
35
16
-23
32
11
0
21
-22
2
16
-4
39
9
-3
0
0
0
0
0
0
0
0
0
0
0
0
0
0
0
0
0
0
0
0
0
0
0
0
0
0
0
0
0
0
0
0
0
0
0
0
0
0
0
0
0
0
0
0
0
0
0
0
0
0
0
0
0
0
0
0
0
0
0
0
0
0
0
0
0
0
0
0
0
0
0
0
0
-15
-2
4
-25
4
-8
10
13
-1
-3
5
-8
-1
6
21
24
4
-13
34
-28
6
11
-1
16
-16
-7
-27
-15
-5
-1
-2
-20
0
5
-5
3
-14
3
-8
-7
-2
27
-7
3
-15
25
-23
1
10
-15
-26
-34
1
0
8
-15
1
19
-9
11
-6
4
-10
31
-4
48
19
30
12
-16
-5
8
14
-6
18
-20
-14
-3
1
8
-12
-21
6
-7
-2
-9
28
16
0
1
19
1
-9
-15
0
3
1
14
-24
26
-5
-8
22
-10
16
13
-28
7
0
4
14
10
18
14
-13
-13
-4
-22
6
-5
-17
31
9
12
8
-17
-23
-17
9
13
-25
-19
-7
-16
30
10
10
8
3
-10
-1
-3
-1
9
0
0
0
0
0
0
0
0
0
0
0
0
0
0
0
0
0
0
0
0
0
0
0
0
0
0
0
0
0
0
0
0
0
0
0
0
0
0
0
0
0
0
0
0
0
0
0
0
0
0
0
0
0
0
0
0
0
0
0
0
0
0
0
0
0
0
0
0
0
0
0
0
-16
5
19
-6
-19
21
-30
8
26
-10
-5
-36
-24
-10
3
13
33
11
-18
8
49
5
6
14
-6
16
-17
-18
-49
28
-19
-12
4
13
-30
-19
-40
-28
18
14
6
3
-12
23
45
5
-7
9
-15
-15
-41
2
-48
23
-3
-20
14
15
29
-21
3
1
14
-7
18
-16
-14
1
38
13
-1
12
-11
15
-18
-8
-21
4
2
-10
-3
9
-14
2
-2
-23
7
-6
21
-9
-2
3
-15
3
5
-13
10
-1
-17
-28
-9
1
21
21
10
6
2
-10
-16
-24
8
-14
5
-13
6
-17
17
-4
5
-14
-32
24
16
-29
-20
-26
26
36
6
4
-7
2
-8
-8
30
-8
2
1
-13
9
6
-9
3
-4
-9
16
45
-13
2
26
-21
-27
25
19
20
40
23
-20
-9
-2
-2
2
23
-10
-2
-47
10
-29
-37
-8
13
-30
15
20
14
-6
-5
6
-10
-3
-12
-7
4
-7
-6
12
-17
5
10
17
-8
3
-11
17
-36
-11
37
0
9
-18
6
17
15
2
20
16
-12
-7
-31
18
-26
29
-2
-1
23
29
-27
-9
-10
-21
17
15
1
9
-7
23
-19
-10
8
15
-15
1
-9
12
-1
-9
-8
8
-3
-11
-11
-12
-7
4
3
37
-20
34
-10
28
-4
-15
8
14
-27
16
-14
4
-9
13
-8
-6
-13
22
-16
-16
-3
2
-7
7
-2
0
-15
14
-9
-1
-20
0
-12
25
-3
-16
-5
0
0
-6
-10
25
3
20
29
12
7
-3
24
32
-25
10
-15
10
17
8
0
9
-22
31
-14
-15
19
13
4
-13
14
15
-25
16
13
-12
15
-18
18
-7
4
22
3
5
13
-9
28
-17
-11
-15
-18
8
-10
-11
-10
-24
-24
-7
16
13
4
13
11
-12
41
11
-16
-18
19
21
15
12
47
43
-17
-7
-5
10
3
-38
2
-20
3
-12
-16
-6
-1
-15
-7
8
-14
22
19
7
9
-12
-10
-32
12
20
-9
-3
3
25
31
-27
2
3
2
4
0
-8
-19
16
-32
-16
9
14
-11
-6
-43
17
-18
-17
18
5
56
12
-11
-42
2
21
19
14
5
-26
23
-7
-13
25
-12
0
-43
-31
-9
49
-27
23
-22
3
14
-5
-7
-14
-35
6
7
-21
17
-19
-13
-14
-12
10
17
2
10
1
0
-30
-16
15
23
-8
-3
-9
-16
-11
-22
-8
3
-24
-9
1
-7
-18
-5
-7
6
9
-2
17
15
1
-16
0
5
-4
-29
26
-4
-6
-21
0
-3
-2
-2
22
18
-19
23
26
-22
-5
-3
22
-6
-5
-23
9
-10
7
-18
-10
-6
23
-9
-6
-18
-20
9
-17
-27
25
9
12
-9
-7
-18
5
23
-8
18
-4
27
-10
-3
-4
16
3
16
-3
-15
-23
9
-30
-30
-20
-24
-10
-12
1
-1
2
-20
-9
-14
-27
18
26
6
-24
0
-22
-11
50
-15
4
-1
0
17
-41
-23
33
-2
25
-12
-15
5
2
-27
12
-5
31
12
-9
2
19
8
23
12
-20
40
-7
6
-19
22
22
-13
29
21
2
-17
-4
6
19
-29
-16
-16
-14
-7
5
-14
-5
6
-32
-3
10
-7
16
1
-11
0
4
-7
52
10
9
-12
4
2
16
-33
-2
-20
-22
-11
-8
5
-20
-14
-12
-8
-30
-7
-7
25
-17
-1
5
7
3
17
-13
18
16
17
26
-19
8
-7
5
-20
10
-2
-3
-31
18
-13
6
-9
13
7
11
-9
12
3
-2
0
14
5
5
11
-5
-6
11
-7
17
-17
-18
-17
17
-6
-3
2
-13
1
-5
-26
7
-13
1
-20
6
16
-14
-8
-9
7
17
4
-7
-20
-26
5
-5
12
0
8
-23
7
-8
-2
21
13
2
11
12
17
25
6
-3
-16
13
0
11
-1
1
6
-12
5
8
-1
25
14
1
2
12
-15
-8
-16
32
21
-1
22
1
-16
10
-14
2
1
-3
16
-17
8
10
12
17
0
-13
-9
-17
-1
-13
8
-2
22
10
-1
-10
-15
5
-6
-15
-4
-29
-2
-13
11
17
19
6
16
-12
1
-14
11
-9
11
2
2
-14
23
-2
27
-2
9
8
13
-24
18
14
17
34
2
2
9
-22
-14
17
-24
14
-1
-5
-6
-10
23
-12
-30
3
-13
3
3
-7
-2
-1
17
22
9
-19
-18
-23
-5
-4
-26
8
-1
-9
-19
18
-11
-26
-23
11
-2
-17
-26
11
-42
-20
-12
-1
-13
10
4
12
-23
-36
-37
-13
9
-14
-11
4
2
-7
-21
-15
-5
10
5
17
6
2
-25
-21
-12
-3
-15
-9
-7
-34
-14
-18
-9
-4
-5
-12
-7
-19
13
3
-24
2
-21
-4
-13
14
4
17
-5
15
-2
-21
4
-9
-2
4
1
-25
-2
-21
-2
3
-8
-24
13
-8
-4
7
1
-5
18
10
6
21
28
-16
6
10
16
3
-1
5
16
-2
-16
-16
-6
-10
-9
-11
-4
4
-13
-8
-4
-7
-12
9
13
-5
7
11
-10
9
-23
-2
4
-10
-11
-18
-5
-9
1
-20
-5
4
-4
-3
-1
-10
-15
-9
10
-12
-12
-18
-21
3
-6
0
0
-26
-17
-9
8
-26
18
-4
3
-22
-2
-18
-7
-4
-8
-3
0
-10
-13
-32
-11
6
13
-9
3
1
-8
-30
12
9
7
27
-9
-1
0
-15
-2
5
25
26
18
16
-2
-9
-21
3
14
-6
-12
3
-31
-2
7
5
-1
39
9
8
14
-24
12
-21
7
12
-19
15
28
37
-6
-10
2
17
-2
36
-9
-31
7
8
-8
-33
-16
37
-4
-34
-3
12
-10
9
-22
14
33
37
-20
-7
-9
2
-1
1
-1
-1
1
1
1
1
-1
1
-1
-1
1
1
0
1
-1
1
-1
-1
1
1
-1
1
0
0
-1
-1
-1
1
0
0
0
0
-1
-1
0
1
0
1
-1
1
-1
-1
0
1
0
0
-1
0
0
-1
0
1
0
1
0
0
-1
-1
0
0
0
1
-1
0
-1
-1
-1
0
0
0
-15
-5
-4
5
3
-9
-4
-12
-12
11
-7
5
0
-8
9
-15
0
13
6
-8
10
-5
2
21
-15
-6
-1
4
17
12
-2
-4
-30
-13
-2
-5
-7
-1
13
-24
11
-15
28
-17
-11
-4
4
19
19
22
-20
6
-6
16
5
0
-14
18
-18
34
8
19
-5
6
-2
33
-16
6
16
1
25
-10
4
11
11
-3
-13
-19
10
-8
1
-17
8
11
3
0
0
6
6
-12
-2
-24
-9
-2
15
-2
2
13
-1
6
-15
18
25
-9
-9
-18
0
-27
-34
2
20
-16
-15
6
-21
14
25
7
-3
-4
12
10
23
23
-29
26
7
-5
39
-17
-8
20
-16
-10
1
-16
-17
17
-10
-23
2
2
-7
6
-1
0
0
-1
0
0
-1
0
0
0
-1
-1
0
0
0
0
0
-1
-1
-1
0
1
-1
0
0
-1
-1
-2
-1
-1
0
-1
0
-1
-1
-2
-1
0
0
-1
0
0
-1
-2
-1
0
0
-1
0
0
0
-2
-1
-1
0
0
0
-1
0
-1
-1
0
0
0
-1
0
0
-1
-1
0
0
0
-16
-13
0
-17
-14
3
-9
-8
-28
12
21
-19
4
2
6
5
-11
0
-20
-5
-11
-8
14
-13
-9
-18
-12
-14
8
-10
-7
-9
-5
5
3
-9
-3
-11
17
1
20
-34
7
-11
-18
-14
20
-20
35
-7
-6
28
33
2
-22
-14
25
10
7
-1
24
10
-15
16
1
-2
-6
-1
-8
0
2
11
4
15
-34
30
-6
-13
19
14
15
-3
-17
-7
-8
-13
-41
18
2
2
-9
-17
-15
-12
-23
19
3
3
12
11
14
8
5
26
31
10
-4
-27
13
29
-5
10
-3
-14
-8
6
-22
2
0
4
13
-3
19
31
-10
-19
26
15
10
17
-4
21
-23
-4
-3
-19
-26
-1
-13
7
-10
17
23
9
-51
5
-20
-6
-34
-15
-1
3
2
-16
1
0
-16
1
6
-13
-8
-16
-2
13
-10
-20
-4
-8
21
11
6
-28
5
11
17
31
3
16
-13
-21
0
-25
11
-2
2
-24
-7
-13
-10
1
10
-9
26
21
-6
-9
26
62
-17
23
-19
20
21
12
-13
-20
-22
-4
15
10
30
9
-5
-1
5
7
-8
-4
9
9
20
4
6
16
-15
17
-21
-1
19
29
-1
15
-1
17
-10
-4
21
14
9
-3
9
-2
-8
-3
35
16
13
15
-24
15
-4
-21
-21
10
-3
-23
-11
-5
17
-23
19
-3
-4
-20
7
-18
18
1
-17
-14
-15
27
-11
-13
0
13
-27
-9
-18
3
-19
34
13
5
-9
-18
-26
15
14
7
17
9
-2
-24
-6
1
43
-7
-6
-10
-6
1
-9
2
17
-7
-20
-19
-18
-11
-24
6
-17
7
10
10
-1
-24
18
13
-1
-21
9
8
-26
-21
15
-33
-6
9
-1
-14
-20
1
7
0
2
8
-3
-14
18
23
-3
20
3
-24
-17
19
7
28
-25
3
-14
-8
10
-6
-2
12
5
-20
17
-6
-3
-2
27
18
-10
0
-10
21
-10
-6
-1
-28
9
-22
-11
-18
-42
-17
-14
-36
-8
6
11
1
-13
-8
3
7
-28
1
17
-18
9
-27
-25
-34
1
7
-31
-10
4
2
23
-9
-10
5
36
-4
-16
-4
7
10
18
-1
9
10
14
9
-21
-15
30
26
-6
7
18
3
8
-12
12
-26
6
3
1
5
6
1
5
5
-9
10
4
8
23
-7
-2
-7
-35
-18
-2
-7
18
19
-13
10
0
-28
-6
-26
-1
16
-11
-4
-1
18
-2
-8
-42
-3
-3
-18
-20
-35
-24
-36
2
-7
-2
-34
18
-6
5
-13
-10
-13
-1
-3
42
-10
29
8
-8
-3
5
4
-25
-6
-22
12
-14
-18
32
8
-1
1
-1
-2
-1
0
0
1
-1
1
-1
-2
-1
0
0
0
-1
1
-1
-2
-2
0
0
1
-1
0
-1
-3
0
1
0
1
-1
1
-1
-2
-1
0
0
0
-1
1
-1
-2
-1
0
1
0
0
1
1
-2
0
1
1
2
0
1
-1
-2
0
1
0
1
-1
0
-1
-2
-1
0
0
1
3
-5
3
30
43
-6
20
10
1
-10
16
-23
-10
-29
-21
20
-32
4
-20
-7
-12
-14
22
12
-13
12
28
-32
3
29
19
1
18
-24
8
6
-8
19
-5
-17
44
30
20
-23
-11
-2
50
-26
20
-7
-9
17
1
16
26
21
4
10
-20
51
-21
12
22
-15
12
13
5
-5
11
-14
16
24
14
-26
-1
-6
-4
17
-8
30
5
18
-20
-1
-5
26
-4
13
-42
39
-13
-31
13
13
2
1
10
1
17
11
4
3
2
15
5
7
7
5
-10
27
-10
-15
-11
-15
-12
4
-8
18
-2
15
23
0
22
38
-11
0
14
-1
1
10
22
-24
24
-8
3
-2
-16
-5
23
-27
15
16
-14
6
1
-1
-1
-1
-1
0
-1
-1
0
0
-2
-2
-1
0
0
-1
0
0
-1
-2
-1
0
-1
-2
0
-1
-1
-2
-1
0
-1
-1
0
0
-2
-2
-1
0
0
-1
-1
0
-1
-2
-1
0
0
-1
1
-1
-1
-1
-1
-1
0
-1
1
0
-1
-2
-1
0
0
-1
-1
0
-1
-2
-1
0
-1
0
-7
-11
30
-7
-4
-38
7
-30
37
3
-9
-23
-5
29
-3
-9
-7
25
-14
-28
6
-4
-18
-4
-7
5
48
20
-41
2
3
-5
-23
21
-14
6
7
21
39
31
35
3
4
-20
-36
-1
22
-8
-2
15
-44
0
-13
7
2
16
6
-25
-35
42
23
3
-16
-3
-10
-18
-16
-16
-36
-47
2
8
-15
4
-5
26
-6
1
-28
10
-38
1
-12
-18
-1
-1
2
3
-7
13
44
-37
9
20
-3
-1
-14
8
-7
14
4
-11
-7
-8
-9
-11
-1
-22
-3
13
1
-11
7
0
-4
-29
-9
4
-6
-1
5
-19
-8
-9
-12
-21
6
-14
9
-16
-16
-30
-9
-4
29
-10
-10
2
17
-7
-22
-8
-11
-10
-16
-9
9
-2
6
14
16
-7
-4
-4
-1
8
16
9
8
-11
17
-9
-4
7
16
4
3
26
-14
-10
7
-22
-1
10
26
-14
-3
-13
-19
-37
-2
10
11
10
11
15
-3
-27
14
5
-8
8
-24
5
6
-1
-37
2
1
5
-14
11
6
-19
-31
-16
10
-1
-12
17
9
-9
-29
-19
1
4
7
18
10
1
1
-8
-14
-5
10
2
-32
-15
-1
-26
0
17
36
-15
-5
-18
-16
-28
-8
-19
6
14
26
18
6
2
1
15
-21
4
16
-3
24
18
7
19
15
9
-4
-5
-4
-7
10
-10
-4
-7
-1
6
45
34
9
11
-18
-1
-5
21
31
43
5
21
6
52
-12
12
1
-5
14
11
9
-30
9
8
12
10
-14
2
-4
-27
-40
-35
11
11
22
46
10
-24
0
-32
24
11
-26
19
14
-19
-11
-31
-18
-30
33
-4
-18
-18
9
21
-1
-14
-17
-10
7
-18
-9
-21
-28
1
-9
-19
5
14
-11
48
4
34
-4
29
43
57
-10
-7
1
10
0
0
12
14
-11
0
-22
-4
13
4
-22
-24
3
3
-8
0
3
4
-5
3
9
0
31
-3
2
0
18
4
-10
-6
-2
-8
14
5
-26
1
-11
27
14
-8
7
21
21
-11
-2
-10
33
7
-3
23
-3
-2
-10
3
1
-5
9
14
6
3
-23
-44
-5
-30
1
-26
9
21
1
-33
-8
-8
-1
-5
-1
5
5
-18
3
-8
-7
-20
13
-8
-17
0
-27
0
-33
-4
20
-19
-30
-12
-13
2
12
2
-17
17
-23
-28
-32
-15
-15
9
0
-21
-6
-10
8
7
-16
17
22
-4
-17
-15
-3
14
1
23
13
-10
-22
-18
-5
31
4
27
20
-18
12
10
-13
32
0
15
9
-13
-9
22
-1
11
-8
-1
-20
-29
-37
-23
-5
-26
11
2
-9
-16
-34
-30
21
-16
-12
-1
-16
-20
-26
-4
-5
-7
-12
3
-13
-7
7
23
14
0
3
2
-1
10
-40
-13
-25
-17
-2
2
-2
7
-45
-48
-56
-13
-23
-5
-3
-1
-20
-29
-3
9
-15
-13
5
46
-5
-5
102
3
22
27
-19
-80
26
-17
72
-20
9
23
29
-24
-24
20
-61
4
2
-31
0
0
0
0
0
0
0
0
0
0
0
0
0
0
0
0
0
0
0
0
0
0
0
0
0
0
0
0
0
0
0
0
0
0
0
0
0
0
0
0
0
0
0
0
0
0
0
0
0
0
0
0
0
0
0
0
0
0
0
0
0
0
0
0
0
0
0
0
0
0
0
0
0
0
-1
-1
0
0
0
0
0
1
-1
-1
-1
0
0
0
0
0
0
-1
-1
0
0
0
-1
0
-1
-1
0
0
0
1
-1
1
-1
-1
0
0
0
1
-1
0
-1
-1
-1
0
0
0
-1
1
-1
-1
0
0
0
1
-1
0
-1
-1
-1
0
0
1
-1
0
0
-1
-1
0
0
0
0
0
-1
0
0
0
0
0
0
0
-1
0
0
0
0
0
0
0
0
0
0
0
0
0
0
0
-1
0
0
0
0
0
0
0
-1
0
0
0
0
0
0
0
0
0
0
0
0
0
0
-1
0
0
0
0
0
0
0
0
0
0
0
0
0
1
0
1
0
-1
0
0
0
1
0
0
0
0
0
0
0
0
0
0
0
0
0
0
0
0
0
0
0
0
0
0
0
0
0
0
0
0
0
0
0
0
0
0
0
0
0
0
0
0
0
0
0
0
0
0
0
0
0
0
0
0
0
0
0
0
0
0
0
0
0
0
0
0
0
0
0
0
0
0
0
0
0
0
0
-1
-1
0
0
0
0
0
0
-1
-1
0
0
0
0
0
0
-2
-1
0
-1
0
0
0
0
-1
-1
0
0
0
1
0
0
-1
-1
0
0
0
0
0
0
-2
-1
0
-1
0
0
0
0
-1
0
0
0
0
0
0
0
-1
0
0
0
0
0
0
0
-2
-1
1
-1
0
0
0
0
-1
0
0
0
0
0
0
0
-1
0
0
0
0
0
0
0
-1
0
0
0
0
0
0
0
-1
-1
0
0
0
0
0
0
-1
0
0
0
0
0
-1
0
-1
0
0
0
0
0
0
0
-1
-1
0
0
0
0
0
0
-1
0
0
0
0
1
-1
0
0
0
0
0
0
10
-9
16
-24
-5
16
15
15
5
5
3
-15
15
12
-5
-30
25
-22
-20
-28
5
-6
-2
29
4
-17
23
20
-12
-1
35
14
-22
13
18
-39
3
21
37
36
10
9
-4
4
1
25
0
15
-3
3
34
-9
29
14
31
-13
-27
16
-6
2
-13
18
9
23
-33
25
13
-7
-4
-1
12
5
7
5
-50
-25
19
5
-2
-7
-7
-12
41
-24
4
3
10
-4
14
23
4
45
44
-16
10
-19
-2
-4
-16
-29
13
-10
15
-29
-31
-12
9
9
-35
7
-8
20
23
25
9
31
-17
-9
14
-16
19
19
-32
-52
11
-26
-27
-9
-37
23
-3
-30
-28
0
30
23
-29
-10
-20
-6
-16
27
56
-27
-10
9
-51
34
1
19
-17
21
-11
-6
-9
14
7
3
1
-4
4
-9
-10
-9
12
16
-3
5
2
48
-1
34
8
-11
20
22
-20
-5
31
-25
-10
-7
-10
4
6
-13
5
-15
-9
10
3
5
6
5
-5
-8
21
-9
6
34
-4
-11
11
-11
-7
9
-8
8
6
15
-11
-3
-4
11
6
-3
-17
-2
-24
-6
-20
-21
-37
-13
-3
8
-21
-22
-35
3
-4
5
-4
-2
-12
-28
-11
-10
8
-5
2
17
11
12
-11
-19
7
-4
-31
44
-27
4
22
-7
-7
-3
-12
-8
36
-23
-8
-10
1
20
13
-42
-31
20
18
-11
-3
-9
52
-6
19
-29
-9
51
-25
-15
-18
0
16
23
-40
51
-15
0
10
20
-19
36
-18
11
1
-8
21
-10
11
-35
5
-30
6
-17
-30
-9
-13
-1
-33
-2
24
-13
-4
8
-20
-12
-3
-24
37
7
5
-3
1
-18
-53
17
25
22
-6
-21
36
1
-56
12
9
-23
7
15
-4
-22
16
25
14
3
-9
13
14
-7
24
-17
-41
-6
-3
-20
-36
-15
8
-2
-24
6
-5
-6
-1
-40
26
-12
9
36
2
-14
-16
-18
-5
24
-2
12
-3
0
-7
-14
1
1
-7
-1
-19
-21
6
-33
-11
-6
18
15
3
-15
-1
-24
-16
20
-1
-24
6
-10
-13
1
4
-5
-19
6
18
9
-35
-25
-46
2
29
-29
12
-9
-14
-2
-32
-1
-14
-22
-3
-5
10
20
-18
-13
-10
-4
-16
-3
5
16
-20
6
20
-26
6
35
14
-17
-22
-23
28
-33
21
16
-12
9
-24
-25
-7
-25
2
-1
-17
5
7
-17
13
37
15
7
29
1
4
-13
0
14
19
4
23
29
21
1
-39
-7
10
26
-6
-8
2
-9
4
-19
-10
-18
3
-23
22
29
30
-7
33
11
4
5
-2
2
39
22
0
0
0
0
0
0
0
0
0
0
0
0
0
0
0
0
0
0
0
0
0
0
0
0
0
0
0
0
0
0
0
0
0
0
0
0
0
0
0
0
0
0
0
0
0
0
0
0
0
0
0
0
0
0
0
0
0
0
0
0
0
0
0
0
0
0
0
0
0
0
0
0
12
-20
2
-23
36
24
-9
30
-15
1
-12
-3
14
22
-13
6
-16
0
-13
-20
24
6
1
3
-37
-11
-6
-8
-9
-22
52
34
-21
-7
5
-8
-10
-6
10
-30
-9
-33
-9
11
-6
21
-6
-21
-27
33
24
-15
3
-10
4
23
-24
-9
2
-30
-3
-19
12
-9
15
22
0
5
-16
-6
0
-9
-4
-18
17
-4
-19
13
-14
-17
-9
12
18
7
16
18
3
15
-28
20
-22
10
12
20
2
19
-29
3
12
-42
-11
-10
19
-2
12
18
29
8
43
-8
-14
19
24
-2
-29
-26
-19
-17
23
19
-13
-8
21
-18
-2
-7
31
-10
15
-3
3
-14
11
11
17
1
21
-10
-23
35
11
-24
3
-32
0
0
0
0
0
0
0
0
0
0
0
0
0
0
0
0
0
0
0
0
0
0
0
0
0
0
0
0
0
0
0
0
0
0
0
0
0
0
0
0
0
0
0
0
0
0
0
0
0
0
0
0
0
0
0
0
0
0
0
0
0
0
0
0
0
0
0
0
0
0
0
0
-25
-12
-8
2
-13
0
-2
7
-21
-11
-20
-3
9
17
-22
11
-22
-10
10
-13
-15
12
-18
11
10
-20
-11
-23
-37
6
-20
4
15
-14
0
-7
-3
-18
-8
-22
5
11
30
18
-1
3
13
-3
-39
-30
-25
-11
55
27
9
-57
-7
-8
-26
16
-38
8
-21
-28
-37
55
51
4
57
35
-14
-14
-16
23
12
-10
-31
17
-20
-28
-16
-8
-1
-15
-25
-6
10
-18
3
0
15
-31
41
8
0
-2
-24
29
-7
12
-19
19
-7
-8
-32
-3
-9
-5
-23
-16
0
5
14
-12
11
-1
15
11
12
1
1
25
-10
-2
3
27
2
17
-29
-11
-11
5
-27
-12
15
-13
-3
-12
12
-2
29
11
27
25
0
0
0
0
0
0
0
0
0
0
0
0
0
0
0
0
0
0
0
0
0
0
0
0
0
0
0
0
0
0
0
0
0
0
0
0
0
0
0
0
0
0
0
0
0
0
0
0
0
0
0
0
0
0
0
0
0
0
0
0
0
0
0
0
0
0
0
0
0
0
0
0
4
15
14
-10
14
-28
27
-6
7
-13
9
-7
4
4
1
-24
7
3
2
11
3
-15
-30
0
10
15
9
4
7
8
-8
19
-23
-12
20
7
24
-22
18
-17
2
3
7
6
1
-13
8
-8
35
9
-4
27
7
26
4
-5
-22
-1
10
10
16
8
0
-9
-4
-5
20
-1
0
-38
8
-6
-10
19
0
-7
-9
6
-17
1
-1
-3
-4
-15
-45
-10
6
2
19
-43
-11
37
-3
25
20
-4
-7
18
-8
0
14
7
-17
-3
-7
-1
-13
-10
-3
-13
1
5
10
-38
-13
5
-2
8
31
1
-11
25
0
0
9
22
-11
1
-12
27
-2
-45
-12
-13
-9
0
4
-13
-5
12
-2
5
5
8
0
0
0
-1
0
0
0
0
0
0
0
0
0
0
0
0
0
0
0
0
0
0
0
0
0
0
0
-1
0
0
0
0
0
0
0
-1
0
0
0
0
0
0
0
-1
0
0
0
0
0
0
0
-1
0
0
0
0
0
0
0
-1
0
0
0
0
0
0
0
-1
0
0
0
0
2
19
-10
-4
21
4
9
8
7
-25
26
18
8
-19
18
5
3
14
-7
8
-2
6
-3
21
17
5
-15
-12
-17
0
15
-10
-11
-20
11
9
-14
-20
-3
53
4
-14
6
23
-5
7
18
2
17
-18
-3
1
8
-11
-6
-20
-3
23
12
-16
-29
-14
-7
-2
4
14
-17
-14
8
32
9
7
-26
-2
7
-7
4
-8
4
-1
-4
-1
3
-22
7
-12
5
-17
-4
9
24
-6
21
2
-6
-14
-8
-5
-25
-4
-11
9
-6
2
4
4
-2
-4
-8
9
-3
-8
22
12
14
-2
16
22
-1
18
-7
-8
-17
-7
-16
13
-24
18
11
21
-6
6
-9
10
-9
-1
9
2
1
-5
17
22
2
17
-7
18
11
11
5
28
0
2
-2
-10
-13
-25
-5
3
-3
-18
9
-10
14
-2
-13
9
11
-9
9
18
-16
2
-17
-13
3
0
-5
0
0
-7
4
10
-3
-8
5
18
-9
-2
4
-4
-19
-6
2
-26
-10
38
-35
11
-17
8
-16
8
-5
10
-13
6
-20
13
-18
1
15
-3
-20
-22
12
-4
-19
3
5
-19
-5
29
-10
-11
-3
-19
1
0
21
-3
7
-27
-11
-4
-16
-19
-8
5
-7
-38
-9
28
8
2
2
-3
-17
2
1
-20
20
24
15
6
-19
-11
-30
0
5
-4
-23
-32
14
-21
12
13
-7
-16
-6
21
-7
0
14
-19
18
1
20
16
-3
-4
-22
-6
2
-13
-4
11
-11
-22
8
-1
-4
-11
-13
2
4
17
4
-3
7
-22
-19
5
0
5
7
-4
-12
-3
-9
20
-9
-1
5
-2
-11
-5
0
16
-7
-3
24
-7
16
-12
-10
9
16
-13
26
0
-5
7
0
11
-5
-22
21
-3
3
8
7
11
-6
-5
22
-5
-5
1
3
-11
-2
-9
19
-1
3
7
7
17
-4
-13
7
-11
5
-8
19
-23
21
-12
-20
14
-6
11
19
-1
13
16
-14
-22
-22
-12
22
-7
-4
-3
10
4
-18
-5
-21
12
-13
-10
-6
-8
5
11
8
16
11
-11
17
-11
15
-27
16
-8
-6
-2
-8
-9
7
21
-11
-3
-13
16
-33
6
-11
-22
2
-16
8
3
-10
2
-8
-2
6
-9
4
-2
-18
3
-7
13
7
7
-8
-18
-32
-10
2
2
-6
-17
4
5
-9
32
-6
-5
4
43
3
-15
15
6
7
-12
0
-14
5
-23
-19
-17
4
4
13
6
2
9
-10
-4
-18
4
-1
18
2
2
7
6
32
-26
-7
-3
10
-24
-9
-14
-7
-8
-11
-8
4
-16
2
3
-13
-27
-4
0
11
-3
0
0
0
0
0
0
0
0
0
0
0
0
0
0
0
0
0
0
0
0
0
0
0
0
0
0
0
0
0
0
0
0
0
0
0
0
0
0
0
0
0
0
0
0
0
0
0
0
0
0
0
0
0
0
0
0
0
0
0
0
0
0
0
0
0
0
0
0
0
0
0
0
11
17
11
0
-32
3
-15
1
-10
3
5
-16
3
-4
-22
-16
-21
12
-37
-24
5
-18
-46
1
29
13
1
24
-3
-29
13
0
11
6
30
43
10
-2
21
23
31
-9
-5
43
8
-24
9
11
-36
-26
-9
-2
27
-3
18
-4
-32
5
3
8
-13
7
-19
4
-9
22
10
-13
-17
0
-14
-3
10
12
-16
23
2
0
-4
9
14
6
-21
13
1
-9
-6
-23
0
-33
-9
8
-18
12
-7
-3
11
-3
10
-20
32
25
-2
12
3
18
30
-20
-18
-2
-18
-24
25
11
26
-2
-13
20
-23
4
36
23
20
39
5
1
55
-20
27
43
7
-25
-28
-14
11
-30
-12
-5
-1
-9
16
12
23
17
0
0
0
0
0
0
0
0
0
0
0
0
0
0
0
0
0
0
0
0
0
0
0
0
0
0
0
0
0
0
0
0
0
0
0
0
0
0
0
0
0
0
0
0
0
0
0
0
0
0
0
0
0
0
0
0
0
0
0
0
0
0
0
0
0
0
0
0
0
0
0
0
-13
-4
15
-10
-6
-21
-23
-23
-11
-9
28
2
-13
-5
-8
25
28
9
-2
-12
20
4
-10
18
-17
12
8
-47
13
-15
24
-3
-18
9
-7
-13
-18
3
13
-16
-1
-10
-15
-5
-4
11
-23
-1
0
16
-4
-12
-10
-1
39
0
2
-4
30
28
19
7
18
4
-6
-2
-12
14
27
7
9
31
-6
0
9
-9
3
14
11
25
-34
-19
-26
5
-11
5
-5
21
-16
-14
-11
26
-11
-11
19
6
-8
-17
1
-8
27
-4
40
-11
-35
0
-1
-28
-16
3
2
-8
-11
-25
7
-7
-21
-12
-2
-23
-14
26
-22
-19
8
-7
35
-5
30
-37
-2
-33
13
-14
-29
-18
5
-14
-10
-16
-12
7
26
6
6
-4
-6
-1
2
-4
7
21
-7
-1
-15
-7
6
-3
5
22
-9
-5
-3
-16
2
-11
10
1
10
24
-21
7
-8
-1
8
30
32
-2
5
4
-10
11
3
4
2
-13
8
-3
-14
-1
-5
6
22
33
-3
-31
-6
0
-10
25
6
-20
9
-3
-8
11
-13
19
-46
-8
16
-1
-22
-22
-16
-21
0
0
0
0
0
0
0
0
0
0
0
0
0
0
0
0
0
0
0
0
0
0
0
0
0
0
0
0
0
0
0
0
0
0
0
0
0
0
0
0
0
0
0
0
0
0
0
0
0
0
0
0
0
0
0
0
0
0
0
0
0
0
0
0
0
0
0
0
0
0
0
0
0
0
0
0
0
0
0
0
0
0
0
0
0
0
0
0
0
0
0
0
0
0
0
0
0
0
0
0
0
0
0
0
0
0
0
0
0
0
0
0
0
0
0
0
0
0
0
0
0
0
0
0
0
0
0
0
0
0
0
0
0
0
0
0
0
0
0
0
0
0
0
0
6
-10
10
-8
-33
-21
-13
-5
-5
-9
-10
-13
-31
1
-4
7
-26
-20
-17
-21
-31
-3
5
-3
0
-24
21
-7
-2
0
-10
-11
14
-18
3
1
-6
18
-15
-4
-2
-11
-3
-16
-18
-1
-23
-1
9
-5
20
29
6
-18
13
9
25
6
-4
9
19
-10
-8
-3
-20
12
-10
-28
-19
-15
-32
11
0
0
0
0
0
0
0
0
0
0
0
0
0
0
0
0
0
0
0
0
0
0
0
0
0
0
0
0
0
0
0
0
0
0
0
0
0
0
0
0
0
0
0
0
0
0
0
0
0
0
0
0
0
0
0
0
0
0
0
0
0
0
0
0
0
0
0
0
0
0
0
0
0
0
0
0
0
0
0
0
0
0
0
0
0
0
0
0
0
0
0
0
0
0
0
0
0
0
0
0
0
0
0
0
0
0
0
0
0
0
0
0
0
0
0
0
0
0
0
0
0
0
0
0
0
0
0
0
0
0
0
0
0
0
0
0
0
0
0
0
0
0
0
0
5
-2
-9
0
-4
3
19
23
-5
-8
-14
-12
-18
13
20
12
10
8
17
-4
-1
12
15
19
-22
-1
37
-38
15
-2
-18
-34
-7
-4
2
-14
-6
14
-1
23
-16
2
0
-7
-15
8
-11
28
-5
2
17
-26
-1
13
-21
-1
-7
-3
11
-20
12
14
-6
10
27
14
8
0
12
23
-19
13
16
5
6
-14
23
9
14
32
-5
-8
16
-27
-13
13
1
0
-21
-11
-13
-20
-12
11
5
4
0
-1
-16
-4
3
-1
-7
3
-3
9
-17
-3
4
-5
-3
-1
-6
-13
23
-19
-20
0
-2
-6
5
-17
37
-39
-10
3
6
16
-3
4
28
-2
18
5
7
4
-10
-3
1
-21
-1
10
22
7
19
-6
6
-18
-6
-3
3
11
5
-13
-10
-13
-14
-6
5
15
10
-1
10
-15
10
-7
-9
10
14
-28
14
-34
-17
5
-5
16
19
15
26
-12
-10
1
-8
28
2
4
25
-21
-16
-1
12
12
-6
12
12
-35
-15
5
19
-3
9
5
27
34
7
1
14
-27
-17
-1
25
-16
9
0
-9
-1
-11
-13
-12
-15
8
-8
-6
5
3
-28
12
-24
-9
3
-5
-15
-9
-21
-3
-26
-19
17
2
-11
23
0
-23
2
-7
-10
5
16
20
-2
12
-13
7
-8
-1
-2
3
35
19
19
33
2
-24
-10
-17
0
-3
-18
-20
11
-5
9
-10
7
12
-9
11
13
27
15
6
7
1
7
37
11
16
3
-9
13
12
20
-6
12
20
-4
-3
3
-35
-21
-10
15
-13
-6
-3
-5
-32
-10
-23
-13
-36
-7
-1
-13
2
11
27
1
-8
22
22
-19
-9
-7
-14
5
10
11
-12
-9
-32
-1
-44
-12
-7
27
-1
74
26
9
7
12
-15
-11
14
-21
12
1
26
11
-7
-31
-15
-5
-25
-38
-36
-10
-37
12
2
-7
-15
-24
-22
-4
-25
3
5
5
-10
-23
-27
-12
-6
-14
2
-7
3
-21
-6
1
7
-7
8
15
-7
-3
-14
8
-23
-14
19
-25
10
13
-20
-5
4
20
-4
-21
13
31
-25
-10
-10
13
8
67
33
-14
41
-5
-10
11
2
26
39
21
72
7
-5
-22
-18
-21
-10
-20
0
3
-12
14
0
0
0
0
0
0
0
0
0
0
0
0
0
0
0
0
0
0
0
0
0
0
0
0
0
0
0
0
0
0
0
0
0
0
0
0
0
0
0
0
0
0
0
0
0
0
0
0
0
0
0
0
0
0
0
0
0
0
0
0
0
0
0
0
0
0
0
0
0
0
0
0
-19
-2
-18
-14
-11
-11
-6
7
-6
1
-14
-7
-3
-16
-3
-7
-19
5
-4
-8
3
-25
14
-20
20
1
-16
14
-9
-8
-25
8
6
11
14
-14
29
7
-2
8
-6
12
-15
-11
21
5
-2
-11
-16
22
-3
-7
-1
-7
11
11
15
-5
25
9
18
5
13
20
10
5
-4
-18
-6
0
-4
2
10
3
-28
-2
-10
3
1
33
-14
-18
4
-25
4
2
22
45
-4
-16
7
-35
11
3
21
35
30
-8
-21
24
5
6
12
16
24
-18
-1
-7
-8
-5
6
-19
9
12
15
-27
13
10
10
50
-2
-9
-10
-2
-3
10
-16
3
-13
-6
15
-5
-7
-10
9
-13
-11
-1
-1
-18
21
5
-21
9
0
0
0
0
0
0
0
0
0
0
0
0
0
0
0
0
0
0
0
0
0
0
0
0
0
0
0
0
0
0
0
0
0
0
0
0
0
0
0
0
0
0
0
0
0
0
0
0
0
0
0
0
0
0
0
0
0
0
0
0
0
0
0
0
0
0
0
0
0
0
0
0
7
20
11
-4
13
-8
-1
-13
-2
8
-10
-1
-8
3
-13
20
-35
29
-1
-13
1
9
13
1
17
2
19
-31
14
-18
-11
-28
-12
-6
-5
-3
6
2
-15
11
-19
18
1
-5
20
17
-1
-12
-6
1
17
-18
-1
-20
0
-2
-12
-8
-12
6
-14
-16
-2
-10
-6
-2
-4
6
-5
15
6
-1
-9
-11
-10
-21
-6
-19
-9
18
5
12
4
-40
-28
7
15
-14
11
15
-12
-17
13
-2
4
-10
-19
-4
-29
-27
9
-29
-16
-8
15
18
-11
25
-17
5
15
-13
14
-28
-4
34
54
-4
-5
0
22
34
-27
12
-37
-20
-6
1
27
61
18
30
-48
1
3
-44
26
-12
-13
-2
-51
-7
-4
-38
-9
3
-17
-4
-7
-26
-33
-4
-32
13
9
-1
-8
-3
-5
-14
-11
-8
1
-1
-5
-3
2
10
7
21
-2
35
31
18
1
-8
14
-7
-6
-12
17
-11
7
-9
1
-28
-10
12
-7
-3
29
1
-12
-6
-15
-6
-33
5
36
1
-10
6
1
23
10
12
-11
7
-13
22
-7
1
-1
6
-7
-19
-1
28
8
-8
10
-11
1
7
24
-20
-9
6
-5
9
-12
-14
25
16
-12
12
6
9
5
17
-14
23
30
-43
8
3
-16
4
-16
12
-33
-25
-9
4
1
-27
-11
-10
1
8
-24
-25
21
23
14
9
11
10
-16
12
-2
3
8
3
7
-13
-14
15
-17
-11
-4
-29
16
4
-21
12
9
25
-1
0
-1
0
-1
-2
1
0
-1
-1
-1
-1
-1
-2
0
-1
-2
-1
-1
-3
-1
-2
1
-2
-2
0
-3
-1
-1
-1
0
0
-1
0
-2
-1
-2
-1
1
0
-1
1
-2
-2
-1
0
1
0
-3
-1
-2
-1
-1
0
0
0
-2
-1
-2
-1
-1
1
1
1
-1
1
-2
-2
0
2
1
2
-1
-2
-1
-4
-1
-2
-1
1
-1
-2
0
-3
-1
-1
-1
-1
-1
-1
1
-3
-2
1
0
-1
0
-2
1
-3
0
-2
0
0
-1
-2
0
-3
0
-1
-1
-2
-1
-2
-1
-3
0
0
0
-1
0
-1
0
-3
0
-1
-1
0
-1
-1
0
-3
0
-1
-1
-2
-1
-1
-1
-2
0
0
1
-2
-8
-16
-14
-17
7
12
21
0
-4
-28
-15
-9
7
-2
2
-2
12
19
-6
5
12
4
-6
13
27
-8
7
3
26
5
6
10
25
-12
-29
-13
4
22
-24
1
-22
-3
-12
-7
-2
-34
-49
-9
-4
-9
2
-21
7
-20
-10
3
5
-17
-22
-34
-8
7
-21
6
-5
-22
5
-3
-16
0
-22
32
0
-1
0
0
0
0
-1
0
0
0
0
0
0
0
-1
0
0
0
0
0
0
0
-1
0
0
-1
0
0
0
0
-1
0
0
0
0
0
0
0
-1
0
0
0
0
0
0
0
-1
0
0
-1
0
0
0
0
-1
0
0
-1
0
0
0
0
-1
0
0
-1
0
0
0
0
-1
0
-31
18
-17
0
-27
7
-24
10
6
34
-25
9
-15
-29
47
1
21
20
-16
-4
16
20
-33
-5
10
11
4
-9
-19
-22
44
-10
3
51
-11
4
-7
10
5
5
-10
0
-11
10
27
-7
3
-6
10
-17
64
1
-1
-34
-4
-28
-2
46
38
5
-2
9
18
-14
-7
4
33
-23
15
1
-31
1
9
-28
18
-39
-18
-18
-16
17
-9
-8
20
20
-4
0
17
-6
-20
23
-1
27
-26
16
3
-28
21
-4
0
-31
-13
-9
-10
36
16
13
-2
1
-8
16
41
3
-15
16
32
24
20
0
15
-9
5
-41
-27
-30
-19
-14
-4
16
-8
6
-2
0
3
4
12
-3
-15
23
2
24
46
-1
-17
1
0
0
0
0
0
0
0
0
0
0
0
0
0
0
0
0
0
0
0
0
0
0
0
0
0
0
0
0
0
0
0
0
0
0
0
0
0
0
0
0
0
0
0
0
0
0
0
0
0
0
0
0
0
0
0
0
0
0
0
0
0
0
0
0
0
0
0
0
0
0
0
0
-23
-6
-24
-13
-2
26
-30
9
-10
-20
6
-11
12
-20
-12
-3
-7
8
3
-8
-4
-2
10
19
16
-9
16
3
5
13
-12
32
14
0
2
14
-1
2
-20
-6
13
-5
2
9
11
15
-18
0
-17
-24
3
-11
-10
-11
10
37
14
15
8
-3
12
-28
28
41
18
-14
-2
31
22
-2
16
-4
13
-16
-3
27
1
10
-10
9
16
-8
2
-4
2
23
-7
-4
1
3
-5
0
3
-2
-21
11
2
-17
12
-6
-4
1
3
-2
4
19
-3
-10
-6
-2
7
-14
2
-7
9
7
-3
-12
-6
-20
-4
-11
20
-12
3
-11
-17
11
-3
-21
-4
-25
-24
-18
-12
0
-2
-2
-5
-4
1
-11
1
-14
37
10
50
46
-19
1
-19
-1
0
-2
-16
12
4
8
3
1
-1
1
9
3
10
-1
-13
-10
8
16
32
-10
-19
8
-19
-8
-23
-9
-14
7
15
-2
-12
27
12
-7
-14
-16
1
-8
-9
11
15
-9
-22
49
4
24
10
1
-7
-24
5
22
18
-8
10
7
-7
-5
25
-22
40
9
-12
4
0
0
0
0
0
0
0
0
0
0
0
0
0
0
0
0
0
0
0
0
0
0
0
0
0
0
0
0
0
0
0
0
0
0
0
0
0
0
0
0
0
0
0
0
0
0
0
0
0
0
0
0
0
0
0
0
0
0
0
0
0
0
0
0
0
0
0
0
0
0
0
0
16
-29
3
21
-16
-16
10
17
-18
-6
-14
7
3
-15
5
9
-19
1
-2
2
4
9
-2
-12
7
-17
-5
11
11
-10
12
29
-2
-13
-10
-2
-3
-1
6
19
-13
-2
-9
-15
-6
1
4
-4
8
-6
0
10
13
-6
-13
10
13
-1
1
-2
-10
6
-8
-7
-9
-13
-10
-11
4
11
-1
3
-7
32
23
25
10
9
7
17
8
-1
-5
25
14
25
-8
14
16
11
-4
-2
5
8
-7
-10
11
10
-3
20
-25
-7
-1
9
0
-20
-24
-19
-14
1
4
-5
0
1
2
8
4
-18
0
24
-7
20
-13
21
-11
-1
7
-11
2
-8
-23
-20
13
20
17
9
4
-20
11
-20
19
-17
14
29
0
0
0
0
0
0
0
0
0
0
0
0
0
0
0
0
0
0
0
0
0
0
0
0
0
0
0
0
0
0
0
0
0
0
0
0
0
0
0
0
0
0
0
0
0
0
0
0
0
0
0
0
0
0
0
0
0
0
0
0
0
0
0
0
0
0
0
0
0
0
0
0
11
1
1
-3
-10
4
-7
-10
9
7
8
19
9
-9
1
-22
26
-15
-15
6
10
-4
-11
-19
-2
19
-8
-25
3
-2
19
-3
-4
2
-7
5
6
-22
26
-12
29
-28
0
-1
21
-1
-18
5
9
17
-12
14
1
-5
35
14
-4
-13
-20
-2
-12
-16
28
7
0
-34
0
-7
20
14
-3
5
-10
-16
4
2
-10
-36
9
-26
35
-27
19
-2
-1
7
6
-15
12
11
-32
-6
-3
9
-5
8
-26
-6
-25
-1
9
1
-8
8
14
-30
11
-21
2
4
-10
-1
10
-38
-18
20
-9
1
2
-11
-24
5
-28
30
-13
-30
-45
-8
8
28
-8
-14
9
-33
-40
-12
24
29
-23
-4
33
1
-21
-29
0
0
0
0
0
0
0
0
0
0
0
0
0
0
0
0
0
0
0
0
0
0
0
0
0
0
0
0
0
0
0
0
0
0
0
0
0
0
0
0
0
0
0
0
0
0
0
0
0
0
0
0
0
0
0
0
0
0
0
0
0
0
0
0
0
0
0
0
0
0
0
0
-1
0
7
5
-21
-6
6
-7
16
-5
1
-3
-37
-3
-3
0
19
5
4
-14
-38
1
11
8
15
-1
4
4
-23
-3
-3
-7
0
-6
-8
4
-12
3
-10
17
18
-11
13
13
-6
16
-13
13
30
11
-9
2
-18
0
-22
-6
14
-13
-6
-12
-11
16
-5
14
-8
-25
-3
-23
11
12
-7
20
-1
-4
-32
-19
14
3
17
-6
26
-13
-18
17
1
-5
-4
24
4
7
8
24
-18
16
10
17
-15
12
-22
-12
-13
-12
-3
-1
27
-14
-2
-21
-29
14
13
10
-6
13
12
15
-20
-8
12
-6
-22
27
-23
-1
12
22
-34
-3
2
-1
-15
-17
4
37
-5
5
-1
-12
9
13
10
10
31
7
0
0
0
0
0
0
0
0
0
0
0
0
0
0
0
0
0
0
0
0
0
0
0
0
0
0
0
0
0
0
0
0
0
0
0
0
0
0
0
0
0
0
0
0
0
0
0
0
0
0
0
0
0
0
0
0
0
0
0
0
0
0
0
0
0
0
0
0
0
0
0
0
-3
-29
-39
-6
18
-13
-22
1
-5
-19
-10
-4
8
-11
-18
0
9
-27
-5
-13
-4
-8
-19
-8
1
-15
3
2
23
-13
-31
-2
15
-25
16
7
9
-11
10
14
18
-5
4
5
-1
-4
4
11
-6
-8
-19
16
22
17
0
27
-5
-20
9
0
-2
-5
8
1
-10
5
27
9
-15
0
13
-7
27
3
11
6
13
4
-4
17
0
-31
-1
-6
-14
-13
11
11
13
-22
6
-8
1
31
-5
0
15
-1
9
5
-12
18
-5
11
-10
20
-4
-9
-14
-6
9
11
14
-26
-20
-11
-3
2
-14
10
-19
19
-20
-6
2
6
-13
-5
-24
20
-1
-18
8
-24
-5
-9
-2
-30
-35
-11
29
-8
-37
20
14
-14
16
-16
19
-6
-21
4
16
-3
-12
-7
-7
-18
-15
19
8
-4
-6
-15
-6
19
14
13
-7
-18
-3
4
11
16
-15
13
1
-10
8
10
12
-7
17
5
1
-16
5
-11
-12
22
15
-5
11
-12
2
22
-14
-25
0
-9
12
0
-12
13
9
-17
8
-2
34
-28
-18
-38
-2
6
-4
-7
2
-17
-9
-1
-11
-7
-1
-5
12
-20
-15
7
21
-8
-17
-6
2
-12
-13
5
20
13
-34
-8
-4
-11
-13
14
39
4
-10
15
12
-15
-20
8
8
-7
-12
-9
14
-1
-15
1
3
25
-3
-5
18
5
-2
11
46
11
2
3
30
0
6
20
0
5
-8
-7
3
-11
6
3
-9
12
-18
5
11
5
31
9
-19
-18
-7
16
28
-3
6
18
16
-21
-3
5
17
-14
-4
-5
-17
10
-34
1
-6
-7
22
26
-10
4
-9
6
17
0
12
1
1
-10
4
0
-10
1
3
-6
-22
4
21
-4
-21
-11
-14
-5
-2
1
4
17
-2
-9
-13
-18
22
-14
-2
-2
2
-7
-25
3
9
12
-20
-12
4
0
-5
34
39
-20
9
18
8
1
-3
18
23
6
10
7
31
-4
9
16
18
7
1
-2
0
-12
3
19
21
-4
-11
26
5
0
0
-13
3
11
-1
2
-10
0
18
-14
-14
31
23
9
-19
4
-3
-27
17
-14
-8
13
16
-19
-29
-31
-14
10
18
13
19
-17
-16
8
6
-8
54
14
32
8
-10
-7
-4
2
-2
-12
25
-30
-13
0
-18
-2
-24
21
11
-16
5
28
43
4
-4
9
14
8
-28
8
5
14
-28
-16
-8
-7
-34
4
-1
-9
-15
-31
3
17
31
26
-47
-28
-11
-1
2
6
17
-11
-16
-9
-12
0
1
0
-12
28
-28
-16
-23
16
1
4
2
48
-18
-38
-15
23
16
-18
4
-2
-21
-19
-12
6
16
-39
-36
10
10
6
-14
2
-2
9
-26
-34
-8
-10
3
-45
-6
7
-7
0
-12
-8
-37
4
19
-11
-5
-2
-7
6
-17
1
-9
-44
-11
34
12
11
11
29
-37
-8
-2
2
13
-32
-17
23
4
9
0
-5
34
-25
-7
4
5
29
25
-5
4
-8
-3
-21
-1
18
3
-6
-5
-8
20
-10
9
7
-17
15
31
-3
-24
-2
18
0
2
1
0
-12
-10
4
-12
7
-14
-6
17
-1
17
2
-6
-27
-3
3
8
5
2
10
8
-9
-14
-19
-14
8
-1
7
-23
-10
24
9
18
-19
18
-7
-9
17
-25
14
0
17
-40
11
-24
-14
-8
-23
12
7
-30
-2
13
-2
40
32
-11
30
11
28
16
8
18
17
-24
19
-30
5
-6
3
-23
-10
19
-3
-26
11
-11
-15
10
-27
-8
28
41
5
-15
-11
-3
10
-4
-22
-1
-21
-5
-6
11
2
-14
-3
1
11
0
-8
-14
-20
-20
-35
19
-9
9
3
-13
10
31
-18
-47
-22
35
23
-15
-38
40
10
-39
9
3
0
7
9
-9
24
-32
-7
-16
-3
6
-17
-21
1
29
-30
-14
40
54
20
-7
23
36
9
-5
-27
16
-17
8
-20
1
15
-11
-1
-21
25
-13
-14
-10
-12
4
34
-11
16
-46
-13
22
21
21
-14
-19
-3
11
-9
-22
-9
-3
4
-7
1
0
9
1
0
-4
15
8
-4
-6
-6
24
14
5
15
34
14
8
1
16
15
-18
-14
5
2
-3
-15
-20
12
1
-1
-21
-6
3
-14
17
-12
51
12
-10
-23
9
19
-13
-2
11
5
18
21
0
6
-34
-2
8
-2
-11
-11
12
4
-11
-16
-12
23
-3
22
-1
-5
-11
-14
8
31
-13
26
21
8
4
6
-11
6
-13
-23
16
11
0
-12
0
6
11
-7
18
-26
-15
-4
11
-9
22
13
-13
-19
6
7
15
-22
2
47
10
-6
-11
35
18
-7
-11
-24
-38
8
-2
3
-5
10
-1
-9
-8
14
-4
2
14
21
16
10
31
8
-20
23
16
-1
14
-43
7
-26
-44
-27
26
-7
-33
3
-5
12
-13
-17
38
-40
-35
14
0
28
-1
6
-9
-13
-3
-12
16
-11
-9
-31
7
36
-4
0
-5
-23
26
-9
-23
17
7
-8
1
-1
-3
-9
21
-20
-11
-26
-5
-13
-27
-14
5
23
-4
15
-57
-11
42
-4
11
-15
26
-1
-20
19
11
-17
1
-27
-36
-14
-10
-7
-32
21
-5
-18
1
19
0
-1
2
11
3
-28
28
-15
-3
-9
-11
3
-10
15
21
6
-2
-26
-6
3
4
20
8
11
-16
-16
16
-1
7
7
-44
-15
-7
12
-28
-27
16
-6
16
11
10
-10
21
28
18
22
33
13
2
1
-21
7
14
-20
-53
-43
33
4
-11
0
22
-28
-24
10
-14
-7
-5
-8
4
11
4
16
5
15
8
-1
-15
3
-23
-21
22
-17
-31
20
0
-14
-3
-13
-14
1
4
11
10
-14
-7
12
-11
-32
-18
21
24
-4
-21
13
8
-3
-19
9
11
0
2
4
-13
15
12
5
-12
15
14
-1
-9
56
-31
-16
0
0
10
-31
-9
2
-33
26
13
-16
-21
-24
25
2
-3
9
-5
16
0
-4
14
34
47
-25
-8
-13
5
10
1
30
48
-3
-14
-3
1
5
6
18
2
3
27
10
-16
-23
-21
-19
14
-9
11
18
5
3
-5
-22
-7
-14
2
-20
7
9
-2
5
-22
-7
2
-8
-4
-22
-7
19
-16
2
16
0
14
-3
-2
5
2
3
-22
16
2
10
3
7
-5
-7
-19
6
-5
-15
-26
-2
-2
-14
0
2
34
6
-15
-24
4
14
-8
19
7
23
30
-20
2
-10
2
-5
7
27
-10
-1
0
-4
-7
-18
-8
-8
-27
17
-18
11
-6
-4
0
29
13
-10
-16
-4
24
-5
5
-2
8
34
-12
-6
-14
-4
-21
-11
13
28
-3
27
16
18
28
14
3
-9
-4
-15
24
7
2
-19
-19
25
-21
-4
0
-1
-4
-6
-3
8
-30
-5
0
-1
-1
0
0
-1
-1
0
0
-1
-1
0
0
-1
-1
0
1
-1
-1
-1
1
-1
-1
0
0
-1
-1
0
0
-1
-1
0
1
-1
-1
0
1
-1
-1
0
0
-1
-1
0
1
-1
-1
0
1
-1
-1
1
0
-1
-1
0
0
-1
-1
1
0
0
-1
0
1
-1
-1
1
0
0
-1
0
0
0
0
0
0
0
0
0
0
0
0
0
0
0
0
0
0
0
0
0
0
0
0
0
0
0
0
0
0
0
0
0
0
0
0
0
0
0
0
0
0
0
0
0
0
0
0
0
0
0
0
0
0
0
0
0
0
0
0
0
0
0
0
0
0
0
0
0
0
0
0
0
12
-24
11
9
9
12
-19
-16
19
-29
6
-11
3
-3
-17
-20
3
-6
3
-15
5
14
-13
-28
-1
-16
4
1
14
-11
9
-11
4
-19
-12
-20
-2
-11
-10
-9
18
-8
6
-25
11
-15
7
9
17
7
11
2
-13
-10
10
-1
11
3
10
-12
-3
14
-6
27
-9
-2
-35
6
-18
3
-2
8
0
-1
0
-1
-1
0
-1
1
0
0
0
-1
-1
0
-1
1
0
-1
-1
-1
0
0
-1
1
0
0
0
-1
-1
0
-1
0
0
0
0
-1
-1
0
-1
1
0
0
-1
-1
0
0
-1
0
1
-1
0
-1
0
0
-1
1
1
-1
0
-1
0
0
-1
1
1
-1
-1
-1
0
0
-1
0
0
0
0
0
0
0
0
0
0
0
0
0
0
0
0
0
0
0
0
0
0
0
0
0
0
0
0
0
0
0
0
0
0
0
0
0
0
0
0
0
0
0
0
0
0
0
0
0
0
0
0
0
0
0
0
0
0
0
0
0
0
0
0
0
0
0
0
0
0
0
0
0
8
-4
12
47
6
-4
2
-6
21
-23
9
4
1
17
6
15
-5
-6
-15
-11
19
2
-1
-18
-20
13
-1
21
-4
-17
26
-18
24
-34
-19
10
15
33
0
8
-6
-7
-18
-18
-12
-31
-7
-1
-8
-2
6
35
4
-26
-1
13
22
11
13
-11
-5
62
-12
12
-6
6
-23
-24
24
-15
4
1
-6
5
33
4
-29
-22
34
-10
-11
-9
2
-1
-1
0
-18
-15
-3
-32
-18
33
37
-2
-4
-4
-21
-6
14
-8
3
-15
4
-4
1
-15
-7
29
-3
-13
-8
16
30
-12
5
-8
-7
6
-8
-9
12
-28
-18
-35
2
28
23
-16
-2
-11
-5
-20
-24
12
5
-17
-3
-7
-7
-19
-7
-2
-15
-14
-6
4
-14
1
-1
-3
-40
5
-7
-20
-15
7
19
6
-14
4
-19
-3
-16
8
21
-7
-15
2
-4
1
1
5
20
-9
17
11
8
0
3
7
19
-8
17
4
-10
-6
-2
5
0
24
-19
6
26
12
-7
58
5
-20
29
17
13
-17
-14
21
-2
-24
9
-1
-3
23
-33
7
-19
46
-22
5
-1
-2
-2
0
1
0
-2
1
0
-2
-1
0
1
0
-2
1
1
-1
-2
-1
1
0
-3
1
0
-2
-2
0
1
0
-2
0
0
-2
-2
0
2
0
-3
1
0
-1
-2
0
2
0
-3
2
1
-3
-2
1
0
0
-2
1
1
-2
-2
1
0
0
-2
2
0
-2
-2
1
1
0
-2
3
6
-7
39
15
-12
27
0
12
20
19
3
-28
-8
-4
-4
-15
-35
13
-4
-27
4
-13
3
2
19
-23
18
8
-13
-11
-7
2
1
-1
-2
4
-9
-17
1
-1
7
-22
-6
20
-28
-11
15
-5
15
-24
35
-33
5
-14
14
-2
-10
-16
4
-19
-2
20
-22
-4
13
5
-7
-33
1
-1
-22
-5
8
-15
-16
7
-3
-5
-14
13
17
-15
-8
-3
3
5
-22
-13
7
-20
9
-18
5
7
-21
0
18
-10
-9
-3
-2
9
-30
4
0
1
1
9
2
-2
-15
-2
7
-2
4
12
-4
3
-28
-1
-8
-7
2
11
-28
-2
-23
13
-13
17
32
14
2
-33
-15
8
4
15
22
-4
-14
-11
-5
-40
1
-1
-1
-1
-1
0
0
0
1
-1
-1
0
0
-1
-1
1
1
-1
-2
0
1
-1
-1
0
1
-1
-1
-1
-2
-1
0
1
1
0
-1
0
-1
-1
0
0
1
0
-2
1
0
-1
-1
-2
1
-1
0
0
-1
-1
1
0
1
-1
-1
1
1
-1
0
0
2
0
-1
1
2
-1
0
-2
-1
-8
-7
-2
-3
16
-32
9
7
5
-16
2
24
6
12
12
11
-14
-19
4
13
-3
-8
21
-28
16
-5
8
21
-15
-5
14
-8
12
11
5
3
-18
-8
2
3
-15
2
5
0
-31
-19
-1
-31
14
1
-2
-3
-16
-11
-11
0
26
-31
-13
-4
-32
11
-2
-10
-40
-24
1
-2
-22
5
-6
-2
-19
-21
1
7
-5
-7
13
11
-6
-1
4
20
5
-20
4
21
17
10
31
-31
-1
14
-2
11
-8
-22
-5
-7
-10
-5
10
20
-11
-16
-2
11
14
-2
15
29
14
-5
25
24
27
-6
8
-1
-9
-6
3
12
-11
-14
-26
6
-2
12
5
0
4
10
15
36
23
-14
20
48
-13
2
3
-3
-10
-6
-7
1
-5
17
-13
11
20
-13
3
4
20
21
-8
12
-11
23
-2
-19
24
9
-10
5
-4
1
34
-20
-6
-1
-8
-8
0
-18
0
2
6
8
14
14
-4
45
-4
13
-11
-24
13
-15
-16
-6
-10
15
-2
-11
-9
-18
-9
6
-6
-8
2
-21
22
15
-13
-3
2
12
9
-24
12
7
5
-7
2
-15
37
-9
-23
4
8
9
-1
-17
27
0
26
8
-9
10
11
-5
-12
3
15
-18
-2
-8
-20
-10
-7
-23
-6
0
-14
-21
-14
-19
-6
-1
18
-2
-21
-16
2
10
-12
10
17
-23
2
-17
-5
-12
-2
-37
-3
2
3
-8
-17
4
-6
-21
-9
-4
-5
-22
-9
27
-12
-37
-10
-13
0
-5
-15
1
3
-9
-10
-7
6
-5
8
16
3
11
-20
-23
27
10
-7
10
7
4
1
4
6
-8
-6
-13
0
5
16
8
-9
-1
14
-3
-1
7
14
6
21
17
-13
-3
7
49
6
4
10
7
-11
-10
21
-13
16
-1
-11
-7
-7
16
-3
-15
11
12
3
-20
-36
10
4
-8
-19
31
28
-19
1
-11
12
22
34
-21
20
-29
10
16
6
-13
-2
-4
-11
-5
11
4
28
5
-13
9
30
0
-12
-3
-16
-7
14
-26
9
-26
-5
18
-14
-17
2
-4
-9
1
-14
-14
-29
5
-19
0
19
-3
1
-17
-11
12
11
18
-3
-8
6
-11
23
14
13
-3
2
-18
-3
6
-18
-5
-12
-10
-8
-4
3
10
-5
-20
-3
-5
0
11
-4
3
-12
-17
17
4
-18
15
4
-14
15
-24
26
35
-19
-22
-4
31
-2
-19
9
-5
2
-25
6
-12
-3
-21
-1
-17
13
1
22
-13
-8
-6
0
12
-24
-7
5
12
5
-23
8
-6
4
-27
-9
19
11
5
-7
-18
11
-3
3
10
-4
-3
-9
-3
-15
-13
-2
-2
-10
-32
-5
-13
-27
2
3
12
-3
22
-9
-13
-3
-12
2
2
8
2
6
4
-30
6
24
20
6
-23
-5
9
-28
9
5
13
15
-4
-5
-6
-12
8
9
-17
9
5
-6
12
-27
6
12
-2
-11
-14
0
17
-4
19
-30
-22
3
1
-20
10
5
2
-24
-7
11
-8
26
-13
-6
2
11
15
-3
27
19
-1
-11
-11
-12
8
12
-3
4
14
-18
-13
-16
-12
12
-9
-11
12
-14
5
48
-1
3
17
7
4
-15
-13
10
15
11
-8
-11
6
-16
-10
-15
-16
28
-8
-4
-6
-17
4
29
-13
2
1
28
-16
-4
-19
-14
-1
18
-30
6
-5
-6
-10
5
-27
-1
-14
-4
4
9
-5
33
-10
3
15
-2
27
10
3
22
39
-3
-10
8
43
2
6
27
47
2
-16
-11
-26
-6
-13
3
8
-13
-1
-2
-7
-3
-5
9
20
-3
-16
-11
-3
0
-4
-1
54
4
-25
-28
1
-16
-20
1
16
-9
1
10
-3
-3
-23
-29
-13
4
2
-14
-27
17
18
-24
-11
1
2
-17
-4
-14
-19
-8
-9
0
4
-5
12
15
1
-4
11
-23
-16
11
-6
-3
-1
0
7
-17
1
-3
-4
-4
-8
2
-8
-12
-18
5
18
4
9
8
-5
-11
0
12
1
-8
-18
-12
-10
3
-1
-13
-4
8
-4
14
-12
-10
1
8
22
3
-5
2
-2
9
-2
-12
-11
1
-30
-11
-8
-9
-6
-29
-9
-7
-2
28
19
22
-33
-3
-16
-19
-16
-15
19
7
-23
8
12
-7
5
-20
12
0
-37
16
-5
6
21
22
30
-7
-8
9
7
-6
14
9
11
-11
-30
-14
7
-16
6
-4
-35
0
-39
0
-13
-17
6
-1
6
-2
-1
31
32
6
10
-16
28
-16
-1
1
18
9
14
-20
11
-19
-9
-39
0
0
0
0
0
0
0
0
0
0
0
0
0
0
0
0
0
0
0
0
0
0
0
0
0
0
0
0
0
0
0
0
0
0
0
0
0
0
0
0
0
0
0
0
0
0
0
0
0
0
0
0
0
0
0
0
0
0
0
0
0
0
0
0
0
0
0
0
0
0
0
0
15
-24
-4
-5
18
1
-24
24
-20
5
-24
22
8
-18
17
-23
-20
12
2
7
3
-12
17
-4
-6
-3
12
8
19
0
-28
-5
24
-17
5
27
-1
10
14
-17
19
-32
5
5
19
-14
17
7
5
-22
-14
2
27
12
-29
2
8
-5
-3
-16
15
-24
18
1
-4
-10
-6
-18
9
9
-24
-7
9
4
18
7
34
3
18
1
-5
-26
1
-6
10
-1
-10
-7
3
-20
0
-8
-1
1
5
-13
-6
7
-5
-8
2
10
-8
5
-9
-3
-21
-12
-23
-30
-18
-2
8
-21
-11
3
-2
-25
-4
-13
9
3
-6
6
-12
38
-22
11
-21
-25
4
-22
2
18
15
-11
-11
0
-5
-15
-20
-20
-3
-3
0
0
0
0
0
0
0
0
0
0
0
0
0
0
0
0
0
0
0
0
0
0
0
0
0
0
0
0
0
0
0
0
0
0
0
0
0
0
0
0
0
0
0
0
0
0
0
0
0
0
0
0
0
0
0
0
0
0
0
0
0
0
0
0
0
0
0
0
0
0
0
0
16
-11
1
2
-3
6
-31
-17
4
12
28
-11
-20
8
-1
-13
22
8
10
6
17
28
7
-1
-9
-2
-2
-14
-10
12
-29
-2
11
11
-4
-27
-3
-6
0
2
12
0
12
-26
21
-3
6
-17
-6
-6
0
-9
-10
2
-24
-9
7
8
21
-10
-17
13
24
26
-2
3
-13
9
-3
24
4
-10
-3
7
8
39
16
15
-8
23
-13
-5
-17
13
7
-4
-17
21
24
-6
-12
-5
3
21
-3
14
4
15
-7
23
4
-7
-10
12
-2
-10
12
9
-12
-21
-4
-17
4
0
13
-21
-9
-11
-3
-16
0
-9
-3
9
-3
10
0
11
8
-24
13
-5
-28
-8
-10
-4
-4
16
19
-16
-13
-19
-29
-10
8
-20
24
-1
22
-20
10
-2
-9
23
3
-17
-6
-29
-8
-3
5
3
3
-8
19
10
12
3
12
7
13
3
-13
-2
-20
10
3
-4
-19
-16
-10
14
-7
26
16
0
-6
-21
-8
16
-3
1
8
-9
-12
21
19
-1
9
9
18
-1
-16
0
17
48
-5
4
-2
9
-40
-3
13
21
-26
2
6
-27
1
24
10
8
-19
3
9
-18
0
31
3
7
-1
19
17
-19
-4
30
7
-6
-27
4
22
-23
-18
16
3
2
-8
-5
33
-9
-20
21
10
11
1
-5
19
-24
8
18
22
-3
-5
5
12
-30
-10
-1
-1
-17
-1
5
22
-7
-17
0
-11
-9
30
-7
4
-28
-5
6
-9
5
6
-22
8
20
28
36
-7
18
-4
-14
-10
-20
22
-17
-9
-31
-24
-20
5
-21
-21
-9
-25
-14
-12
-10
35
6
-4
-6
3
-6
-20
30
-4
-23
7
35
4
32
-4
14
5
-36
0
4
-15
-29
21
20
-7
12
-29
2
-4
2
-19
-1
9
18
-25
5
-1
-25
19
-7
3
22
-14
0
2
1
-13
-9
-10
-3
-23
20
47
-8
-3
16
-4
-8
-29
3
14
2
4
-2
-19
-13
-12
10
-5
1
-18
2
9
-10
-7
25
2
8
-1
18
-2
-13
-17
-6
-45
36
-2
-27
23
-29
5
-14
14
22
2
4
18
-9
-7
-32
-30
11
11
-10
-8
16
6
-10
-26
-7
16
7
-2
26
-3
-25
-9
33
3
-9
-3
2
4
-6
2
9
-1
6
15
3
5
0
-23
-2
5
14
14
-4
2
20
-1
-8
-7
9
-21
-10
-13
-8
9
9
-1
15
-3
-15
-16
-8
7
9
32
18
-2
-3
2
5
1
-16
3
13
7
1
-11
2
5
-14
-7
9
27
17
-19
-9
39
2
41
-15
-2
-1
0
14
18
-4
13
7
-24
-29
5
14
-2
3
9
25
7
-38
25
28
4
19
-21
16
-16
31
15
26
-4
-24
0
6
27
-12
-4
9
-16
2
3
12
12
24
-9
-41
3
6
14
-13
-8
-27
15
-3
4
-6
1
5
6
5
-2
12
7
4
-21
-19
-6
35
3
-13
-23
19
-20
-10
-16
7
18
-12
-24
-13
9
28
-2
-1
0
17
-12
-3
-18
0
2
17
11
10
-13
-5
5
5
8
1
-3
18
-5
12
-1
5
16
-10
-5
8
21
-19
-7
-6
-9
-21
-38
-1
-23
4
-27
-3
0
-1
-4
-19
4
11
-17
-8
-10
-2
-13
4
23
-18
-18
11
-16
-11
-25
17
-8
-6
9
-5
-11
-12
18
16
13
-9
-13
-23
9
-14
-9
-5
6
17
-7
24
-11
-17
0
-8
20
-22
-2
3
-3
-11
-2
7
-15
0
-3
-20
-20
-24
-4
-35
8
7
-21
17
-6
-2
-28
-23
41
-30
-10
2
14
9
-19
-12
-11
1
3
24
-24
20
6
-26
-10
5
-6
11
-4
-14
12
9
-14
-7
-8
18
-3
12
23
10
-6
-2
8
-6
20
-18
-9
21
12
0
-15
16
-2
14
17
12
20
1
7
11
-1
-12
5
-12
-7
-13
7
-10
21
-5
-8
22
0
15
-5
4
-6
-12
20
6
9
3
14
10
-13
1
-3
-4
15
0
-6
5
-2
4
-8
30
-12
4
0
-20
-17
8
-3
13
15
-6
-4
-6
-2
-8
1
1
5
-13
-12
8
17
16
-5
35
26
8
3
15
6
15
20
5
-7
11
-21
-19
4
-31
9
4
-26
12
1
-7
27
11
-6
0
21
-13
4
2
-7
24
-13
23
-26
-4
3
-12
-19
-24
-6
1
-51
-31
7
-3
14
5
-20
-24
11
0
-12
0
-2
-5
-15
-17
-12
1
16
1
-5
-16
-6
-7
-18
-11
15
0
-21
-26
24
-6
-1
18
11
-5
0
7
8
-5
-11
14
11
4
-5
-3
-2
6
4
-15
-7
5
-10
-2
-3
-10
13
-19
-1
4
-2
-7
12
-11
19
1
-4
14
6
-12
1
5
-7
14
5
16
12
-27
-6
-10
-1
-41
-13
6
21
10
5
0
17
-13
-13
-7
12
-9
-1
-11
-2
-9
-28
-23
13
-8
-6
-14
-14
0
3
16
20
-4
-21
-6
-2
9
17
-6
7
-10
-18
-7
4
5
3
0
16
2
13
4
-9
0
6
17
4
-8
1
33
1
1
14
20
-3
-14
-23
-3
-2
-9
-16
-4
20
-4
-4
-28
-8
-15
11
-7
-2
-13
2
7
9
-10
10
5
-7
-4
-9
-2
6
-25
-8
-9
18
-14
8
-7
-1
-3
-14
25
-11
2
8
-9
13
-3
-5
25
-11
-11
-27
-4
-6
-2
-30
27
-12
37
14
6
0
2
17
-12
-40
-9
-7
17
9
10
2
-1
-3
-15
-29
-4
13
19
-24
-27
-5
-38
-2
6
8
4
5
-13
27
-24
-19
-1
-5
22
29
9
46
13
6
-24
8
30
0
-4
0
-2
-1
-1
-1
-1
-2
0
0
-2
-1
-1
-1
-1
-2
0
0
-2
-1
0
0
-1
-2
0
0
-2
-2
1
0
-1
-2
0
0
-2
-1
1
0
-1
-2
0
1
-2
-1
0
1
-1
-2
0
0
-2
-2
1
0
0
-2
0
0
-2
-1
1
0
0
-2
0
1
-2
-1
-1
0
0
-2
0
15
-18
-12
-5
1
-3
-17
3
34
-22
-11
-7
4
13
-29
-10
17
-13
-3
-8
-5
18
-16
-10
-9
-16
-1
5
23
3
0
8
4
-30
-16
7
32
5
-19
-7
8
-9
2
5
15
4
2
-9
16
-6
11
15
-5
13
14
-27
26
-20
8
26
8
4
28
0
18
-11
1
31
8
7
16
7
22
-11
-18
9
-5
6
6
6
38
-4
-14
23
-19
7
-2
34
14
-5
-2
7
18
25
-17
-15
7
-14
-11
-3
20
3
-15
6
14
-8
11
15
-5
-9
-12
27
-6
17
7
-6
22
-1
25
10
3
-6
33
-5
-24
9
-16
-3
-20
-3
15
-3
-40
-5
3
10
-14
38
1
4
-33
14
1
12
1
0
0
0
0
0
0
0
1
0
0
0
0
0
-1
0
1
0
0
0
0
1
1
0
1
0
0
-1
-1
0
0
0
1
0
0
-1
0
0
-1
0
1
-1
-1
-1
1
0
0
1
0
0
-1
-1
-1
-1
0
0
0
0
-1
-1
0
0
-1
0
1
-1
-1
-1
0
0
-1
1
-21
-4
1
11
-8
-7
16
-3
-5
20
8
14
-14
4
23
-1
-4
10
0
4
-13
4
17
22
-15
-8
-10
-11
9
-5
-5
4
-8
1
-10
-10
12
2
-1
-4
4
-15
-2
-5
3
-18
-1
-10
11
1
-9
0
7
1
-20
-4
-1
-1
27
-26
27
-6
-7
-1
-1
17
17
0
35
6
3
-7
16
23
8
-22
8
-2
-3
44
1
-20
4
-18
-21
-6
17
-14
11
-3
22
15
6
-17
2
6
43
-20
-40
9
-17
13
-22
1
-3
-6
-17
-5
-18
16
8
14
28
-29
-4
12
-14
17
-20
1
-12
-20
-19
0
-9
-9
-23
-10
-18
19
5
15
39
-13
-3
-16
18
2
18
14
7
-2
-5
9
-1
-15
-19
-14
28
7
-11
10
14
13
-7
13
12
6
-4
-15
-6
5
-3
1
-16
-14
14
-7
-13
-7
18
-30
-35
-23
-15
5
-3
6
-13
11
39
5
0
15
7
-8
9
7
-13
-2
2
-3
-15
3
0
1
2
-11
-4
13
2
-8
7
-5
-2
22
-11
1
5
-3
-3
0
-4
16
0
-9
8
17
-5
23
10
-18
-10
-10
-20
-17
-8
7
25
18
-29
12
-8
7
-3
-15
10
-17
1
-1
2
12
0
1
2
-14
1
-26
5
-22
-9
0
-3
-21
-16
-12
-16
-6
-10
3
-32
15
-10
13
7
6
11
4
-2
1
-18
18
23
-17
-22
-33
-9
-22
-19
7
21
-13
-1
19
-11
-7
0
9
-6
-7
44
14
-18
9
-2
-22
17
-19
30
-8
-2
6
-25
-27
-2
2
-19
-25
-7
-28
-28
-26
-11
-22
27
25
-4
10
1
20
17
-12
-24
-26
-9
18
-4
15
-3
-34
-12
13
-5
-8
4
16
7
54
27
11
-2
35
6
-14
-1
38
-9
6
-2
16
-22
0
27
1
15
-14
-19
-2
-1
-7
-15
-12
14
-7
30
7
1
-34
1
26
9
13
-10
3
5
13
-3
-13
-24
-1
-17
12
1
-2
-1
-28
4
-6
28
-16
-17
0
18
-4
-5
17
8
-1
3
12
17
-4
3
5
4
-11
-4
-21
-16
-19
31
-21
17
38
-5
-4
6
-3
4
8
-12
9
19
33
1
12
12
23
-10
8
29
9
11
18
-3
-6
-21
26
-26
1
-6
-11
-9
5
-7
16
-10
11
3
-7
-16
9
20
-1
-18
-10
5
8
13
-2
-11
6
-14
24
2
-23
-18
7
-2
-5
-35
25
6
-5
-16
10
50
-13
-6
19
13
39
6
6
10
18
-12
7
-2
-8
14
4
7
-13
-60
-6
7
10
-17
-9
-29
2
-3
-20
-1
-2
-2
0
-1
-1
-2
0
1
-2
-2
1
0
0
-2
1
1
-2
-2
1
1
0
-2
1
0
-2
-1
0
-1
0
-2
0
0
-2
-1
1
0
0
-2
1
1
-2
-2
1
1
0
-3
1
0
-2
-1
1
0
0
-2
-1
0
-2
-1
1
0
0
-2
0
0
-2
-2
1
1
0
-3
0
-3
51
38
-16
8
-18
-36
39
23
-2
7
8
16
-7
-5
30
11
13
11
-6
4
-12
-25
11
21
5
-35
-12
-5
5
-30
-13
12
-20
6
19
3
26
1
-11
-2
-15
-5
-18
-23
-16
-2
16
0
-28
-47
-28
-22
49
-7
3
-6
-8
-49
31
-25
11
-20
2
-31
-50
28
-7
0
13
12
-11
13
-16
-32
14
-9
-5
2
17
38
-11
-4
12
8
13
-27
1
31
6
-22
-8
-6
4
-33
-6
-6
21
16
16
-2
-7
-30
3
11
-20
11
15
13
-6
-6
5
22
22
5
6
4
22
15
10
-8
34
-10
17
-11
0
-18
2
18
-30
-13
38
-8
-17
-8
-4
8
-3
-11
31
-2
0
-6
-8
0
0
0
-1
0
0
-1
0
1
0
-1
-1
-1
0
0
0
1
0
0
0
-1
0
0
0
0
0
1
-1
0
0
-1
0
1
0
-1
0
0
0
0
-1
1
1
-1
0
0
0
0
0
1
-1
1
-1
-2
0
-1
0
1
0
0
0
0
0
0
-1
1
0
-1
0
1
0
0
0
6
2
-16
25
-19
-42
-10
-28
-5
-9
-26
-3
-22
-14
-22
30
-27
8
-53
12
13
-24
1
3
0
-41
20
-32
7
36
-1
-2
22
-7
1
2
2
35
-41
-2
1
-11
-2
-11
-12
-38
0
-10
15
23
44
16
-11
-18
18
-37
0
32
35
-15
3
34
-1
6
-3
13
9
9
31
-25
17
58
-2
-13
-22
-5
-6
-5
15
-20
5
-19
-20
7
1
1
4
-8
24
1
-6
-12
-4
17
42
18
9
15
-13
-4
-7
5
-16
4
7
3
-11
23
22
31
-25
1
9
26
18
5
13
14
-18
-3
8
-4
-4
20
-23
-8
-22
-7
-5
-3
-5
6
-33
5
9
-10
10
-4
-1
1
-27
-4
31
1
-11
6
11
8
2
2
-15
0
3
-8
-17
-22
-3
2
-10
-4
1
12
18
-16
-15
36
2
1
-3
-24
32
4
-2
-5
-34
-3
4
-29
22
-6
11
-19
14
-6
-3
-26
14
3
2
-12
0
-7
-18
-27
-23
13
-5
6
-27
-12
18
-56
-3
5
4
-9
-15
0
6
-29
-5
-15
-11
-13
-23
-17
-6
-4
-9
32
16
8
-12
13
-20
-7
-20
6
-5
5
-17
8
5
-30
7
3
-23
6
-1
3
8
-2
12
-4
9
-6
-20
-10
-19
10
-7
0
28
-11
-16
8
-15
-10
-29
-5
20
2
-18
1
-8
-3
-15
-7
9
-20
-18
-18
-13
-5
-11
3
1
3
0
-26
-41
-43
-27
10
4
-20
-26
26
-26
-20
-11
-3
7
-27
-35
6
-1
-35
-4
-13
-8
1
14
6
9
-4
1
0
11
-5
-29
10
-35
-42
-3
-5
8
-21
18
-3
-22
-3
-2
-7
-8
6
-19
-8
-13
24
-5
-4
6
16
-26
20
-11
34
-54
2
9
44
-31
-34
19
28
-38
26
-16
-20
-24
-51
20
-8
-2
0
-23
-25
-13
-7
13
9
7
-3
-9
-9
10
5
6
-15
20
8
-7
-28
-4
-1
-4
-10
5
5
-9
-22
-5
-2
13
27
-20
15
27
12
27
9
44
-6
22
39
-16
13
17
0
12
8
-23
1
16
-8
36
-5
-17
-7
-6
-13
30
-9
11
16
26
-28
-2
8
18
44
7
6
18
-7
-4
-8
4
9
12
5
-18
-20
-3
-4
1
-7
-19
4
-19
7
-9
9
-2
-11
0
-28
9
-17
2
2
4
-32
-9
-28
10
-11
-8
-6
0
-19
7
10
-8
7
-10
11
12
19
-3
-5
7
17
-2
-1
2
0
6
18
13
-2
14
-25
-3
26
-22
19
-5
-1
17
-2
-32
33
-30
14
-2
17
7
-17
23
4
20
29
21
9
-16
-7
-13
-3
-4
25
13
9
-2
-29
20
0
-30
-4
6
7
-12
8
31
-20
-32
6
-2
-10
-20
-2
0
-16
-42
28
24
9
3
2
-10
4
-26
22
19
1
4
20
-3
-8
-16
-8
2
-2
31
-18
-24
-1
69
26
-22
-21
-11
-24
17
-12
59
-26
-18
-40
-16
-31
1
-20
-17
-13
0
0
0
0
0
0
0
0
0
0
0
0
0
0
0
0
0
0
0
0
0
0
0
0
0
0
0
0
0
0
0
0
0
0
0
0
0
0
0
0
0
0
0
0
0
0
0
0
0
0
0
0
0
0
0
0
0
0
0
0
0
0
0
0
0
0
0
0
0
0
0
0
0
-1
-1
-1
1
0
-1
0
0
-2
-1
0
0
0
-1
0
1
-2
-1
0
0
0
-1
0
0
-1
-1
0
1
0
-1
0
0
-2
-1
0
1
0
-1
0
0
-2
-2
1
1
0
-2
0
0
-1
-1
0
1
0
-1
0
1
-2
-2
0
1
0
-1
0
0
-2
-2
0
1
0
-2
0
0
-1
0
0
0
0
-1
0
0
-1
0
0
0
0
-1
0
0
-1
0
1
0
0
-1
0
0
-1
-1
0
0
0
-2
0
0
-1
-1
0
0
0
-1
0
0
-1
0
1
0
0
-1
0
0
-1
0
0
0
0
-1
0
0
-1
0
0
0
0
-1
0
0
-1
-1
0
0
0
-1
0
0
0
0
0
0
0
0
0
0
0
0
0
0
0
0
0
0
0
0
0
0
0
0
0
0
0
0
0
0
0
0
0
0
0
0
0
0
0
0
0
0
0
0
0
0
0
0
0
0
0
0
0
0
0
0
0
0
0
0
0
0
0
0
0
0
0
0
0
0
0
0
0
0
0
0
0
-1
0
0
0
1
0
0
0
0
0
0
0
0
0
0
0
0
0
0
0
1
0
0
0
0
0
0
0
1
0
0
0
0
0
0
0
0
0
-1
0
0
0
0
0
1
0
0
0
0
0
0
0
1
0
0
0
0
0
0
0
0
0
-1
0
1
0
0
0
0
0
0
0
0
0
0
0
0
0
0
-1
0
-1
0
0
1
0
0
0
0
0
-1
0
0
0
0
0
0
0
0
0
0
0
0
0
0
0
0
0
1
0
0
0
0
0
0
0
0
0
0
0
0
0
0
0
0
0
0
0
0
0
0
0
0
0
0
0
0
0
0
0
-5
-25
-4
-21
5
-16
-26
13
-19
-4
-16
-30
-10
-16
-21
17
-11
-29
-15
8
-11
37
-22
-7
2
24
-10
20
27
-8
24
15
15
-27
15
-22
-15
21
-2
-21
30
-1
-25
28
-22
3
4
-25
4
9
28
65
-2
4
-15
-17
6
5
6
1
13
-20
-1
-11
6
-10
-6
-17
11
-20
-30
-24
9
-13
-8
-13
23
6
-43
26
5
-29
-16
-19
1
36
-10
24
56
32
48
18
-17
10
25
17
-9
-25
-10
1
28
4
17
24
-10
17
-22
17
7
-3
-6
1
8
5
11
9
13
2
-8
-14
-17
-30
-3
-11
3
-61
4
-14
20
-2
-23
-29
12
-19
0
-17
33
-7
-22
-1
-6
57
10
37
-24
-12
0
-17
3
2
1
17
-8
-27
-11
13
-15
-13
-9
12
8
12
-4
17
-20
-25
-26
9
-4
-25
-23
5
4
19
3
-17
-3
-13
-7
-27
17
-24
-2
1
-4
7
-20
5
-17
-7
-15
4
6
-51
-2
11
-9
3
34
-20
-10
-41
-8
-20
-7
12
17
-12
4
-16
-7
36
1
6
-21
-12
7
-6
-7
-5
-43
-4
11
12
-12
7
-13
-3
-7
25
-19
3
12
-7
-12
17
6
-2
-15
8
6
-17
33
35
-24
-7
0
22
15
2
-9
7
-12
0
-11
2
12
-5
-10
-23
-19
-12
50
-11
-8
2
22
16
3
7
27
24
21
21
18
-3
-11
36
-10
29
16
27
-30
-14
13
10
-1
-13
4
-14
4
-24
-12
-22
28
9
-9
25
1
-2
-24
4
7
2
9
10
13
69
-14
-15
1
-8
0
8
-40
-20
-5
5
-22
5
-18
17
-9
-6
-8
46
6
16
3
32
31
6
-26
17
-26
-36
8
-28
-23
-55
35
-46
18
20
5
-20
-2
16
19
14
13
-10
34
14
21
51
-47
-20
-10
-46
-4
-9
7
25
1
-20
-8
-6
1
2
-26
-5
2
-20
-34
-19
1
-2
6
10
2
-13
-31
-24
-15
3
16
-1
20
-11
32
14
-2
-22
5
0
13
-6
-3
4
-8
-16
-1
-2
-11
0
-3
-16
-16
13
-11
-9
29
8
23
28
-5
-13
9
8
-16
-6
-6
31
4
-8
6
2
-6
9
12
4
38
-14
39
-20
-18
-3
1
-25
-15
-30
22
-1
25
20
-7
-3
-13
-8
25
-2
5
-10
8
-15
20
-19
3
-13
-22
-28
24
5
-11
-17
-22
1
15
25
-26
-5
-5
-12
-8
20
-41
2
25
-23
-24
18
8
2
-16
20
-13
16
-7
20
7
14
46
24
-22
25
-33
-10
-31
-23
-32
-6
8
-4
0
0
0
0
0
0
0
0
0
0
0
0
0
0
0
0
0
0
0
0
0
0
0
0
0
0
0
0
0
0
0
0
0
0
0
0
0
0
0
0
0
0
0
0
0
0
0
0
0
0
0
0
0
0
0
0
0
0
0
0
0
0
0
0
0
0
0
0
0
0
0
0
-8
38
-11
-11
14
-12
-20
9
-15
20
-16
-4
4
5
-22
8
-13
-46
-28
-7
7
-4
-29
4
9
16
-13
8
28
-41
-22
-21
12
0
-22
-3
39
-12
-8
12
11
-19
-18
9
5
25
5
7
11
-28
4
7
3
48
-26
-19
13
-18
21
31
-4
-14
1
-2
13
-6
-48
6
-21
13
-9
-4
7
-15
1
14
8
3
-5
21
-7
-3
13
-25
-27
17
12
36
6
4
-4
23
-3
22
-1
-24
-1
-21
0
2
7
-12
11
1
17
11
14
5
0
6
38
-20
-10
-10
-7
-25
32
14
19
-7
28
-15
-4
-9
4
32
-9
22
13
8
-20
1
-8
-6
-24
-13
28
6
20
10
-7
-17
-8
38
0
0
0
0
0
0
0
0
0
0
0
0
0
0
0
0
0
0
0
0
0
0
0
0
0
0
0
0
0
0
0
0
0
0
0
0
0
0
0
0
0
0
0
0
0
0
0
0
0
0
0
0
0
0
0
0
0
0
0
0
0
0
0
0
0
0
0
0
0
0
0
0
-3
5
8
22
-33
-18
31
13
-22
13
-16
-7
-1
-26
-2
-6
-11
16
-19
-13
22
-35
-19
2
13
-8
11
11
-29
-25
-36
-10
8
14
-15
19
9
2
5
-9
-2
-2
13
-4
-9
13
-24
-30
-18
-15
12
-9
73
8
90
24
-6
6
-14
8
-7
10
-24
-25
41
7
-8
1
2
23
26
-8
9
32
-3
1
-3
-8
13
-14
2
-38
-9
-6
-9
5
-33
-13
10
-6
-13
-16
-19
-3
15
-17
6
-18
15
-3
8
3
28
1
4
-2
-22
-1
12
2
-49
-10
10
-4
-14
9
-16
2
-13
-9
6
45
-10
-3
-1
13
29
19
-1
9
-37
17
-1
5
-26
-6
14
-20
6
-1
-37
24
19
-5
0
-1
0
0
0
0
0
0
0
-1
0
0
0
0
0
0
0
-1
0
0
0
0
0
0
0
-1
0
0
0
0
0
0
0
-1
0
0
0
0
0
0
0
-1
0
0
0
0
0
0
0
-1
0
0
0
0
0
0
0
-1
0
0
0
0
0
0
0
-1
0
0
0
0
0
0
-11
21
18
-15
12
29
-23
-5
-12
-4
16
7
-9
14
14
-3
-8
-7
19
3
-21
-4
-5
-11
-23
2
0
-20
-55
14
-4
-19
2
10
-17
-1
18
-18
-6
13
-1
16
-5
14
12
-4
15
-10
14
1
-3
-2
24
15
25
21
30
5
5
14
-18
-13
-5
0
-3
-10
9
1
-9
3
-2
-3
8
-9
-17
-13
-20
0
-3
7
-10
-1
-1
1
-17
-1
-7
21
1
-14
20
1
29
3
-32
24
12
-6
-26
-30
3
6
9
-13
-14
8
-8
-17
-9
-2
8
-19
16
-13
-4
-9
17
0
-26
13
25
-5
-7
-5
1
-5
8
-14
-13
10
0
-18
-8
-6
-5
-3
15
-6
-5
-14
8
-17
-36
-3
0
0
0
0
0
0
0
0
0
0
0
0
0
0
0
0
0
0
0
0
0
0
0
0
0
0
0
0
0
0
0
0
0
0
0
0
0
0
0
0
0
0
0
0
0
0
0
0
0
0
0
0
0
0
0
0
0
0
0
0
0
0
0
0
0
0
0
0
0
0
0
0
12
-1
5
24
-13
9
15
-13
5
-23
6
20
-27
6
-10
8
-25
-1
6
1
-1
2
16
-12
-15
11
1
-21
15
16
0
-13
-12
17
-6
-3
10
-6
-5
-10
6
9
-14
-2
-8
-15
20
12
-13
9
20
0
13
3
17
11
-32
-19
-17
1
9
4
-1
13
-3
7
-25
1
10
20
-14
15
-22
-14
0
-21
1
-11
-17
-19
9
-14
-18
-10
26
6
-11
-2
1
-20
-15
-5
20
6
7
1
-18
-14
-13
6
-8
-19
-7
3
12
-22
11
23
-15
15
-5
17
20
1
1
13
-1
11
11
7
-9
-4
0
11
-1
11
10
4
-2
-13
2
1
-9
11
0
-12
17
7
3
-4
-9
11
2
-27
6
15
0
11
-22
-7
6
-7
7
-27
-9
11
-4
-19
-5
0
1
-5
0
0
5
20
-21
-5
-16
11
7
10
-17
11
-5
14
-21
-7
11
4
6
-5
-14
-9
38
-33
-23
5
0
-20
19
-13
8
0
-10
-2
-9
21
-16
-1
35
-2
2
-7
27
22
5
16
9
-8
4
-24
14
-8
-11
-1
-19
-37
-21
-20
-10
-25
-4
5
13
-15
-1
6
9
-26
-10
-13
11
4
9
0
33
-12
-11
-11
-12
-11
-6
27
-1
-8
-15
-2
-7
-5
7
3
-2
-8
10
3
-5
-5
-16
-14
40
10
-22
5
8
-23
-6
24
-11
-11
3
17
15
-31
-4
6
4
27
-8
-3
7
-9
-1
5
13
4
4
17
-11
-3
4
1
-10
14
-13
-4
-6
-16
-1
-8
-13
4
-18
1
-4
-1
7
-22
-22
-3
6
-5
1
2
9
-8
21
-4
-20
-2
24
-6
6
-4
-5
-1
-8
-1
34
-1
15
4
-19
-12
-13
-6
5
-4
13
-21
14
-8
-8
0
1
-3
7
-8
1
-5
-20
-1
8
0
17
23
-6
-15
-35
6
-28
9
-7
-17
7
-9
16
12
19
11
7
-11
26
-1
15
-12
14
-7
-5
-20
9
-16
0
-18
5
21
0
13
-2
12
-2
-13
7
5
12
-24
3
8
-5
18
-9
-4
-2
-36
9
-2
14
16
-19
9
-13
0
-34
13
5
-28
0
16
-4
13
-4
3
-4
51
-10
-17
-15
-5
4
-1
-17
35
-13
-15
2
-2
14
-14
-14
-7
-8
9
-8
9
-10
-27
24
-3
8
20
1
-14
-6
4
9
32
-21
-21
-7
-15
1
-20
-1
3
-10
9
-7
5
9
-15
6
-8
0
5
-10
-17
3
16
-4
5
2
-13
-1
-7
8
-9
-9
3
9
-8
1
9
4
15
20
7
-6
11
-14
-7
21
21
5
-4
0
0
0
0
0
0
0
0
0
0
0
0
0
0
0
0
0
0
0
0
0
0
0
0
0
0
0
0
0
0
0
0
0
0
0
0
0
0
0
0
0
0
0
0
0
0
0
0
0
0
0
0
0
0
0
0
0
0
0
0
0
0
0
0
0
0
0
0
0
0
0
0
6
-6
-28
-27
6
-15
13
-11
2
-31
16
6
-25
-22
-16
-14
21
-22
7
-30
10
2
-23
-21
-23
-4
-17
-15
31
-8
-14
24
12
29
-18
7
16
8
-17
30
-31
13
-11
-3
-22
-10
-10
13
4
21
-10
20
-26
15
-2
32
20
-5
-5
6
-12
29
-14
-14
13
-1
8
-8
8
14
-21
-20
-18
-21
-22
5
23
29
-3
-2
-21
-12
5
2
-19
-7
-9
-4
-20
-6
14
4
-11
7
8
8
10
4
-20
18
-1
20
6
-12
-4
-6
4
-59
28
12
-41
-24
-4
13
10
-12
10
-4
-13
-21
1
36
9
57
9
-34
-9
-5
-10
-20
-33
20
-17
-36
-16
18
20
-12
5
-7
-12
-16
25
-15
0
0
0
0
0
0
0
0
0
0
0
0
0
0
0
0
0
0
0
0
0
0
0
0
0
0
0
0
0
0
0
0
0
0
0
0
0
0
0
0
0
0
0
0
0
0
0
0
0
0
0
0
0
0
0
0
0
0
0
0
0
0
0
0
0
0
0
0
0
0
0
0
-26
1
-2
-13
5
-1
6
28
-10
-17
-27
6
-16
-2
-6
-4
13
-26
-16
-23
2
-1
-27
14
2
-12
9
1
-1
-17
23
-18
-6
6
13
34
-20
-20
-10
4
0
1
-13
2
-7
-8
-25
11
26
3
-2
10
1
11
-18
-3
-8
35
-3
-22
2
27
-9
-9
-9
29
14
-12
13
60
-12
5
-28
24
25
38
-10
-15
20
-13
-12
9
-12
0
-10
-6
11
-10
16
-8
2
7
15
31
-19
4
-14
9
-11
-1
-1
5
52
10
-13
-16
2
-15
11
-9
29
52
17
-13
8
-10
-9
-14
-19
17
16
-15
12
19
1
-12
-20
-1
23
7
-3
-29
-27
-20
20
-26
28
-15
-5
-7
7
-9
-34
-28
10
-14
-17
-7
-21
-7
-19
-8
0
-1
-21
0
7
-7
3
-7
-7
-24
4
-12
16
-7
-11
4
-4
-4
-11
15
-8
27
-2
1
-1
-11
-10
16
11
13
12
-5
22
-23
-8
4
21
-7
-3
-7
1
20
6
-10
-14
20
15
26
4
6
3
-9
34
1
1
12
20
-6
-10
-13
36
0
-13
3
0
0
0
0
0
0
0
0
0
0
0
0
0
0
0
0
0
0
0
0
0
0
0
0
0
0
0
0
0
0
0
0
0
0
0
0
0
0
0
0
0
0
0
0
0
0
0
0
0
0
0
0
0
0
0
0
0
0
0
0
0
0
0
0
0
0
0
0
0
0
0
0
0
0
0
0
0
0
0
0
0
0
0
0
0
0
0
0
0
0
0
0
0
0
0
0
0
0
0
0
0
0
0
0
0
0
0
0
0
0
0
0
0
0
0
0
0
0
0
0
0
0
0
0
0
0
0
0
0
0
0
0
0
0
0
0
0
0
0
0
0
0
0
0
-31
-10
0
-10
-3
-9
3
-3
-18
-4
11
5
-2
4
8
2
-9
1
-16
-4
-23
10
28
-2
-12
-5
-9
-5
-3
-12
1
-4
15
7
26
3
6
-10
9
2
-8
5
-1
-14
-2
13
5
-2
-16
-22
-12
-15
-15
5
11
-2
14
0
8
-3
-17
3
-3
17
-10
-3
-22
-16
-11
12
15
10
0
0
0
0
0
0
0
0
0
0
0
0
0
0
0
0
0
0
0
0
0
0
0
0
0
0
0
0
0
0
0
0
0
0
0
0
0
0
0
0
0
0
0
0
0
0
0
0
0
0
0
0
0
0
0
0
0
0
0
0
0
0
0
0
0
0
0
0
0
0
0
0
0
0
0
0
0
0
0
0
0
0
0
0
0
0
0
0
0
0
0
0
0
0
0
0
0
0
0
0
0
0
0
0
0
0
0
0
0
0
0
0
0
0
0
0
0
0
0
0
0
0
0
0
0
0
0
0
0
0
0
0
0
0
0
0
0
0
0
0
0
0
0
0
-19
-2
-6
-3
11
-7
-30
-18
-4
-34
-1
-8
1
-2
-29
-12
12
-29
-26
6
13
16
-13
15
-2
5
-17
8
17
-11
14
3
21
3
-12
3
32
-5
27
-3
25
-15
-23
-14
-9
6
-9
13
-14
-16
9
-11
4
-13
22
-1
-9
-4
28
-14
6
-6
10
-8
-21
3
-9
-12
12
-11
23
-23
2
-8
-14
1
5
-4
-20
-7
6
-22
-8
9
7
6
-25
21
10
-21
-13
8
16
-7
9
-1
-3
-26
-9
17
0
24
-28
-1
12
-16
8
2
-5
-8
-24
-7
-2
-4
-21
5
24
7
10
1
15
-13
11
7
1
-9
6
-1
37
-21
14
24
-2
7
-2
7
9
4
8
-3
2
2
-20
10
-4
-42
-1
-1
17
-31
-34
-1
-6
-29
-15
-3
9
-16
-20
-2
-7
-32
-10
-1
11
-4
-21
-8
-7
-23
-15
14
10
21
-8
-9
12
-45
-24
5
28
0
-30
-15
29
-41
-24
-8
3
-15
-25
-14
21
11
-2
14
-9
-12
-12
0
5
-6
-19
-3
-7
3
-17
0
13
7
-8
-11
-7
13
-1
-21
-14
1
0
-19
-11
12
15
10
4
-8
-12
-10
1
-11
-1
12
6
3
-11
7
-17
0
-6
-1
-1
16
-7
-11
-11
4
11
-25
28
-14
8
-6
10
-4
-14
-1
20
-19
8
-11
6
7
21
-4
-14
-3
-22
-20
-13
-18
-22
6
21
16
-9
-2
-12
-12
-34
2
24
3
-3
-17
-10
3
23
22
16
-22
12
5
-5
-12
11
10
14
0
-5
15
19
-10
-13
3
2
2
-5
4
21
-18
-17
-21
-2
-18
25
6
27
-4
39
2
-18
-37
-6
11
-8
-8
11
-10
-16
-4
-30
-5
-22
11
-23
-4
13
11
6
1
63
3
42
7
25
12
4
24
42
-1
25
19
-10
-10
2
2
0
-32
-19
-12
2
-10
-6
3
-5
-8
-18
-4
-1
2
3
6
-2
-6
-10
-10
5
-5
7
-5
0
4
-9
-3
5
-10
-2
-11
-4
-15
-39
-7
-12
1
-5
-33
-21
-15
-5
10
7
-12
12
-6
12
-18
-29
-17
26
8
-15
-16
5
-16
33
-4
10
49
-27
-29
27
-7
76
-20
-13
-3
-3
9
75
-19
40
27
0
0
0
0
0
0
0
0
0
-1
0
0
0
0
-1
0
0
-1
0
0
0
0
0
0
0
-1
0
0
0
0
0
0
0
-1
0
0
0
0
-1
0
0
-1
0
0
0
0
-1
0
0
0
0
0
0
0
0
0
0
0
0
0
0
0
-1
0
0
0
0
0
0
0
0
0
5
-12
-6
0
0
-5
-31
7
5
11
14
27
11
-15
1
-6
4
22
4
-4
18
-2
-8
24
-10
6
1
-7
11
31
-1
-10
4
-5
37
21
-1
10
11
-16
-19
-22
-7
-5
11
-8
-11
-16
33
-18
-4
-7
16
9
8
26
5
-18
27
-15
-1
-14
14
-15
2
-21
-12
-11
-19
-18
-19
2
-15
-30
-15
9
21
-21
-43
5
-2
-14
-14
0
30
-15
-45
-3
2
-38
-14
-4
21
-23
-34
6
-26
-3
16
-14
8
33
23
-12
-8
-28
-14
-2
8
25
-34
3
-3
20
-7
-4
-24
-21
-4
2
20
16
-37
-1
1
-15
32
8
-4
-12
-45
-26
-26
-13
-40
-2
-17
-14
0
22
-12
10
22
-9
0
0
0
0
0
0
0
0
0
0
0
0
0
0
0
0
0
0
0
0
0
0
0
0
0
0
0
0
0
0
0
0
0
0
0
0
0
0
0
0
0
0
0
0
0
0
0
0
0
0
0
0
0
0
0
0
0
0
0
0
0
0
0
0
0
0
0
0
0
0
0
0
0
17
-4
9
31
-13
1
-12
7
5
-37
1
-1
14
-15
-6
-16
8
-6
1
-8
1
-17
-7
-10
-6
0
-4
4
-23
-4
-17
1
11
-15
13
7
-9
2
-8
-1
6
12
3
-12
15
9
-1
18
-14
-1
0
-12
4
23
-9
15
-4
-4
4
-17
-4
6
2
-3
-5
1
3
19
15
-9
3
10
-13
-20
-2
7
4
13
1
-2
-6
-17
4
13
-3
-3
-22
9
-4
-20
4
9
1
-9
-8
13
-4
-27
-24
3
-18
-20
16
6
-20
-30
-8
-14
-25
-5
15
5
14
-14
22
33
-26
13
-16
13
-19
25
7
29
7
-31
17
-6
45
-9
6
24
13
-66
0
-13
17
13
-31
55
8
-19
-17
3
-1
1
-18
28
6
15
-4
28
1
7
-16
-10
3
10
8
3
-12
-17
-9
18
-6
5
14
8
-21
-4
14
-11
6
-5
-2
-9
3
-11
2
9
-1
2
15
-2
-18
-13
12
11
19
-36
17
24
9
-46
-20
44
26
-24
-6
10
19
-10
1
-23
29
11
-2
-4
6
4
18
-3
15
-19
0
25
-11
-7
-4
-28
21
9
13
5
11
-19
2
-1
28
-12
-4
14
3
17
12
21
42
-21
-9
6
-19
-7
19
-4
-24
54
21
8
4
-16
26
-6
-30
-22
7
-3
8
5
32
-12
-9
-12
-8
3
-21
25
-12
-3
14
-15
22
4
11
24
-15
12
-3
-31
-25
-21
32
23
2
-39
5
-24
-26
0
-4
-2
-1
-1
-1
-4
-1
1
-4
-2
-2
0
-2
-3
-1
2
-4
-2
-2
0
-2
-3
-2
1
-3
-3
1
0
0
-4
0
1
-4
-1
0
0
0
-3
0
2
-4
-2
-1
0
-1
-3
-1
0
-3
-3
1
0
-2
-4
0
0
-4
-2
0
0
-2
-3
-1
1
-4
-2
-1
0
-2
-3
-1
0
-1
-1
-1
-1
0
1
1
0
-1
-1
0
0
-1
-1
2
1
-1
-1
0
0
-1
-1
2
0
-1
-1
0
1
0
2
2
1
-1
-1
0
0
-1
0
2
1
0
-1
0
0
0
-2
1
0
-1
-1
-1
2
0
2
2
1
-1
-1
0
1
-1
1
2
2
-1
0
0
0
-1
-1
2
-15
-18
-12
17
-28
-8
-3
-6
-16
-5
1
16
-8
0
15
-8
-26
-3
8
11
0
-27
17
2
-1
3
-18
13
21
19
-33
-8
53
-16
15
9
-11
-18
22
-5
23
-9
-2
-11
-11
1
-6
-13
-2
-1
-16
22
-2
12
-22
-17
17
2
8
5
-11
33
15
1
29
-5
6
-32
9
-8
2
5
0
0
0
0
0
0
0
0
0
0
0
0
0
0
0
0
0
0
0
0
0
0
0
0
0
0
0
0
0
0
0
0
0
0
0
0
0
0
0
0
0
0
0
0
0
0
0
0
0
0
0
0
0
0
0
0
0
0
0
0
0
0
0
0
0
0
0
0
0
0
0
0
4
-10
-13
-30
-21
-2
14
-14
9
-6
2
-12
-13
2
-6
-23
-11
-24
-8
11
-13
1
-15
-17
6
-2
-4
19
-14
2
-21
-10
-14
-4
-10
26
4
-18
-24
15
3
-9
-18
26
5
-1
0
14
-13
49
49
14
-38
7
26
11
-6
-1
53
8
-4
-5
30
16
-3
7
48
7
-35
3
36
-17
0
-23
-6
-6
-5
-17
20
10
-15
1
-4
4
7
-2
7
23
-13
8
19
0
-18
12
26
4
21
-12
-23
-2
17
19
-1
21
3
-15
-4
0
24
-6
18
21
9
-17
21
-8
-19
-11
13
-5
-6
-4
-8
-17
-17
10
-12
7
9
1
14
-5
-21
3
17
8
-1
16
1
9
-1
-37
6
4
0
0
0
0
0
0
0
0
0
0
0
0
0
0
0
0
0
0
0
0
0
0
0
0
0
0
0
0
0
0
0
0
0
0
0
0
0
0
0
0
0
0
0
0
0
0
0
0
0
0
0
0
0
0
0
0
0
0
0
0
0
0
0
0
0
0
0
0
0
0
0
0
-25
-2
-2
7
-39
-25
-29
-5
-35
2
-33
9
2
-8
-37
-13
11
-4
-13
-15
-26
13
18
-3
-13
18
32
-2
8
-21
-10
-4
5
9
26
-1
45
3
12
4
-19
14
11
-27
22
-3
14
3
-12
-25
-10
11
0
5
-42
-22
40
-23
-11
2
22
9
-8
10
61
-12
-2
14
-2
21
-41
-1
-13
-7
-3
-18
-33
-20
10
5
-12
12
-5
0
-33
-18
7
16
0
-2
13
-5
-18
-3
15
-13
-4
-8
-9
-8
-10
-10
-1
25
-30
10
-19
4
-21
-4
-8
9
-10
7
12
-6
-17
-9
1
-18
6
-14
-14
-24
13
-9
-5
7
-11
5
-11
-1
-3
-14
1
0
3
-11
-7
9
-15
-29
8
-32
24
7
-29
18
39
-5
6
-10
20
-1
-2
11
-1
6
23
0
-18
1
-4
-14
24
10
-11
-9
15
18
-8
42
27
-14
9
3
13
28
-8
-21
-30
13
-16
13
0
-11
-12
17
8
9
-11
-15
8
-21
-12
4
-17
-26
26
14
-1
-1
-5
-7
9
-2
-11
-14
2
24
3
-9
2
12
8
-10
0
0
0
0
0
0
0
0
0
0
0
0
0
0
0
0
0
0
0
0
0
0
0
0
0
0
0
0
0
0
0
0
0
0
0
0
0
0
0
0
0
0
0
0
0
0
0
0
0
0
0
0
0
0
0
0
0
0
0
0
0
0
0
0
0
0
0
0
0
0
0
0
-7
-13
-13
-28
0
2
21
-2
-2
10
9
-23
-2
4
14
6
10
6
7
12
13
-2
10
-9
3
-3
14
-44
-11
3
26
-18
-8
0
14
-15
-7
-4
15
-22
-14
6
12
-1
5
-8
-3
-10
11
7
14
-26
-16
-14
8
3
-6
7
-7
-4
-5
-22
17
-2
-8
-12
-17
10
4
4
-6
0
4
3
0
-6
-12
-26
8
11
8
-22
12
-12
-19
-23
30
-4
12
35
-12
-2
14
-12
-12
1
-51
3
17
12
0
-10
-10
-9
-3
5
-8
-10
11
-21
13
17
36
9
-18
-1
-3
1
1
-1
-15
14
13
0
-29
-1
-9
-14
-7
7
-17
8
-13
-8
2
34
21
-14
-27
8
22
-16
-7
3
0
0
0
0
0
0
0
0
0
0
0
0
0
0
0
0
0
0
0
0
0
0
0
0
0
0
0
0
0
0
0
0
0
0
0
0
0
0
0
0
0
0
0
0
0
0
0
0
0
0
0
0
0
0
0
