1
15
15
25
-2
-28
2
-34
47
17
27
-1
31
9
28
31
33
-2
49
-23
-4
7
-15
29
56
-28
24
-15
-19
0
24
21
-7
26
17
-23
10
-23
12
39
1
35
31
-13
14
-13
11
21
50
4
38
-42
17
-16
17
40
-21
2
-38
-33
11
-57
31
68
25
33
-20
6
60
-25
1
-22
17
-26
45
35
24
-17
-2
-42
25
-27
15
12
22
-26
-10
-26
-16
87
-39
33
64
24
56
37
35
1
12
-19
-58
-1
-33
39
-29
0
34
15
51
16
56
36
-9
-32
37
13
-1
18
14
46
-12
26
-47
-42
-36
12
19
73
75
-8
-1
18
-19
-52
0
64
62
-35
-52
-27
20
-28
-60
21
-4
-13
-5
-24
8
-12
-12
13
-12
-2
-1
-20
11
-6
-12
18
-16
-2
4
-21
9
0
-2
13
-9
2
5
-8
14
4
2
9
-10
5
10
-8
16
10
6
1
-11
5
9
-11
12
9
5
2
-11
5
12
-7
16
12
5
-5
-9
2
9
-9
13
13
4
-3
-12
3
8
-2
11
9
5
0
-36
3
11
11
-14
22
31
8
7
-12
42
40
-25
54
28
13
-17
1
24
-22
-5
34
33
19
-14
37
52
-2
51
40
11
-1
27
-7
2
47
-6
32
7
0
26
-4
-38
-35
-45
-24
-30
15
7
45
12
50
16
-16
5
-24
48
6
5
17
-14
-2
-17
-12
33
-3
-18
10
-29
-41
-19
10
59
15
-24
-16
-4
42
49
9
63
26
7
-5
9
-12
-8
-10
27
10
-52
2
38
-1
2
29
36
32
-24
-10
55
25
12
26
-6
-17
-1
-2
-20
21
24
2
22
10
-62
46
7
2
51
-4
-54
-40
26
-54
-1
13
14
-26
-48
-26
-42
-13
18
-28
53
-40
-71
7
34
-32
25
27
48
-51
18
-2
49
33
34
-6
-6
14
21
-2
22
26
5
-9
-5
16
19
-2
-2
22
13
-3
-4
15
16
-2
4
20
9
2
-3
13
19
0
-7
22
8
5
1
13
17
1
-10
14
4
4
3
11
11
-1
-4
-3
-9
3
-3
5
13
2
-13
2
-5
-2
0
4
14
2
3
9
-11
-1
0
4
-22
-47
-30
-9
-45
47
-79
46
-41
-1
-82
-49
42
-51
-33
-27
-16
-11
4
23
-51
-63
-6
18
47
28
-38
-59
-5
-40
7
-53
21
40
-4
-23
-50
29
53
-26
36
-1
-31
1
27
-48
39
-56
-33
67
0
50
4
39
37
30
-21
42
30
9
51
63
38
-27
11
-46
59
-38
29
4
-11
-35
34
5
45
0
-6
23
-8
-28
22
46
-43
-22
-23
56
-28
-35
-1
30
45
11
46
-11
14
-19
51
-15
75
-16
-5
-7
-23
35
63
-45
49
-38
22
4
50
32
-6
5
-30
33
15
15
53
47
36
27
-3
-53
-2
26
-54
-17
29
-21
-32
-63
7
18
-46
-10
30
-1
-37
-14
20
-8
2
17
50
13
54
-12
-47
-35
-30
-3
-1
11
56
-7
-53
-18
-19
-62
1
17
60
-50
48
-36
56
29
35
14
20
35
-44
5
18
-42
-37
-54
17
54
-37
-34
67
-66
-33
40
12
-23
19
39
-24
16
30
-29
-9
6
-62
-18
-67
-7
30
27
-55
-9
-33
41
-55
43
-36
2
-12
-21
58
42
0
-17
-60
-12
69
-1
50
-33
-15
8
-25
-15
40
-44
39
-67
17
-38
11
-24
-28
-30
38
-63
14
-12
-28
5
59
19
-50
-29
-48
72
-6
-8
-59
-44
38
-19
-48
91
7
8
13
-32
36
11
1
24
36
-25
-18
31
-43
-6
45
-11
28
38
26
-45
-49
-5
28
14
48
0
-32
5
-5
27
-8
49
-15
45
23
39
-24
-24
-37
-11
50
30
33
-8
-20
0
3
52
43
40
-11
-20
39
29
-15
34
2
73
-29
28
-47
12
-53
26
58
60
-9
-26
7
15
-27
-55
35
70
64
54
44
-51
4
-55
36
57
13
-25
2
9
-5
-6
13
64
35
30
51
-16
-53
4
4
32
40
25
50
36
-74
42
-10
3
58
-5
51
-37
-36
8
-32
8
10
2
1
-14
20
11
-49
30
43
-23
33
12
0
-4
-44
-36
38
-70
-6
37
2
-6
-43
-22
29
0
-67
24
-8
-11
-52
9
40
-51
-16
24
8
-31
-54
-20
4
6
41
-42
16
-54
-26
1
-33
10
-16
-28
24
-33
36
-3
-60
-66
31
7
18
-60
7
-2
-23
3
-11
0
6
7
6
-2
-23
8
-8
11
3
5
-9
1
-16
6
-30
9
10
4
-3
-2
0
11
-18
8
2
0
-11
3
2
15
-23
7
10
-2
-3
-1
-2
13
-6
7
11
-3
-10
5
5
19
-22
4
15
-8
6
8
11
22
-15
14
21
-9
-15
3
8
23
-31
1
22
-9
-33
25
10
39
14
5
9
40
14
-8
-15
17
30
2
21
12
15
9
36
-50
38
-4
-37
31
25
-23
-1
36
-54
5
50
21
-9
-19
-27
20
-17
-4
54
41
14
14
9
-36
39
0
-34
-29
8
48
-45
-1
-21
-7
30
7
30
57
32
31
-62
21
1
37
-20
-12
-20
13
-21
-8
8
28
17
21
-46
10
-26
-58
-35
11
24
11
-6
-7
-9
0
9
-26
-1
26
1
0
3
-35
-17
8
0
37
7
17
15
17
-15
22
16
20
-31
-9
18
23
-27
23
-2
43
-5
2
-15
-16
1
67
8
23
-6
12
-1
8
54
19
-14
33
33
6
42
26
21
-8
5
11
37
13
19
16
7
45
-3
0
-1
0
10
-5
11
-10
0
-2
-20
-4
-5
-6
11
-10
-1
-2
2
-5
-6
-6
10
-9
-5
5
-9
0
11
-3
8
4
-7
2
-6
-3
2
-1
11
4
-3
2
8
-3
-3
-4
7
4
-7
7
1
-9
-5
4
12
1
-9
6
-4
-11
4
2
12
-2
-3
2
2
-12
-4
0
10
-2
5
14
-32
29
35
-1
-4
8
27
4
34
-28
-24
-17
-45
43
26
16
-32
12
4
-35
4
-3
3
6
6
41
-4
20
-5
0
31
-19
10
-12
-6
17
-31
53
-2
35
-6
10
55
-17
-18
66
-47
14
48
-11
-21
-31
-6
24
2
-22
-30
-23
-19
-4
20
-24
19
-13
1
-24
-14
-4
8
37
-12
-21
14
10
44
20
7
-4
-16
-26
-31
-13
-6
15
4
23
-6
-19
7
-9
16
12
5
35
-7
-10
60
-19
34
18
54
-12
9
-2
34
-12
7
20
49
0
14
7
10
31
45
-8
47
25
21
8
-34
-30
-31
8
36
-40
26
8
0
-38
-27
-1
29
-28
27
24
-26
-25
-28
-6
42
-25
8
-15
-19
-37
54
-2
21
25
-41
19
65
-4
-21
-30
31
-45
-31
46
-7
26
13
-39
-43
-29
15
-36
-63
-18
-48
-34
-53
29
25
12
-59
-19
49
28
11
-31
-19
40
-43
17
-36
16
9
-10
-26
43
-51
24
-30
-34
-38
5
40
-18
-44
-30
3
-49
6
40
36
43
67
-31
-24
-40
4
-7
-11
-18
10
-5
-2
-19
-4
29
-5
8
7
12
20
16
5
-12
6
-9
4
-12
5
19
1
-12
-8
-7
10
17
-1
5
4
12
7
-2
7
-3
11
31
3
-16
1
-23
-9
-18
-13
-1
-15
-8
1
2
3
-2
-1
20
3
-1
-9
-11
-5
-10
-5
8
-6
-15
-6
-16
-6
-4
-5
-16
-10
-20
-10
46
40
69
25
51
24
-13
-45
54
-4
-19
-52
31
-42
-68
38
19
-45
4
12
52
32
34
-9
9
72
-45
63
-70
-6
-54
20
-5
-39
27
-52
-59
56
13
-50
28
-55
-36
11
30
-28
-12
-62
3
-47
-49
46
-51
-62
-8
1
0
-14
18
33
3
-43
-28
36
-34
-58
-75
-60
11
-62
-18
5
-26
-10
56
-10
-17
-32
14
13
-36
51
42
29
-6
-16
61
7
-12
25
28
-31
13
42
18
-14
-17
45
40
-22
-4
-7
-41
-21
-22
21
-10
-46
43
38
-1
-28
32
7
-50
40
18
62
-3
38
-46
0
49
38
-31
12
-10
-20
-34
-49
35
-22
11
11
-15
42
-27
6
37
-10
19
19
-31
53
12
29
52
33
-11
-20
-23
23
14
-9
1
6
50
1
16
-13
41
-4
-4
1
24
26
-7
47
-11
-6
14
4
40
-3
-14
-15
35
-20
-19
-1
50
42
-19
-18
45
14
3
18
-10
9
-40
0
1
-7
-2
-7
38
31
-25
-25
24
6
-7
12
-4
17
-29
-10
6
3
8
10
-3
-23
-12
-49
-36
-70
3
37
40
16
11
-2
26
37
-79
-19
14
-28
3
1
-33
-7
-50
51
-17
32
-1
26
-43
14
-26
-47
-43
-36
-25
-67
-1
-56
38
3
-72
-11
-22
0
14
-31
5
-19
-14
-46
-5
-38
-7
54
-54
30
3
-58
-9
-22
-18
-10
-30
4
-18
-54
-34
5
-30
-16
-7
-56
-63
21
-49
28
61
54
17
-52
59
-12
-34
-19
51
-28
-38
52
35
28
27
55
-30
48
22
-34
-53
-8
39
-48
-25
-13
47
41
33
62
-65
37
-44
-60
40
-5
64
-40
4
21
-5
-58
-46
-64
-56
-36
-35
-58
58
-14
0
58
2
-23
18
0
-18
57
54
-7
-1
41
-63
-10
-62
-3
-35
9
-23
-46
40
-6
-22
-1
23
-45
-25
32
1
3
43
18
26
29
28
-5
-52
-37
11
32
45
-15
-11
40
2
-67
28
17
46
-52
-31
58
1
-28
45
35
-11
61
-65
10
-28
-2
-5
13
-36
48
-64
-15
-4
36
-14
-40
-34
7
-14
43
1
38
-27
11
-26
-5
62
45
-40
-17
42
41
-30
-20
46
3
-15
10
4
32
-15
-9
13
7
-42
6
-58
11
49
31
3
-42
-16
-8
49
-44
12
-10
-25
36
-22
55
-60
-7
8
-51
27
-27
46
-21
12
-22
47
-43
27
-27
66
-5
40
22
78
-32
28
60
8
24
-48
-20
-39
47
50
-38
-6
-14
-20
-27
-38
-76
14
-19
31
-41
-20
51
43
30
-52
6
-52
4
0
-1
12
-36
-28
-13
-17
-29
-15
-56
-24
-10
-2
23
12
-33
-6
-41
37
9
4
-36
0
-44
60
2
-6
25
-19
24
-14
-4
27
32
24
-5
-73
-21
-73
57
-15
-58
-29
-56
-43
-52
27
-29
58
-49
26
51
-52
-38
-45
27
0
46
-13
-18
-48
-68
-70
40
-29
45
-31
-33
34
-29
-23
-27
-40
2
-30
-36
-23
-3
8
-21
-12
-11
8
6
2
-36
-31
-10
-2
19
-17
22
34
-13
-2
28
-44
21
7
35
1
-24
-13
40
-45
13
-6
39
3
3
-29
37
1
3
-6
36
0
16
23
24
4
-23
12
11
40
-15
17
26
-17
8
11
-19
4
10
8
44
-16
-30
-5
-19
17
-22
32
-11
-29
10
20
-10
-61
-55
-34
-19
-27
-27
13
-16
-25
-34
-30
-22
-17
24
-14
-26
-5
8
-23
-18
-47
-56
-2
-23
7
-13
5
-23
-33
-33
-39
8
37
15
-15
-26
-32
-18
-50
-26
20
52
-39
-14
9
2
-34
11
31
37
-5
-7
17
-21
1
38
7
4
-22
-14
9
-11
-5
25
-17
1
4
-1
-2
-7
14
-13
-2
-1
-4
-16
-16
-16
11
-24
-2
-1
-7
-18
-18
-8
-8
-7
10
5
0
7
4
4
-2
-21
-5
-7
-14
2
2
-5
-16
14
6
9
12
-1
4
18
-5
8
13
3
22
16
19
-16
14
6
15
20
2
23
9
18
-4
-2
18
27
17
-6
13
7
-12
5
18
11
35
1
5
-2
-22
-13
-22
-4
-17
10
-2
1
14
-24
-17
-2
-21
11
-1
-26
-3
-14
-17
1
-19
2
-4
-21
-3
11
-10
11
-5
11
-9
21
-2
-18
-11
11
-10
12
-4
-2
-3
22
-15
19
-15
-10
-7
-12
16
26
5
30
9
1
-3
-10
5
-2
24
35
10
11
-4
25
17
4
21
28
9
