4
28
-5
40
3
53
-10
47
23
19
-9
-37
9
33
-7
32
12
11
-13
-34
6
3
-3
-29
18
47
34
-31
-5
26
-7
-33
34
16
-46
-49
-1
-7
-3
26
10
-7
-49
-7
-1
35
-1
-35
19
41
-39
34
-4
22
-6
20
24
28
-11
25
3
42
-2
-56
-16
-26
-10
-10
0
-30
-3
-56
3
-34
-10
0
-6
14
0
7
-3
2
20
14
-6
-38
-4
-44
10
17
2
-38
-6
1
-4
-24
-18
-66
40
26
-5
45
-1
41
-18
-2
25
-47
-7
-5
-3
-1
-9
37
-32
-25
-8
-13
-7
0
-19
-12
-9
30
6
-5
-1
-40
-12
-45
17
31
4
-2
-9
27
-29
-54
65
-35
6
23
-13
60
12
39
-11
30
2
23
6
-11
7
-4
-17
50
8
-17
6
0
-10
43
14
10
9
16
6
-3
2
40
50
41
8
48
3
24
-2
2
59
36
9
23
4
19
-7
31
-25
-56
6
-36
6
-37
7
31
-20
-30
1
-28
5
-41
15
20
45
-35
3
-33
9
-13
11
52
33
-54
0
-44
11
-26
-5
14
30
8
29
39
2
4
-5
12
23
-1
3
0
-2
6
-6
13
10
-9
-42
14
8
5
-11
8
31
19
-49
-12
6
1
-21
15
25
-35
-40
-1
10
0
-16
4
8
-35
29
35
2
0
-11
18
23
-46
-24
-12
11
2
-16
13
21
11
-20
35
-4
4
-8
9
14
-12
-7
-4
4
5
35
-13
3
-18
-21
30
-9
1
-4
-15
-7
-26
-45
-26
-7
-1
-13
-1
-1
13
3
-11
-4
0
34
-16
-12
33
-3
72
-5
-1
31
-14
-19
6
-31
16
-9
3
17
-7
-11
-46
-14
1
-7
2
21
-15
10
-7
9
-6
-19
-8
30
-17
-4
17
-59
70
-12
-5
25
-19
-6
23
-20
40
-11
-3
-10
-8
6
26
22
40
-1
3
-5
-2
14
-15
12
28
4
3
-1
7
10
25
23
-37
15
2
0
5
24
17
-14
-38
11
8
6
17
11
-26
28
13
6
10
-5
14
7
-14
-60
-29
4
7
-11
10
22
8
32
23
-4
2
2
12
22
-50
-59
13
1
0
-7
6
23
-23
-30
-4
-3
-2
-9
-9
0
-32
18
17
3
-1
-2
14
25
3
20
31
3
10
-23
-46
-37
45
18
13
1
-31
-16
-28
4
73
13
-36
4
-17
24
-32
-48
3
11
-37
0
27
-17
-11
-31
-74
8
-19
4
0
-8
-42
-37
-6
-13
-34
3
-14
3
-4
1
-33
-13
26
4
-31
-15
55
26
-55
-21
42
8
49
-15
-16
-9
-35
-17
-38
1
41
-11
5
16
-14
-6
-1
1
-42
6
7
25
50
3
-28
1
-5
2
-13
-25
27
-4
-6
6
-32
14
-18
-14
11
0
21
5
-46
28
1
11
44
3
37
6
-10
15
35
-3
-16
-2
24
5
-33
31
-26
-14
-13
0
1
5
-17
17
-3
24
48
2
-24
7
-29
-4
6
-13
11
-9
37
6
-48
16
11
-3
-32
-12
53
5
-32
-11
0
37
35
-12
28
3
-21
-5
41
43
33
-1
-61
3
-23
-2
22
17
-13
-3
-23
1
55
-23
-15
0
-15
-3
-15
1
50
3
48
-6
0
-7
-3
5
-64
7
17
-20
18
-6
29
4
-22
-5
22
26
33
-2
-30
4
-13
-10
11
1
27
43
-31
8
9
-10
39
7
-37
3
22
22
9
-6
25
2
-6
-35
19
14
5
-8
45
20
-7
48
14
26
11
-18
39
23
-48
-30
42
1
8
-14
-1
16
-6
25
30
-11
6
-23
29
4
-5
13
-6
5
13
-24
9
4
5
34
44
-10
13
-11
27
25
-40
-26
-1
13
8
-21
0
-24
24
14
-43
3
12
-16
19
-3
37
15
-25
23
12
-5
15
7
35
-11
39
17
6
-23
19
-8
23
-18
-50
34
12
-16
25
-6
29
27
-42
23
7
-10
18
-9
37
44
0
-1
4
-25
24
12
3
-9
-20
32
14
-17
7
0
65
43
19
10
11
5
10
5
9
12
35
1
9
1
-30
7
2
-29
29
1
-5
36
-19
5
-23
14
-2
-2
-8
14
-13
4
1
44
14
6
-11
-15
-17
2
-15
20
-35
3
-9
13
-14
-10
-9
-30
9
-9
-9
24
-2
-13
-5
4
-26
-7
-6
14
-20
6
-18
29
-34
-10
-10
13
-22
-1
-14
14
6
-14
-8
34
-8
9
-33
-8
3
-14
-5
-15
51
-40
-14
-2
-3
-1
-1
-20
35
8
-44
0
-29
0
13
-8
12
-18
-61
-2
8
3
18
-13
-16
22
14
-6
19
-3
-56
-2
3
24
19
-2
23
1
-39
-17
-33
-6
9
-2
-15
-5
10
-11
-18
18
-11
19
15
-17
26
-50
-50
40
12
18
-37
-11
29
-25
-56
-10
39
15
-21
-6
42
26
-23
-20
-20
-8
-3
5
0
37
30
-11
26
-4
-6
4
-18
24
-35
0
-8
2
0
4
21
33
-8
-7
43
-5
33
4
-35
50
0
-21
18
-4
-4
4
34
24
28
27
36
0
18
5
-42
37
13
24
29
-8
-18
1
-22
28
-15
45
16
-3
7
1
-10
13
-1
36
16
0
-35
1
-21
0
-9
-31
30
12
-41
6
-32
-4
-10
-1
65
8
24
9
-5
-4
-1
-24
-14
3
-3
10
46
-2
23
12
10
12
25
9
-51
0
-28
-6
35
10
-28
11
-7
9
3
-27
56
12
0
13
-16
5
-1
-30
-10
15
-6
10
-53
11
-35
-36
-5
20
16
13
-38
9
-5
5
-12
23
14
14
32
-8
-2
32
19
28
-27
-9
-13
-11
-5
37
23
28
-13
-15
-13
0
-24
33
-27
56
-27
-14
-5
-6
5
3
42
-63
7
11
-16
-13
-3
-2
-3
-56
-14
8
-15
-5
3
-9
35
-26
-19
-13
-10
-3
7
-12
9
-2
-26
-6
-8
-9
6
-11
45
11
22
-15
-6
-11
7
-1
33
13
1
-16
-2
-33
-8
-5
15
0
-32
36
-2
-18
-13
9
17
32
-8
18
-8
-12
-3
16
3
15
11
2
-14
-23
-9
1
-29
-25
19
17
-5
-21
-4
10
-22
-22
-17
-2
-13
-15
-10
16
-13
-16
-19
-11
-15
17
-6
-7
20
-44
18
-12
-10
40
-3
-5
16
-29
-3
-6
-9
16
3
-1
-5
-43
-4
-2
-8
-4
-8
0
6
32
20
-6
-4
6
-1
2
-26
3
14
-6
-3
5
5
-4
16
36
-23
-8
-1
7
-7
-3
15
-40
37
1
4
10
1
-1
-29
2
39
-1
4
12
2
1
13
-14
35
0
2
28
-9
-4
-3
-43
2
-3
3
19
-5
-6
33
32
6
-3
3
9
7
-6
26
43
-7
2
5
-5
-32
17
-31
-1
3
5
-46
4
-8
-4
-14
-2
-23
3
-27
10
-24
37
-32
-1
4
4
-44
9
-31
46
-32
1
-46
10
40
8
10
16
50
7
-13
8
1
-13
-4
7
11
10
0
6
-4
8
-20
39
41
8
10
12
34
19
2
-11
-26
13
-2
9
39
-9
41
6
17
10
-41
9
35
-10
21
66
-33
-3
-9
9
-44
5
46
46
18
-5
11
14
-3
2
32
-7
25
-4
46
8
1
10
-67
35
27
-1
21
-1
55
-6
-61
-18
-6
1
46
2
39
-10
-46
-18
17
4
20
3
31
0
9
-23
10
4
-39
-3
-40
-13
40
-39
-61
3
-50
-2
-47
13
12
-12
-43
3
-13
2
9
-1
5
-21
-22
6
-22
8
-45
-23
13
-8
-8
7
-20
5
31
16
-26
-18
-28
11
-31
3
-13
8
11
2
45
7
-9
6
35
-18
-5
-14
6
10
-36
7
-42
14
17
-30
52
4
-25
3
-44
9
-1
56
38
9
-4
3
5
-4
43
-31
4
12
-30
2
60
27
0
-19
50
5
40
0
-39
2
-1
-11
2
-31
17
14
-1
-15
1
-11
13
-10
-2
21
-1
-8
4
-1
13
18
-17
20
-1
-6
10
-3
48
18
28
16
-1
-10
-3
-1
-13
13
2
26
-3
-1
0
1
-20
-11
10
16
-4
-3
13
3
16
18
-22
28
-1
0
3
10
1
-46
25
15
0
8
5
15
-25
37
1
12
1
5
0
13
-3
19
-16
22
0
-3
2
9
-48
-30
-31
18
0
-6
7
8
-40
10
-17
18
0
-6
7
-1
-22
-47
18
23
1
-1
7
4
-10
-3
18
12
1
2
1
8
30
5
11
13
1
-11
-16
8
24
18
-14
-16
-6
-5
-18
12
44
28
-17
-7
-6
-13
-11
12
-23
47
-36
0
-9
13
1
-6
17
-20
35
-6
0
-8
0
-14
16
-24
-21
-11
-1
-1
-16
-28
-5
-35
20
-20
-4
28
0
-1
-16
-35
43
-23
2
-5
5
10
4
-10
12
-20
1
1
-23
-4
30
-9
45
-21
2
33
17
-7
39
-14
9
-26
9
-12
29
-1
-16
-3
7
-19
8
-7
-6
-13
-9
-9
25
-22
11
-6
-22
9
45
11
-21
1
-19
6
16
10
34
11
-30
2
-45
5
33
22
-4
9
18
1
50
-11
15
24
31
8
-29
4
0
9
-6
-7
-9
7
-5
4
-52
3
21
6
14
5
1
4
26
7
5
29
-46
-1
12
1
1
0
35
43
5
-4
18
2
-43
-1
16
16
-47
-6
46
3
32
6
5
7
-18
-25
8
-3
5
8
-4
15
5
-37
-29
-1
4
3
-3
11
-37
39
6
7
-1
18
4
-3
-30
-7
-33
-15
6
20
5
5
-34
10
-42
-15
3
22
12
2
-16
-12
-44
-9
0
12
-15
-21
-11
23
-27
-10
3
19
1
-8
-52
35
-42
-11
4
12
8
-16
-2
-11
-46
2
3
9
70
6
-25
7
-34
-5
32
5
-5
7
12
8
22
-4
49
-1
24
-5
-15
7
6
-2
45
2
-8
25
-18
-10
36
-4
-28
3
61
-29
-52
-11
-2
0
-46
9
7
-13
28
-7
16
-2
4
8
13
6
0
4
-36
-8
-46
-3
-18
-39
16
0
2
-5
5
2
23
16
-27
0
-19
-5
-19
6
-6
14
-8
60
-15
7
-2
3
-3
15
-26
22
35
1
-3
5
-1
8
6
10
13
-2
-3
14
-16
-10
-7
15
-36
4
-2
12
-12
-2
6
13
-41
2
-1
7
-20
-8
29
51
-15
0
0
-6
-6
-1
4
-32
26
2
-2
3
2
2
-1
-3
-17
3
-3
8
-15
-7
-43
-31
-15
-3
-2
-8
-16
12
-18
1
9
-5
-50
-7
17
-5
-11
0
48
-9
31
-3
15
-14
-48
2
0
-12
6
-15
25
-18
32
1
-21
-4
39
-12
-22
32
0
6
-15
-8
-52
10
-31
6
-18
6
53
-11
51
-1
35
-39
-19
2
-26
0
-7
13
17
-32
42
2
-8
-8
-48
15
17
10
17
3
-44
-13
4
6
-25
-36
43
-2
-23
0
36
-5
25
-11
-9
-3
-38
0
49
10
-5
-6
44
-1
-14
2
49
7
19
-27
-23
-3
-44
6
15
-1
21
-3
-34
1
6
6
13
6
-17
8
25
3
13
4
-6
8
-15
13
14
-18
-1
6
8
-5
-10
-2
-13
-16
-64
5
-34
-6
-28
-36
-20
-18
-43
4
-47
4
20
49
-19
-7
-15
5
-16
-8
-21
28
48
-4
2
5
-34
10
-29
17
65
-1
-36
2
-62
-8
24
55
-10
-2
-38
2
-35
-16
-30
37
60
0
16
0
16
9
-10
8
-14
1
-1
-1
33
-2
-27
16
-4
-5
19
0
39
-18
-43
25
-16
-6
-9
0
-32
20
-10
64
-52
-4
-36
1
50
25
-1
-4
37
-46
9
19
9
24
-18
-3
48
-14
23
18
13
-5
-11
2
34
2
-12
11
8
-24
-5
6
17
-24
-16
10
4
14
-20
-8
7
-24
15
0
2
40
-7
-7
43
-64
23
-2
1
3
5
11
-17
62
-41
6
2
-15
-18
5
33
3
14
0
1
5
-18
-9
22
-35
21
-8
1
15
-1
8
-8
-26
-2
-7
-3
3
2
-1
16
33
-15
-13
-2
-2
-16
-3
33
33
11
-15
-3
8
1
42
-31
19
3
-10
-5
0
-2
26
39
38
-4
-12
-2
-13
-9
14
14
0
-13
-4
-2
3
3
-9
16
-32
-25
-24
0
-15
16
-16
25
43
-6
-8
1
-15
-4
-28
-4
-39
24
-15
0
-2
11
11
-25
-6
-9
-14
-17
-17
11
-1
-12
-12
-12
-4
-18
5
-4
7
18
7
33
-17
-18
19
35
-18
-9
-23
-29
-9
-12
0
43
-2
20
28
-7
-16
-15
-11
15
4
1
-12
48
-32
-14
2
30
6
19
33
-21
-2
-11
9
23
5
34
1
-3
-25
-12
2
29
-2
-38
0
6
-22
-8
0
11
20
5
-8
-20
5
8
-6
-39
41
-2
-8
17
2
-9
-11
14
20
15
-3
7
-1
-18
-15
-15
-10
36
-4
24
6
17
-35
2
-13
18
-1
2
3
41
-7
3
3
13
5
23
0
25
-18
-9
12
-10
-4
39
9
-41
-21
18
-2
29
-7
11
5
4
-11
-1
47
-7
-6
27
3
34
4
-10
-8
-3
9
17
-2
29
15
-41
19
54
10
25
-1
-18
-2
-34
4
17
8
13
-4
30
-10
-62
8
-16
9
-33
-7
-28
-2
-30
33
-8
6
5
-4
18
-2
23
18
-29
6
-62
-5
-47
-2
16
33
-11
4
-1
-11
-15
3
50
9
-28
3
8
-10
33
5
-13
-22
27
2
41
-10
-23
-6
3
3
-28
13
-25
2
-23
-5
-12
-8
27
12
-9
3
44
-8
30
22
24
9
12
2
17
-11
13
-39
34
4
-44
4
-9
-1
47
-12
-34
7
-48
3
-34
18
-34
-9
-13
7
-28
2
35
-5
40
-26
-27
8
-47
5
15
-5
12
-16
39
4
-18
4
-30
21
40
-29
-13
4
-8
2
1
21
-3
10
-20
-17
33
-3
0
6
1
15
30
29
-11
-7
0
6
-2
9
-24
-21
14
3
2
25
-7
9
-20
-14
-13
-3
2
20
4
10
4
-26
-2
7
4
5
-2
6
1
39
-11
3
4
26
7
11
11
-14
18
14
5
26
5
15
-37
-7
-5
15
9
9
-2
16
-33
19
9
6
10
-2
6
19
-24
-43
-12
13
0
3
19
11
-3
16
19
2
-2
-5
-1
7
34
-24
29
-9
-5
-2
9
7
44
43
34
-23
-4
-1
-9
3
-15
48
-11
-32
-6
3
-7
2
19
-23
-29
-28
-7
3
-7
-2
-8
-6
-28
-11
-7
-12
-1
-1
6
-12
4
6
-10
-4
20
3
10
4
-18
18
-9
-8
-1
10
3
35
3
8
2
0
-4
7
-20
-27
39
7
3
19
-4
-5
-34
1
48
3
1
-6
-3
4
24
3
-22
-2
4
-18
-8
2
-5
13
13
-2
5
-4
-5
-10
-8
-1
51
1
2
-1
5
4
18
2
-34
3
2
-15
3
11
13
13
-25
10
3
-8
-10
-9
2
-19
46
0
2
-25
-15
-17
25
2
34
7
10
7
-33
-20
0
-1
27
-1
-36
13
0
-21
18
2
-5
-3
10
-36
-24
-36
25
4
-3
12
41
-8
0
3
3
1
45
5
19
5
-8
7
19
1
-31
-1
-22
-24
-25
-21
-1
-14
-17
10
-56
18
-57
-44
-25
-6
48
3
49
4
-13
-12
16
-5
11
-1
-49
-10
-36
-22
23
-12
17
-9
23
-34
9
-20
-14
-9
14
-7
-46
-24
39
-43
8
-6
-23
-1
57
-10
12
-37
7
-17
22
-8
41
4
34
-30
18
-17
-14
-2
-18
-3
34
-29
27
-9
-21
6
49
5
3
-7
-30
-26
-1
-8
-36
-13
51
-30
-9
-28
-2
0
51
-3
-13
-29
1
-19
-15
8
25
47
2
-10
-26
-5
-15
8
-6
15
-8
15
-8
-2
-25
10
-13
16
10
-30
12
-3
-32
11
-31
27
11
65
-5
-2
33
8
11
1
-16
-9
11
5
-11
11
26
-8
9
7
29
7
-23
12
-20
-7
46
56
41
10
-38
6
-36
-40
11
29
46
13
-27
7
34
-36
22
-1
16
11
-34
7
-3
9
15
-2
5
29
38
-7
11
17
-1
-12
0
4
-22
-12
11
11
12
-6
-45
6
-18
-6
12
-8
5
32
-36
21
47
-6
10
19
-9
17
5
-38
-21
-12
15
9
12
34
-10
26
-56
-1
13
-21
-10
-6
-32
-14
54
-23
9
16
-11
-13
-47
-45
13
-22
14
10
5
-2
-2
54
-38
-14
9
-20
21
-6
14
-6
9
16
2
-11
4
9
-21
-21
6
9
2
0
10
10
-30
-44
-20
8
2
-26
14
7
18
-13
33
11
-4
-14
9
12
-26
-49
9
2
-4
-2
14
18
-40
-9
-10
1
-4
-35
7
-4
-5
-30
7
-17
-3
-19
6
-5
-2
-50
-9
-11
0
-8
30
-1
-14
-18
-37
14
3
-27
-14
24
-19
1
-3
4
-21
-10
-18
36
-50
-12
-1
-8
-18
9
-27
10
-34
-7
-23
-26
-16
21
0
11
-24
26
29
-24
-18
10
3
5
-24
5
-28
-33
-17
2
-4
1
-14
-10
31
-38
-13
34
14
3
-32
19
-27
-51
-13
28
33
-6
-50
43
-35
-20
-12
-8
15
7
-21
24
-3
-25
-9
-1
-19
-1
47
6
-25
6
49
-6
21
-20
49
11
-39
5
-46
-6
-13
-17
-42
15
-32
5
-10
12
30
-32
-55
-2
1
11
-55
-8
-1
-3
-40
0
-25
13
16
9
47
-20
-50
-2
-46
12
-44
-20
23
17
-22
-1
-29
2
36
-14
22
34
28
4
43
5
60
3
4
12
54
5
-21
1
58
9
-26
12
1
16
-11
0
25
-4
-37
-12
13
16
29
2
30
8
25
-5
-20
15
3
3
4
7
-29
-16
2
11
-19
5
-40
8
17
15
12
6
17
4
-49
-11
39
-2
-15
10
-2
4
-26
14
-30
-13
-36
-10
-22
-1
-55
-2
-2
28
10
-9
-17
0
-16
-8
-7
-12
16
-8
13
1
-2
17
-20
27
32
4
30
0
-14
25
-42
1
-13
9
33
-2
-37
6
-37
31
12
6
45
-5
5
16
-6
-7
-10
-5
3
4
26
23
48
-18
-28
-4
-17
-1
7
14
30
9
-3
-7
-58
-5
2
9
-16
35
24
-11
-21
4
60
27
22
-4
-1
-12
31
0
-48
12
11
-17
-2
-12
-37
-3
-39
-19
-13
11
4
-28
1
17
-7
-13
-5
20
5
-36
-27
17
-4
-4
-11
19
-12
-30
8
7
-3
-12
-18
4
17
12
-13
-7
-10
-11
-11
25
-5
34
-13
2
-14
-1
-15
22
-32
39
-18
-7
-14
-3
5
23
-22
26
-7
19
-5
-14
16
31
-10
-40
-7
3
-6
-19
-1
29
21
-27
34
5
-5
14
-1
-3
-7
32
0
-19
3
5
8
5
14
-6
-27
-20
1
11
5
-5
-15
-28
-24
-14
-2
8
6
56
-27
-35
-13
-7
-1
4
12
26
0
-12
-19
0
-5
6
15
35
-14
37
3
-7
-7
1
8
-20
17
17
-17
-18
-4
6
20
-22
-16
-29
-29
-12
-4
-7
14
-17
37
25
-16
-16
-7
6
-4
19
1
0
-24
-2
0
17
-5
10
-1
-21
15
-4
0
20
-6
2
22
-37
10
4
-1
22
-7
40
-43
22
-23
-12
2
2
-12
39
-31
20
-23
-12
2
0
-18
22
-5
14
12
-13
1
35
-13
25
-14
-38
25
-14
2
36
-22
26
-12
31
3
-13
-1
16
-17
19
7
-25
4
-9
-4
7
0
33
35
-8
-7
5
-35
20
10
7
-45
-3
-2
6
15
-9
10
-25
39
2
-4
4
20
10
-14
-11
-20
-5
-2
2
34
3
14
44
49
4
31
4
0
-2
-25
-5
43
7
-8
-2
-14
-2
-10
23
31
1
7
-4
44
17
-3
24
-16
6
24
-5
-20
-4
-44
-27
-5
8
-20
-9
-39
-10
9
1
4
5
45
-6
-6
11
0
9
-33
6
12
-10
-7
-11
41
7
5
-9
-7
12
-8
-5
-14
-1
18
33
-31
-38
-2
29
39
-7
-38
-17
-39
-15
-3
8
50
-12
20
49
-18
-10
-7
-26
15
7
8
-1
-40
-12
3
-7
61
-3
2
12
-3
1
-2
-14
9
-12
21
10
-3
-25
-3
5
-3
9
-16
2
-17
-3
3
-7
41
-28
-41
3
15
-4
2
-13
-12
3
28
-3
36
-5
52
14
-11
-2
11
-6
-43
-1
-30
1
52
12
-24
-13
-24
-4
-35
-2
7
-17
19
-14
0
-5
17
26
12
12
38
-4
-35
-7
-42
9
-11
12
18
-9
14
-9
-8
0
54
19
-25
-12
-42
-9
33
8
4
10
-6
39
-28
4
-2
4
-1
10
-12
10
15
-8
-3
14
-11
-1
44
20
34
-10
-5
9
6
10
-9
9
-32
-18
3
0
-4
3
12
27
-23
-14
2
-13
-11
-14
34
11
4
-9
2
12
10
-3
12
-31
18
-11
2
10
11
0
-2
14
-40
-3
5
-13
-2
-9
14
39
-2
-2
9
-14
-28
-13
-14
1
-46
11
44
-5
-2
-37
-12
-6
-48
12
-19
2
27
-23
3
-10
2
11
-12
-12
-16
55
13
-4
-33
14
44
-14
44
54
35
1
-58
15
56
7
-27
-26
-20
4
-24
15
45
-26
-50
0
6
-6
22
8
1
-34
7
5
-4
-2
9
8
-10
-27
-35
31
-15
-3
-13
8
-28
0
36
26
-25
-19
-44
-10
-55
-5
18
2
38
-19
-18
-5
40
-8
-2
14
-20
-17
-7
-7
-14
-33
31
2
7
-19
-15
-5
36
-30
32
52
-77
-17
15
-10
22
-25
-33
28
-75
-17
-16
-9
-36
-9
4
21
5
-11
29
-17
3
-16
-27
-5
5
-9
48
-15
-25
-19
-12
-25
29
-3
59
-19
13
-35
-8
25
-29
-32
-32
3
-19
-9
-19
13
-46
-35
13
-7
-17
22
-21
-1
-29
21
-22
-19
-17
21
10
23
-14
44
-16
-28
-18
1
8
40
19
21
-25
-16
-15
16
-9
27
-46
-14
10
-21
-11
31
14
-2
40
5
-24
-26
-7
13
14
6
6
-27
8
-30
-10
-9
4
0
-39
49
-24
-31
-9
5
11
5
16
-44
-8
10
-6
9
15
10
-33
-16
-24
-2
-7
6
5
5
-20
4
19
3
-8
15
4
-1
-41
29
0
-1
-8
13
9
-9
-48
71
-24
-4
-10
1
0
0
-25
12
-23
-8
-12
-8
1
9
37
33
-4
15
-5
-15
0
3
56
-9
6
2
-9
-18
-3
14
2
6
13
3
-9
-15
-11
-34
-15
-3
-7
-5
-28
5
0
12
-11
-1
46
-6
-7
-11
-12
-29
-34
0
-24
-5
-25
-11
-6
35
-41
-5
7
-3
-51
-4
17
6
-15
-6
-15
-3
-20
10
-6
-21
1
-5
20
-4
13
-14
-33
12
-25
-3
-27
-2
-26
-11
51
-9
-18
-4
-34
-4
-33
-18
5
-18
53
-8
18
-7
-36
7
-22
-27
12
7
37
0
25
6
17
-3
11
5
-7
-1
27
5
33
13
14
3
-27
-2
24
-1
-37
-19
-10
9
-25
-6
-35
0
-42
-8
34
7
-3
-6
19
7
-36
18
-13
9
27
-6
38
1
-4
11
-59
1
1
1
-18
-6
15
36
-56
2
0
0
-3
-7
15
24
-52
5
-12
-3
30
-1
-24
-23
26
23
28
-6
-3
-3
-8
-14
-36
-4
-22
3
-3
12
2
-2
6
45
-8
7
-3
0
-13
11
-7
41
-9
-13
2
-1
-1
24
34
27
16
-6
2
4
0
25
-16
39
-1
-19
-1
-16
-10
-10
18
-13
-17
-12
-1
-6
7
-4
-2
66
-15
0
1
-7
9
-5
39
60
28
-2
-1
19
-18
5
4
-20
-18
2
-7
15
-10
13
29
-7
-35
2
-10
-3
-10
9
25
21
-25
-4
-13
-12
-13
14
2
-34
-7
0
-2
10
-10
11
16
-48
-12
-3
-3
14
-5
12
3
-36
12
4
-5
35
-27
25
10
37
-45
4
-9
29
-17
17
15
-2
-45
3
-11
21
-15
24
-3
7
-13
-19
-14
